   -26.38     9.81   254.98     0.01     0.00    -0.00   0.020  157
   -26.38    11.77   253.96     0.01     0.00    -0.00   0.020  159
   -24.43    11.77   252.95     0.01     0.00    -0.00   0.020  160
   -24.43     8.83   253.96     0.01     0.00    -0.00   0.021  161
   -25.40     9.81   254.98     0.01     0.00    -0.00   0.020  162
   -25.40    10.79   256.00     0.01     0.00    -0.00   0.021  163
   -24.43     9.81   254.98     0.01     0.00    -0.00   0.020  164
   -25.40    10.79   253.96     0.01     0.00    -0.00   0.020  166
   -24.43    10.79   254.98     0.01     0.00    -0.00   0.021  167
   -26.38    10.79   253.96     0.01     0.00    -0.00   0.020  168
   -25.40    11.77   254.98     0.01     0.00    -0.00   0.021  169
   -25.40     9.81   253.96     0.01     0.00    -0.00   0.020  170
   -24.43     9.81   253.96     0.01     0.00    -0.00   0.021  171
   -24.43    11.77   252.95     0.01     0.00    -0.00   0.021  173
   -25.40    10.79   254.98     0.01     0.00    -0.00   0.020  174
   -25.40    10.79   253.96     0.01     0.00    -0.00   0.021  175
   -24.43     9.81   253.96     0.01     0.00    -0.00   0.020  176
   -24.43     9.81   253.96     0.01     0.00    -0.00   0.021  177
   -26.38     9.81   253.96     0.01     0.00    -0.00   0.020  178
   -25.40     8.83   254.98     0.01     0.00    -0.00   0.020  180
   -26.38     9.81   254.98     0.01     0.00    -0.00   0.021  181
   -25.40     9.81   253.96     0.01     0.00    -0.00   0.020  182
   -25.40     9.81   253.96     0.01     0.00    -0.00   0.021  183
   -26.38     9.81   253.96     0.01     0.00    -0.00   0.020  184
   -25.40     9.81   253.96     0.01     0.00    -0.00   0.020  185
   -25.40     9.81   252.95     0.01     0.00    -0.00   0.020  187
   -24.43    10.79   254.98     0.01     0.00    -0.00   0.021  188
   -26.38     9.81   253.96     0.01     0.00    -0.00   0.020  189
   -25.40    10.79   253.96     0.01     0.00    -0.00   0.021  190
   -25.40     9.81   253.96     0.01     0.00    -0.00   0.020  191
   -25.40     9.81   253.96     0.01     0.00    -0.00   0.021  192
   -25.40    10.79   253.96     0.01     0.00    -0.00   0.021  194
   -24.43     9.81   252.95     0.01     0.00    -0.00   0.020  195
   -25.40     9.81   252.95     0.01     0.00    -0.00   0.021  196
   -24.43    10.79   253.96     0.01     0.00    -0.00   0.020  197
   -24.43     9.81   253.96     0.01     0.00    -0.00   0.021  198
   -25.40     9.81   253.96     0.01     0.00    -0.00   0.020  199
   -24.43     9.81   254.98     0.01     0.00    -0.00   0.020  201
   -24.43     9.81   253.96     0.01     0.00    -0.00   0.021  202
   -25.40     9.81   254.98     0.01     0.00    -0.00   0.020  203
   -25.40     9.81   256.00     0.01     0.00    -0.00   0.021  204
   -25.40     9.81   253.96     0.01     0.00    -0.00   0.020  205
   -25.40     9.81   252.95     0.01     0.00    -0.00   0.021  206
   -25.40     9.81   253.96     0.01     0.00    -0.00   0.021  208
   -25.40    10.79   252.95     0.01     0.00    -0.00   0.020  209
   -23.45     8.83   253.96     0.01     0.00    -0.00   0.020  210
   -25.40    10.79   253.96     0.01     0.00    -0.00   0.021  211
   -24.43     9.81   252.95     0.01     0.00    -0.00   0.020  212
   -24.43     9.81   252.95     0.01     0.00    -0.00   0.021  213
   -25.40     9.81   254.98     0.01     0.00    -0.00   0.021  215
   -24.43     9.81   253.96     0.01     0.00    -0.00   0.020  216
   -26.38     9.81   253.96     0.01     0.00    -0.00   0.021  217
   -25.40     8.83   256.00     0.01     0.00    -0.00   0.020  218
   -25.40     9.81   252.95     0.01     0.00    -0.00   0.021  219
   -25.40     9.81   253.96     0.01     0.00    -0.00   0.020  220
   -23.45     9.81   253.96     0.01     0.00    -0.00   0.020  222
   -25.40     9.81   253.96     0.01     0.00    -0.00   0.021  223
   -25.40    10.79   254.98     0.01     0.00    -0.00   0.020  224
   -25.40     9.81   252.95     0.01     0.00    -0.00   0.021  225
   -25.40     9.81   254.98     0.01     0.00    -0.00   0.020  226
   -24.43     9.81   253.96     0.01     0.00    -0.00   0.021  227
   -24.43     9.81   252.95     0.01     0.00    -0.00   0.021  229
   -25.40    10.79   254.98     0.01     0.00    -0.00   0.020  230
   -25.40    10.79   253.96     0.01     0.00    -0.00   0.021  231
   -25.40     9.81   254.98     0.01     0.00    -0.00   0.020  232
   -25.40    10.79   253.96     0.01     0.00    -0.00   0.021  233
   -25.40     9.81   253.96     0.01     0.00    -0.00   0.020  234
   -24.43    10.79   253.96     0.01     0.00    -0.00   0.021  236
   -25.40    10.79   254.98     0.01     0.00    -0.00   0.020  237
   -25.40    10.79   253.96     0.01     0.00    -0.00   0.021  238
   -25.40     9.81   253.96     0.01     0.00    -0.00   0.020  239
   -24.43     9.81   252.95     0.01     0.00    -0.00   0.021  240
   -25.40    10.79   254.98     0.01     0.00    -0.00   0.020  241
   -24.43    10.79   253.96     0.01     0.00    -0.00   0.020  243
   -25.40    10.79   254.98     0.01     0.00    -0.00   0.021  244
   -26.38     9.81   254.98     0.01     0.00    -0.00   0.020  245
   -25.40    10.79   253.96     0.01     0.00    -0.00   0.021  246
   -25.40    10.79   253.96     0.01     0.00    -0.00   0.020  247
   -24.43     9.81   253.96     0.01     0.00    -0.00   0.021  248
   -25.40     9.81   254.98     0.01     0.00    -0.00   0.021  250
   -25.40    11.77   253.96     0.01     0.00    -0.00   0.020  251
   -26.38     9.81   253.96     0.01     0.00    -0.00   0.021  252
   -25.40     9.81   253.96     0.01     0.00    -0.00   0.020  253
   -25.40     9.81   252.95     0.01     0.00    -0.00   0.021  254
   -24.43    10.79   254.98     0.01     0.00    -0.00   0.020  255
   -26.38    10.79   253.96     0.01     0.00    -0.00   0.020    1
   -25.40    10.79   251.93     0.01     0.00    -0.00   0.021    2
   -24.43    10.79   252.95     0.01     0.00    -0.00   0.020    3
   -25.40    10.79   252.95     0.01     0.00    -0.00   0.020    4
   -24.43     9.81   253.96     0.01     0.00    -0.00   0.021    5
   -24.43     9.81   253.96     0.01     0.00    -0.00   0.020    6
   -25.40    10.79   253.96     0.01     0.00    -0.00   0.020    8
   -24.43     9.81   254.98     0.01     0.00    -0.00   0.021    9
   -25.40     8.83   253.96     0.01     0.00    -0.00   0.020   10
   -24.43     8.83   252.95     0.01     0.00    -0.00   0.021   11
   -24.43    10.79   253.96     0.01     0.00    -0.00   0.020   12
   -25.40     9.81   252.95     0.01     0.00    -0.00   0.021   13
   -25.40     8.83   254.98     0.01     0.00    -0.00   0.021   15
   -25.40     9.81   253.96     0.01     0.00    -0.00   0.020   16
   -24.43     8.83   252.95     0.01     0.00    -0.00   0.021   17
   -24.43    10.79   253.96     0.01     0.00    -0.00   0.020   18
   -23.45     9.81   253.96     0.01     0.00    -0.00   0.021   19
   -25.40    10.79   252.95     0.01     0.00    -0.00   0.020   20
   -25.40    10.79   254.98     0.01     0.00    -0.00   0.020   22
   -24.43    10.79   254.98     0.01     0.00    -0.00   0.021   23
   -24.43    10.79   254.98     0.01     0.00    -0.00   0.020   24
   -24.43    10.79   251.93     0.01     0.00    -0.00   0.021   25
   -24.43    10.79   252.95     0.01     0.00    -0.00   0.020   26
   -24.43     9.81   253.96     0.01     0.00    -0.00   0.021   27
   -25.40     9.81   254.98     0.01     0.00    -0.00   0.020   29
   -26.38    10.79   254.98     0.01     0.00    -0.00   0.021   30
   -24.43     9.81   254.98     0.01     0.00    -0.00   0.020   31
   -25.40    10.79   253.96     0.01     0.00    -0.00   0.021   32
   -26.38    11.77   252.95     0.01     0.00    -0.00   0.020   33
   -24.43    11.77   254.98     0.01     0.00    -0.00   0.021   34
   -24.43    10.79   253.96     0.01     0.00    -0.00   0.021   36
   -24.43    10.79   254.98     0.01     0.00    -0.00   0.020   37
   -23.45    10.79   252.95     0.01     0.00    -0.00   0.021   38
   -25.40    10.79   256.00     0.01     0.00    -0.00   0.020   39
   -25.40     9.81   253.96     0.01     0.00    -0.00   0.021   40
   -25.40     9.81   253.96     0.01     0.00    -0.00   0.020   41
   -25.40     9.81   252.95     0.01     0.00    -0.00   0.020   43
   -24.43    10.79   253.96     0.01     0.00    -0.00   0.021   44
   -24.43     9.81   253.96     0.01     0.00    -0.00   0.020   45
   -26.38     9.81   254.98     0.01     0.00    -0.00   0.021   46
   -25.40    10.79   254.98     0.01     0.00    -0.00   0.020   47
   -25.40    10.79   254.98     0.01     0.00    -0.00   0.021   48
   -24.43     9.81   253.96     0.01     0.00    -0.00   0.021   50
   -24.43    10.79   253.96     0.01     0.00    -0.00   0.020   51
   -25.40     9.81   253.96     0.01     0.00    -0.00   0.021   52
   -25.40     9.81   253.96     0.01     0.00    -0.00   0.020   53
   -24.43     9.81   254.98     0.01     0.00    -0.00   0.020   54
   -25.40    10.79   254.98     0.01     0.00    -0.00   0.021   55
   -25.40     9.81   253.96     0.01     0.00    -0.00   0.021   57
   -24.43     9.81   253.96     0.01     0.00    -0.00   0.020   58
   -24.43     9.81   253.96     0.01     0.00    -0.00   0.021   59
   -25.40     9.81   253.96     0.01     0.00    -0.00   0.020   60
   -25.40    10.79   252.95     0.01     0.00    -0.00   0.021   61
   -25.40    10.79   254.98     0.01     0.00    -0.00   0.020   62
   -25.40    10.79   253.96     0.01     0.00    -0.00   0.020   64
   -26.38    11.77   254.98     0.01     0.00    -0.00   0.021   65
   -26.38    10.79   252.95     0.01     0.00    -0.00   0.020   66
   -24.43     9.81   253.96     0.01     0.00    -0.00   0.021   67
   -24.43     9.81   253.96     0.01     0.00    -0.00   0.020   68
   -25.40     9.81   253.96     0.01     0.00    -0.00   0.021   69
   -25.40     9.81   253.96     0.01     0.00    -0.00   0.021   71
   -25.40     9.81   253.96     0.01     0.00    -0.00   0.020   72
   -25.40    10.79   253.96     0.00     0.00    -0.00   0.021   73
   -24.43     8.83   252.95     0.01     0.00    -0.00   0.020   74
   -25.40    10.79   252.95     0.01     0.00    -0.00   0.021   75
   -25.40    10.79   253.96     0.01     0.00    -0.00   0.020   76
   -26.38    10.79   253.96     0.01     0.00    -0.00   0.020   78
   -25.40     9.81   253.96     0.01     0.00    -0.00   0.020   79
   -25.40    10.79   253.96     0.01     0.00    -0.00   0.021   80
   -25.40     9.81   253.96     0.01     0.00    -0.00   0.020   81
   -24.43     9.81   252.95     0.01     0.00    -0.00   0.021   82
   -25.40     8.83   253.96     0.01     0.00    -0.00   0.020   83
   -25.40     9.81   252.95     0.01     0.00    -0.00   0.020   85
   -26.38     9.81   254.98     0.01     0.00    -0.00   0.021   86
   -25.40    10.79   254.98     0.01     0.00    -0.00   0.020   87
   -25.40    11.77   252.95     0.01     0.00    -0.00   0.021   88
   -26.38    10.79   253.96     0.01     0.00    -0.00   0.020   89
   -24.43     9.81   253.96     0.01     0.00    -0.00   0.021   90
   -25.40    11.77   254.98     0.01     0.00    -0.00   0.021   92
   -25.40     9.81   252.95     0.01     0.00    -0.00   0.020   93
   -25.40    10.79   252.95     0.01     0.00    -0.00   0.020   95
   -25.40     9.81   253.96     0.01     0.00    -0.00   0.021   96
   -25.40     9.81   254.98     0.01     0.00    -0.00   0.020   97
   -26.38     9.81   252.95     0.01     0.00    -0.00   0.021   98
   -25.40    10.79   254.98     0.01     0.00    -0.00   0.020   99
   -26.38    10.79   252.95     0.01     0.00    -0.00   0.021  100
   -25.40     9.81   253.96     0.01     0.00    -0.00   0.020  101
   -25.40     9.81   254.98     0.01     0.00    -0.00   0.021  102
   -24.43     8.83   252.95     0.01     0.00    -0.00   0.020  103
   -25.40    10.79   253.96     0.01     0.00    -0.00   0.020  104
   -25.40     9.81   252.95     0.01     0.00    -0.00   0.020  106
   -24.43    11.77   253.96     0.01     0.00    -0.00   0.021  107
   -25.40     9.81   253.96     0.01     0.00    -0.00   0.021  109
   -25.40    10.79   253.96     0.01     0.00    -0.00   0.020  110
   -25.40    10.79   253.96     0.01     0.00    -0.00   0.021  111
   -26.38     9.81   253.96     0.01     0.00    -0.00   0.021  113
   -24.43     9.81   252.95     0.01     0.00    -0.00   0.020  114
   -25.40     9.81   253.96     0.01     0.00    -0.00   0.020  116
   -24.43     9.81   252.95     0.01     0.00    -0.00   0.021  117
   -24.43     8.83   252.95     0.01     0.00    -0.00   0.020  118
   -24.43     9.81   254.98     0.01     0.00    -0.00   0.021  119
   -24.43     9.81   252.95     0.01     0.00    -0.00   0.020  120
   -24.43     9.81   254.98     0.01     0.00    -0.00   0.021  121
   -25.40    10.79   252.95     0.01     0.00    -0.00   0.021  123
   -24.43    10.79   252.95     0.01     0.00    -0.00   0.020  124
   -24.43    10.79   253.96     0.01     0.00    -0.00   0.021  125
   -25.40    10.79   253.96     0.01     0.00    -0.00   0.020  126
   -24.43    10.79   253.96     0.01     0.00    -0.00   0.021  127
   -25.40     9.81   253.96     0.01     0.00    -0.00   0.020  128
   -25.40     9.81   254.98     0.01     0.00    -0.00   0.021  130
   -24.43     9.81   252.95     0.01     0.00    -0.00   0.020  131
   -24.43     9.81   254.98     0.01     0.00    -0.00   0.021  132
   -25.40    10.79   253.96     0.01     0.00    -0.00   0.020  133
   -25.40    10.79   252.95     0.01     0.00    -0.00   0.021  134
   -26.38    10.79   254.98     0.01     0.00    -0.00   0.020  135
   -25.40     9.81   254.98     0.01     0.00    -0.00   0.020  137
   -25.40     9.81   252.95     0.01     0.00    -0.00   0.021  138
   -26.38    10.79   252.95     0.01     0.00    -0.00   0.020  139
   -25.40     9.81   253.96     0.01     0.00    -0.00   0.021  140
   -25.40    10.79   254.98     0.01     0.00    -0.00   0.020  141
   -25.40    10.79   253.96     0.01     0.00    -0.00   0.021  142
   -24.43     9.81   253.96     0.01     0.00    -0.00   0.021  144
   -27.36    10.79   253.96     0.01     0.00    -0.00   0.020  145
   -26.38     9.81   252.95     0.01     0.00    -0.00   0.021  146
   -24.43     9.81   254.98     0.01     0.00    -0.00   0.020  147
   -25.40     9.81   254.98     0.01     0.00    -0.00   0.021  148
   -25.40     9.81   253.96     0.01     0.00    -0.00   0.020  149
   -25.40     9.81   253.96     0.01     0.00    -0.00   0.020  151
   -25.40    10.79   253.96     0.01     0.00    -0.00   0.021  152
   -24.43    10.79   254.98     0.01     0.00    -0.00   0.020  153
   -25.40     9.81   252.95     0.01     0.00    -0.00   0.020  154
   -25.40    10.79   254.98     0.01     0.00    -0.00   0.021  155
   -25.40    10.79   252.95     0.01     0.00    -0.00   0.020  156
   -25.40     8.83   256.00     0.01     0.00    -0.00   0.020  158
   -24.43    10.79   254.98     0.01     0.00    -0.00   0.021  159
   -24.43     9.81   253.96     0.01     0.00    -0.00   0.020  160
   -25.40    10.79   253.96     0.01     0.00    -0.00   0.021  161
   -24.43     9.81   253.96     0.01     0.00    -0.00   0.020  162
   -25.40    10.79   254.98     0.01     0.00    -0.00   0.021  163
   -25.40     9.81   253.96     0.01     0.00    -0.00   0.021  165
   -24.43    10.79   253.96     0.01     0.00    -0.00   0.020  166
   -25.40     9.81   254.98     0.01     0.00    -0.00   0.021  167
   -24.43    10.79   253.96     0.01     0.00    -0.00   0.020  168
   -25.40     9.81   252.95     0.01     0.00    -0.00   0.021  169
   -25.40    10.79   254.98     0.01     0.00    -0.00   0.020  170
   -24.43    10.79   253.96     0.01     0.00    -0.00   0.020  172
   -25.40     9.81   252.95     0.01     0.00    -0.00   0.021  173
   -25.40     9.81   253.96     0.01     0.00    -0.00   0.020  174
   -26.38    10.79   252.95     0.01     0.00    -0.00   0.021  175
   -25.40     9.81   253.96     0.01     0.00    -0.00   0.020  176
   -25.40     9.81   254.98     0.01     0.00    -0.00   0.021  177
   -24.43     9.81   253.96     0.01     0.00    -0.00   0.020  179
   -24.43     9.81   252.95     0.01     0.00    -0.00   0.021  180
   -24.43     9.81   251.93     0.01     0.00    -0.00   0.020  181
   -25.40     9.81   252.95     0.01     0.00    -0.00   0.021  182
   -25.40    10.79   253.96     0.01     0.00    -0.00   0.020  183
   -25.40    10.79   253.96     0.01     0.00    -0.00   0.021  184
   -25.40    10.79   253.96     0.01     0.00    -0.00   0.021  186
   -23.45     9.81   253.96     0.01     0.00    -0.00   0.020  187
   -24.43     9.81   252.95     0.01     0.00    -0.00   0.021  188
   -25.40    10.79   252.95     0.00     0.00    -0.00   0.020  189
   -24.43     9.81   253.96     0.01     0.00    -0.00   0.021  190
   -25.40     9.81   252.95     0.01     0.00    -0.00   0.020  191
   -25.40    10.79   252.95     0.00     0.00    -0.00   0.020  193
   -24.43     9.81   250.91     0.01     0.00    -0.00   0.021  194
   -26.38     9.81   252.95     0.01     0.00    -0.00   0.020  195
   -26.38     9.81   254.98     0.01     0.00    -0.00   0.021  196
   -25.40     9.81   253.96     0.01     0.00    -0.00   0.020  197
   -25.40     9.81   252.95     0.01     0.00    -0.00   0.021  198
   -24.43     9.81   253.96     0.01     0.00    -0.00   0.021  200
   -24.43     9.81   254.98     0.01     0.00    -0.00   0.020  201
   -25.40    10.79   252.95     0.01     0.00    -0.00   0.021  202
   -25.40    10.79   253.96     0.01     0.00    -0.00   0.020  203
   -25.40     9.81   252.95     0.01     0.00    -0.00   0.020  204
   -24.43     8.83   253.96     0.01     0.00    -0.00   0.021  205
   -23.45    10.79   253.96     0.01     0.00    -0.00   0.021  207
   -24.43     9.81   256.00     0.01     0.00    -0.00   0.020  208
   -25.40    10.79   252.95     0.01     0.00    -0.00   0.021  209
   -24.43    10.79   254.98     0.01     0.00    -0.00   0.020  210
   -25.40    10.79   254.98     0.01     0.00    -0.00   0.021  211
   -24.43     8.83   252.95     0.01     0.00    -0.00   0.020  212
   -25.40     9.81   253.96     0.01     0.00    -0.00   0.020  214
   -25.40     9.81   254.98     0.01     0.00    -0.00   0.021  215
   -25.40    10.79   253.96     0.01     0.00    -0.00   0.020  216
   -27.36    10.79   253.96     0.01     0.00    -0.00   0.021  217
   -25.40    10.79   253.96     0.01     0.00    -0.00   0.020  218
   -25.40    10.79   253.96     0.01     0.00    -0.00   0.021  219
   -24.43    10.79   252.95     0.01     0.00    -0.00   0.021  221
   -25.40     9.81   252.95     0.01     0.00    -0.00   0.020  222
   -25.40    10.79   252.95     0.01     0.00    -0.00   0.021  223
   -24.43    10.79   253.96     0.01     0.00    -0.00   0.020  224
   -25.40    10.79   252.95     0.01     0.00    -0.00   0.021  225
   -25.40    10.79   252.95     0.01     0.00    -0.00   0.020  226
   -24.43     9.81   254.98     0.01     0.00    -0.00   0.020  228
   -25.40     9.81   252.95     0.01     0.00    -0.00   0.020  229
   -25.40     9.81   251.93     0.01     0.00    -0.00   0.021  230
   -25.40     7.85   251.93     0.01     0.00    -0.00   0.020  231
   -25.40    10.79   253.96     0.01     0.00    -0.00   0.021  232
   -24.43     9.81   254.98     0.01     0.00    -0.00   0.020  233
   -24.43     8.83   253.96     0.01     0.00    -0.00   0.020  235
   -24.43     9.81   253.96     0.01     0.00    -0.00   0.021  236
   -25.40     9.81   253.96     0.01     0.00    -0.00   0.020  237
   -25.40    10.79   252.95     0.01     0.00    -0.00   0.021  238
   -25.40    11.77   254.98     0.01     0.00    -0.00   0.020  239
   -25.40    10.79   253.96     0.01     0.00    -0.00   0.021  240
   -24.43    10.79   253.96     0.01     0.00    -0.00   0.021  242
   -25.40     9.81   252.95     0.01     0.00    -0.00   0.020  243
   -25.40    10.79   253.96     0.01     0.00    -0.00   0.021  244
   -24.43    11.77   253.96     0.01     0.00    -0.00   0.020  245
   -23.45     9.81   253.96     0.01     0.00    -0.00   0.021  246
   -24.43     8.83   253.96     0.01     0.00    -0.00   0.020  247
   -25.40     9.81   252.95     0.01     0.00    -0.00   0.020  249
   -24.43    10.79   253.96     0.01     0.00    -0.00   0.021  250
   -25.40    10.79   253.96     0.01     0.00    -0.00   0.020  251
   -24.43     9.81   254.98     0.01     0.00    -0.00   0.021  252
   -25.40    10.79   254.98     0.01     0.00    -0.00   0.020  253
   -25.40     9.81   253.96     0.01     0.00    -0.00   0.020  254
   -25.40    11.77   253.96     0.01     0.00    -0.00   0.020    0
   -25.40     9.81   254.98     0.01     0.00    -0.00   0.021    1
   -24.43     9.81   250.91     0.01     0.00    -0.00   0.020    2
   -25.40    11.77   253.96     0.01     0.00    -0.00   0.021    3
   -25.40     9.81   253.96     0.01     0.00    -0.00   0.020    4
   -25.40     9.81   253.96     0.01     0.00    -0.00   0.021    5
   -25.40     9.81   252.95     0.01     0.00    -0.00   0.021    7
   -25.40     9.81   252.95     0.01     0.00    -0.00   0.020    8
   -25.40     9.81   254.98     0.01     0.00    -0.00   0.021    9
   -26.38    10.79   254.98     0.01     0.00    -0.00   0.020   10
   -24.43    10.79   253.96     0.01     0.00    -0.00   0.021   11
   -25.40     9.81   253.96     0.01     0.00    -0.00   0.020   12
   -25.40    10.79   254.98     0.01     0.00    -0.00   0.020   14
   -24.43     8.83   252.95     0.01     0.00    -0.00   0.021   15
   -25.40    10.79   253.96     0.01     0.00    -0.00   0.020   16
   -24.43    12.75   254.98     0.01     0.00    -0.00   0.021   17
   -25.40     8.83   253.96     0.01     0.00    -0.00   0.020   18
   -25.40     9.81   254.98     0.01     0.00    -0.00   0.021   19
   -24.43     9.81   253.96     0.01     0.00    -0.00   0.021   21
   -24.43     9.81   252.95     0.01     0.00    -0.00   0.020   22
   -26.38    10.79   252.95     0.01     0.00    -0.00   0.020   23
   -25.40    10.79   253.96     0.01     0.00    -0.00   0.021   24
   -24.43    10.79   253.96     0.01     0.00    -0.00   0.020   25
   -24.43     9.81   253.96     0.01     0.00    -0.00   0.021   26
   -25.40    10.79   253.96     0.01     0.00    -0.00   0.021   28
   -25.40    10.79   253.96     0.01     0.00    -0.00   0.020   29
   -25.40     9.81   253.96     0.01     0.00    -0.00   0.021   30
   -25.40    10.79   253.96     0.01     0.00    -0.00   0.020   31
   -25.40    10.79   252.95     0.01     0.00    -0.00   0.021   32
   -25.40     9.81   254.98     0.01     0.00    -0.00   0.020   33
   -25.40    10.79   254.98     0.01     0.00    -0.00   0.020   35
   -24.43    10.79   253.96     0.01     0.00    -0.00   0.021   36
   -24.43    10.79   254.98     0.01     0.00    -0.00   0.020   37
   -25.40    10.79   254.98     0.01     0.00    -0.00   0.021   38
   -25.40    10.79   254.98     0.01     0.00    -0.00   0.020   39
   -24.43    11.77   254.98     0.01     0.00    -0.00   0.021   40
   -25.40     9.81   252.95     0.01     0.00    -0.00   0.021   42
   -25.40    10.79   253.96     0.01     0.00    -0.00   0.020   43
   -23.45     9.81   252.95     0.01     0.00    -0.00   0.021   44
   -26.38    10.79   253.96     0.01     0.00    -0.00   0.020   45
   -27.36    10.79   254.98     0.01     0.00    -0.00   0.021   46
   -24.43    11.77   253.96     0.01     0.00    -0.00   0.020   47
   -25.40    10.79   252.95     0.01     0.00    -0.00   0.021   49
   -24.43    10.79   254.98     0.01     0.00    -0.00   0.020   50
   -24.43    10.79   253.96     0.01     0.00    -0.00   0.021   51
   -25.40    10.79   253.96     0.01     0.00    -0.00   0.020   52
   -25.40     9.81   254.98     0.01     0.00    -0.00   0.021   53
   -25.40     9.81   252.95     0.01     0.00    -0.00   0.020   54
   -25.40     9.81   254.98     0.01     0.00    -0.00   0.020   56
   -25.40     9.81   252.95     0.01     0.00    -0.00   0.021   57
   -25.40    10.79   254.98     0.01     0.00    -0.00   0.020   58
   -24.43     9.81   253.96     0.01     0.00    -0.00   0.021   59
   -24.43    10.79   253.96     0.01     0.00    -0.00   0.020   60
   -25.40     9.81   253.96     0.01     0.00    -0.00   0.021   61
   -25.40     8.83   253.96     0.01     0.00    -0.00   0.021   63
   -25.40    11.77   253.96     0.01     0.00    -0.00   0.020   64
   -24.43     9.81   253.96     0.01     0.00    -0.00   0.021   65
   -24.43     9.81   253.96     0.01     0.00    -0.00   0.020   66
   -25.40    10.79   252.95     0.01     0.00    -0.00   0.021   67
   -24.43    10.79   249.89     0.01     0.00    -0.00   0.020   68
   -26.38    10.79   253.96     0.01     0.00    -0.00   0.020   70
   -24.43     9.81   253.96     0.01     0.00    -0.00   0.021   71
   -25.40    10.79   254.98     0.01     0.00    -0.00   0.020   72
   -25.40     9.81   253.96     0.01     0.00    -0.00   0.020   73
   -25.40    10.79   253.96     0.01     0.00    -0.00   0.021   74
   -24.43     9.81   253.96     0.01     0.00    -0.00   0.020   75
   -25.40    10.79   253.96     0.01     0.00    -0.00   0.020   77
   -24.43    10.79   253.96     0.01     0.00     0.00   0.021   78
   -24.43    10.79   253.96     0.01     0.00    -0.00   0.020   79
   -24.43    10.79   253.96     0.01     0.00    -0.00   0.021   80
   -25.40    10.79   253.96     0.01     0.00    -0.00   0.020   81
   -25.40     9.81   252.95     0.01     0.00    -0.00   0.021   82
   -26.38     8.83   253.96     0.01     0.00    -0.00   0.021   84
   -26.38    10.79   252.95     0.01     0.00    -0.00   0.020   85
   -25.40    10.79   252.95     0.01     0.00    -0.00   0.021   86
   -25.40    11.77   252.95     0.01     0.00    -0.00   0.020   87
   -25.40     8.83   253.96     0.01     0.00    -0.00   0.021   88
   -25.40     9.81   253.96     0.01     0.00    -0.00   0.020   89
   -25.40    11.77   253.96     0.01     0.00    -0.00   0.020   91
   -25.40     9.81   252.95     0.01     0.00    -0.00   0.021   92
   -25.40     9.81   253.96     0.01     0.00     0.00   0.020   93
   -24.43     9.81   254.98     0.01     0.00    -0.00   0.021   94
   -24.43     9.81   253.96     0.01     0.00    -0.00   0.020   95
   -25.40    10.79   252.95     0.01     0.00    -0.00   0.021   96
   -25.40    10.79   253.96     0.01     0.00    -0.00   0.020   98
   -25.40    10.79   252.95     0.01     0.00    -0.00   0.021   99
   -26.38    11.77   253.96     0.01     0.00    -0.00   0.020  100
   -26.38     9.81   252.95     0.01     0.00    -0.00   0.021  101
   -25.40     9.81   253.96     0.01     0.00    -0.00   0.020  102
   -25.40    11.77   252.95     0.01     0.00    -0.00   0.021  103
   -25.40    10.79   252.95     0.01     0.00    -0.00   0.021  105
   -25.40    10.79   251.93     0.01     0.00    -0.00   0.020  106
   -25.40    10.79   252.95     0.01     0.00    -0.00   0.021  107
   -25.40    10.79   253.96     0.01     0.00    -0.00   0.020  108
   -24.43    10.79   253.96     0.01     0.00    -0.00   0.021  109
   -28.34    10.79   254.98     0.01     0.00    -0.00   0.020  110
   -25.40     9.81   254.98     0.01     0.00    -0.00   0.020  112
   -24.43    10.79   252.95     0.01     0.00    -0.00   0.021  113
   -23.45     8.83   252.95     0.01     0.00    -0.00   0.020  114
   -24.43    10.79   251.93     0.01     0.00    -0.00   0.021  115
   -25.40    10.79   253.96     0.01     0.00    -0.00   0.020  116
   -26.38    12.75   253.96     0.01     0.00    -0.00   0.021  117
   -25.40     9.81   253.96     0.01     0.00    -0.00   0.021  119
   -24.43    10.79   254.98     0.01     0.00    -0.00   0.020  120
   -25.40     9.81   253.96     0.01     0.00    -0.00   0.020  122
   -26.38    10.79   253.96     0.01     0.00    -0.00   0.020  123
   -25.40    10.79   252.95     0.01     0.00    -0.00   0.021  124
   -24.43    10.79   253.96     0.01     0.00    -0.00   0.021  126
   -24.43     9.81   253.96     0.01     0.00    -0.00   0.020  127
   -24.43    10.79   253.96     0.01     0.00    -0.00   0.020  129
   -25.40    10.79   253.96     0.01     0.00    -0.00   0.021  130
   -24.43    10.79   253.96     0.01     0.00    -0.00   0.020  131
   -25.40     9.81   252.95     0.01     0.00    -0.00   0.021  132
   -24.43     8.83   254.98     0.01     0.00    -0.00   0.020  133
   -25.40    10.79   252.95     0.01     0.00    -0.00   0.021  134
   -25.40    10.79   256.00     0.01     0.00    -0.00   0.021  136
   -24.43     8.83   254.98     0.01     0.00    -0.00   0.020  137
   -24.43    10.79   253.96     0.01     0.00    -0.00   0.021  138
   -24.43     9.81   253.96     0.01     0.00    -0.00   0.020  139
   -25.40     9.81   253.96     0.01     0.00    -0.00   0.021  140
   -25.40    10.79   256.00     0.01     0.00    -0.00   0.020  141
   -24.43     9.81   252.95     0.01     0.00    -0.00   0.020  143
   -24.43    10.79   252.95     0.01     0.00    -0.00   0.021  144
   -25.40    10.79   252.95     0.01     0.00    -0.00   0.020  145
   -25.40    10.79   252.95     0.01     0.00    -0.00   0.021  146
   -24.43    11.77   253.96     0.01     0.00    -0.00   0.020  147
   -24.43     9.81   254.98     0.01     0.00    -0.00   0.020  148
   -24.43    10.79   253.96     0.01     0.00    -0.00   0.020  150
   -25.40    10.79   252.95     0.01     0.00    -0.00   0.021  151
   -25.40     9.81   253.96     0.01     0.00    -0.00   0.020  152
   -25.40     9.81   252.95     0.01     0.00    -0.00   0.021  153
   -25.40     9.81   252.95     0.01     0.00    -0.00   0.020  154
   -24.43     8.83   251.93     0.01     0.00    -0.00   0.021  155
   -25.40    10.79   253.96     0.01     0.00    -0.00   0.021  157
   -26.38    10.79   253.96     0.01     0.00    -0.00   0.020  158
   -27.36     9.81   253.96     0.01     0.00    -0.00   0.021  159
   -26.38     9.81   252.95     0.01     0.00    -0.00   0.020  160
   -25.40    10.79   257.02     0.01     0.00    -0.00   0.021  161
   -24.43    11.77   252.95     0.01     0.00    -0.00   0.020  162
   -24.43    10.79   252.95     0.01     0.00    -0.00   0.020  164
   -26.38    10.79   253.96     0.01     0.00    -0.00   0.021  165
   -25.40     9.81   251.93     0.01     0.00    -0.00   0.020  166
   -26.38    10.79   253.96     0.01     0.00    -0.00   0.021  167
   -24.43     9.81   253.96     0.01     0.00    -0.00   0.020  168
   -24.43    10.79   253.96     0.01     0.00    -0.00   0.021  169
   -24.43     9.81   256.00     0.01     0.00    -0.00   0.021  171
   -24.43     9.81   253.96     0.01     0.00    -0.00   0.020  172
   -25.40    10.79   252.95     0.01     0.00    -0.00   0.020  173
   -25.40    10.79   253.96     0.01     0.00    -0.00   0.021  174
   -24.43    10.79   253.96     0.01     0.00    -0.00   0.020  175
   -25.40    10.79   252.95     0.01     0.00    -0.00   0.021  176
   -26.38    10.79   254.98     0.01     0.00    -0.00   0.021  178
   -24.43     9.81   254.98     0.01     0.00    -0.00   0.020  179
   -25.40     9.81   254.98     0.01     0.00    -0.00   0.021  180
   -24.43     9.81   253.96     0.01     0.00    -0.00   0.020  181
   -21.50    17.66   257.02     0.01     0.00    -0.00   0.021  182
   -25.40    10.79   253.96     0.01     0.00    -0.00   0.020  183
   -24.43    10.79   253.96     0.01     0.00    -0.00   0.020  185
   -24.43    10.79   254.98     0.01     0.00    -0.00   0.021  186
   -25.40    10.79   253.96     0.01     0.00    -0.00   0.020  187
   -24.43     9.81   253.96     0.01     0.00    -0.00   0.021  188
   -25.40     9.81   249.89     0.01     0.00    -0.00   0.020  189
   -26.38    10.79   253.96     0.01     0.00    -0.00   0.021  190
   -25.40    10.79   253.96     0.01     0.00    -0.00   0.021  192
   -25.40    10.79   253.96     0.01     0.00    -0.00   0.020  193
   -24.43     8.83   253.96     0.01     0.00    -0.00   0.021  194
   -25.40    10.79   253.96     0.01     0.00    -0.00   0.020  195
   -25.40    10.79   253.96     0.01     0.00    -0.00   0.021  196
   -25.40    10.79   253.96     0.01     0.00    -0.00   0.020  197
   -25.40    10.79   252.95     0.01     0.00    -0.00   0.021  199
   -25.40    10.79   253.96     0.01     0.00    -0.00   0.020  200
   -24.43     9.81   253.96     0.01     0.00    -0.00   0.021  201
   -25.40    10.79   253.96     0.00     0.00    -0.00   0.020  202
   -25.40    10.79   253.96     0.01     0.00    -0.00   0.021  203
   -25.40     9.81   256.00     0.01     0.00    -0.00   0.020  204
   -24.43     8.83   253.96     0.01     0.00    -0.00   0.020  206
   -25.40    10.79   253.96     0.01     0.00    -0.00   0.021  207
   -24.43     9.81   253.96     0.01     0.00    -0.00   0.020  208
   -25.40     9.81   253.96     0.01     0.00    -0.00   0.021  209
   -25.40     9.81   252.95     0.01     0.00    -0.00   0.020  210
   -24.43     9.81   253.96     0.01     0.00    -0.00   0.021  211
   -25.40     9.81   253.96     0.01     0.00    -0.00   0.021  213
   -26.38     9.81   254.98     0.01     0.00    -0.00   0.020  214
   -24.43     9.81   253.96     0.01     0.00    -0.00   0.021  215
   -24.43    10.79   253.96     0.01     0.00    -0.00   0.020  216
   -25.40    10.79   252.95     0.01     0.00    -0.00   0.021  217
   -26.38     9.81   253.96     0.01     0.00    -0.00   0.020  218
   -24.43    10.79   252.95     0.01     0.00    -0.00   0.020  220
   -24.43    10.79   252.95     0.01     0.00    -0.00   0.021  221
   -24.43    10.79   254.98     0.01     0.00    -0.00   0.020  222
   -24.43    10.79   253.96     0.01     0.00    -0.00   0.020  223
   -23.45     9.81   253.96     0.01     0.00    -0.00   0.021  224
   -24.43    10.79   253.96     0.01     0.00    -0.00   0.020  225
   -25.40     9.81   253.96     0.01     0.00    -0.00   0.020  227
   -24.43     9.81   253.96     0.01     0.00    -0.00   0.021  228
   -24.43    10.79   254.98     0.01     0.00    -0.00   0.020  229
   -25.40     9.81   253.96     0.01     0.00    -0.00   0.021  230
   -24.43     8.83   254.98     0.01     0.00    -0.00   0.020  231
   -24.43     9.81   253.96     0.01     0.00    -0.00   0.021  232
   -25.40    10.79   252.95     0.01     0.00    -0.00   0.021  234
   -25.40    11.77   253.96     0.01     0.00    -0.00   0.020  235
   -25.40    10.79   253.96     0.01     0.00    -0.00   0.021  236
   -24.43    10.79   253.96     0.01     0.00    -0.00   0.020  237
   -24.43    10.79   254.98     0.01     0.00    -0.00   0.021  238
   -25.40    10.79   253.96     0.01     0.00    -0.00   0.020  239
   -25.40    10.79   253.96     0.01     0.00    -0.00   0.020  241
   -24.43    10.79   253.96     0.01     0.00    -0.00   0.021  242
   -24.43    10.79   253.96     0.01     0.00    -0.00   0.020  243
   -25.40    10.79   252.95     0.01     0.00    -0.00   0.021  244
   -25.40    10.79   253.96     0.01     0.00    -0.00   0.020  245
   -25.40    10.79   254.98     0.01     0.00    -0.00   0.021  246
   -25.40    11.77   253.96     0.01     0.00    -0.00   0.020  248
   -24.43     9.81   254.98     0.01     0.00    -0.00   0.021  249
   -24.43     9.81   252.95     0.01     0.00    -0.00   0.020  250
   -25.40    11.77   252.95     0.01     0.00    -0.00   0.021  251
   -25.40    10.79   253.96     0.01     0.00    -0.00   0.020  252
   -25.40    10.79   254.98     0.01     0.00    -0.00   0.021  253
   -25.40    10.79   253.96     0.01     0.00    -0.00   0.021  255
   -25.40    10.79   254.98     0.01     0.00    -0.00   0.020    0
   -25.40    11.77   253.96     0.01     0.00    -0.00   0.021    1
   -24.43    10.79   252.95     0.01     0.00    -0.00   0.020    2
   -24.43     9.81   253.96     0.01     0.00    -0.00   0.021    3
   -24.43     9.81   254.98     0.01     0.00    -0.00   0.020    4
   -26.38     9.81   253.96     0.01     0.00    -0.00   0.020    6
   -24.43     9.81   252.95     0.01     0.00    -0.00   0.021    7
   -25.40    10.79   254.98     0.01     0.00    -0.00   0.020    8
   -24.43     9.81   253.96     0.01     0.00    -0.00   0.021    9
   -24.43    10.79   253.96     0.01     0.00    -0.00   0.020   10
   -25.40    11.77   253.96     0.01     0.00    -0.00   0.021   11
   -25.40    10.79   253.96     0.01     0.00    -0.00   0.021   13
   -24.43    10.79   252.95     0.01     0.00    -0.00   0.020   14
   -25.40     9.81   251.93     0.01     0.00    -0.00   0.021   15
   -24.43     9.81   254.98     0.01     0.00    -0.00   0.020   16
   -25.40    10.79   253.96     0.01     0.00    -0.00   0.020   17
   -25.40     9.81   254.98     0.01     0.00    -0.00   0.021   18
   -25.40    10.79   253.96     0.01     0.00    -0.00   0.021   20
   -24.43    10.79   253.96     0.01     0.00    -0.00   0.020   21
   -25.40     9.81   253.96     0.01     0.00    -0.00   0.021   22
   -24.43    10.79   253.96     0.01     0.00    -0.00   0.020   23
   -25.40     9.81   253.96     0.01     0.00    -0.00   0.021   24
   -25.40    10.79   254.98     0.01     0.00    -0.00   0.020   25
   -25.40     9.81   253.96     0.01     0.00    -0.00   0.020   27
   -24.43     9.81   252.95     0.01     0.00    -0.00   0.021   28
   -24.43     9.81   253.96     0.01     0.00    -0.00   0.020   29
   -24.43    10.79   254.98     0.01     0.00    -0.00   0.021   30
   -24.43    10.79   254.98     0.01     0.00    -0.00   0.020   31
   -25.40    10.79   253.96     0.01     0.00    -0.00   0.021   32
   -24.43     9.81   253.96     0.01     0.00    -0.00   0.021   34
   -24.43     9.81   254.98     0.01     0.00    -0.00   0.020   35
   -24.43     9.81   251.93     0.01     0.00    -0.00   0.021   36
   -24.43    10.79   253.96     0.01     0.00    -0.00   0.020   37
   -26.38    10.79   253.96     0.01     0.00    -0.00   0.021   38
   -24.43    10.79   253.96     0.01     0.00    -0.00   0.020   39
   -24.43     9.81   252.95     0.01     0.00    -0.00   0.020   41
   -24.43    10.79   252.95     0.01     0.00    -0.00   0.020   42
   -25.40     9.81   252.95     0.01     0.00    -0.00   0.021   43
   -25.40     9.81   253.96     0.01     0.00    -0.00   0.020   44
   -24.43    10.79   253.96     0.01     0.00    -0.00   0.021   45
   -24.43    10.79   254.98     0.01     0.00    -0.00   0.020   46
   -25.40    10.79   253.96     0.01     0.00    -0.00   0.020   48
   -24.43     9.81   253.96     0.01     0.00    -0.00   0.021   49
   -25.40    10.79   254.98     0.01     0.00    -0.00   0.020   50
   -25.40    10.79   253.96     0.01     0.00    -0.00   0.021   51
   -24.43    10.79   254.98     0.01     0.00    -0.00   0.020   52
   -24.43    10.79   252.95     0.01     0.00    -0.00   0.021   53
   -24.43    10.79   252.95     0.01     0.00    -0.00   0.021   55
   -25.40    10.79   253.96     0.01     0.00    -0.00   0.020   56
   -25.40     9.81   253.96     0.01     0.00    -0.00   0.021   57
   -26.38     9.81   252.95     0.01     0.00    -0.00   0.020   58
   -24.43    11.77   253.96     0.01     0.00    -0.00   0.021   59
   -26.38    11.77   253.96     0.01     0.00    -0.00   0.020   60
   -24.43     9.81   253.96     0.01     0.00    -0.00   0.020   62
   -24.43    10.79   254.98     0.01     0.00    -0.00   0.021   63
   -25.40    10.79   253.96     0.01     0.00    -0.00   0.020   64
   -25.40    10.79   253.96     0.01     0.00    -0.00   0.021   65
   -25.40    10.79   252.95     0.01     0.00    -0.00   0.020   66
   -24.43    10.79   254.98     0.01     0.00    -0.00   0.020   67
   -24.43     9.81   253.96     0.01     0.00    -0.00   0.020   69
   -24.43    10.79   256.00     0.01     0.00    -0.00   0.021   70
   -24.43    10.79   253.96     0.01     0.00    -0.00   0.020   71
   -25.40    10.79   253.96     0.01     0.00    -0.00   0.021   72
   -25.40    10.79   252.95     0.01     0.00    -0.00   0.020   73
   -24.43    11.77   254.98     0.01     0.00    -0.00   0.021   74
   -25.40    10.79   253.96     0.01     0.00    -0.00   0.021   76
   -25.40    10.79   252.95     0.01     0.00    -0.00   0.020   77
   -25.40    10.79   252.95     0.01     0.00    -0.00   0.021   78
   -25.40    10.79   254.98     0.01     0.00    -0.00   0.020   79
   -24.43    10.79   253.96     0.01     0.00    -0.00   0.021   80
   -25.40    10.79   252.95     0.01     0.00    -0.00   0.020   81
   -25.40    10.79   254.98     0.01     0.00    -0.00   0.020   83
   -24.43    10.79   253.96     0.01     0.00    -0.00   0.021   84
   -24.43     9.81   254.98     0.01     0.00    -0.00   0.020   85
   -25.40    10.79   253.96     0.01     0.00    -0.00   0.021   86
   -26.38    10.79   253.96     0.01     0.00    -0.00   0.020   87
   -26.38    10.79   254.98     0.01     0.00    -0.00   0.021   88
   -25.40     9.81   253.96     0.01     0.00    -0.00   0.021   90
   -24.43     9.81   254.98     0.01     0.00    -0.00   0.020   91
   -25.40    10.79   254.98     0.01     0.00    -0.00   0.020   92
   -25.40    10.79   251.93     0.01     0.00    -0.00   0.021   93
   -24.43     9.81   253.96     0.00     0.00    -0.00   0.020   94
   -24.43    10.79   254.98     0.01     0.00    -0.00   0.021   95
   -24.43    10.79   253.96     0.01     0.00    -0.00   0.021   97
   -24.43    10.79   254.98     0.01     0.00    -0.00   0.020   98
   -25.40    10.79   252.95     0.01     0.00    -0.00   0.021   99
   -24.43    10.79   253.96     0.01     0.00    -0.00   0.020  100
   -25.40     9.81   253.96     0.00     0.00    -0.00   0.021  101
   -25.40    10.79   253.96     0.01     0.00    -0.00   0.020  102
   -26.38    10.79   253.96     0.01     0.00    -0.00   0.020  104
   -26.38     9.81   253.96     0.01     0.00    -0.00   0.021  105
   -25.40    10.79   253.96     0.01     0.00    -0.00   0.020  106
   -25.40     9.81   254.98     0.01     0.00    -0.00   0.021  107
   -24.43    10.79   253.96     0.01     0.00    -0.00   0.020  108
   -24.43    10.79   251.93     0.01     0.00    -0.00   0.021  109
   -26.38     9.81   252.95     0.01     0.00    -0.00   0.021  111
   -25.40    10.79   252.95     0.01     0.00    -0.00   0.020  112
   -25.40    10.79   253.96     0.01     0.00    -0.00   0.021  113
   -24.43    10.79   252.95     0.01     0.00    -0.00   0.020  114
   -24.43     8.83   253.96     0.01     0.00    -0.00   0.021  115
   -24.43    10.79   251.93     0.01     0.00    -0.00   0.020  116
   -25.40     9.81   253.96     0.01     0.00    -0.00   0.021  118
   -26.38    11.77   252.95     0.01     0.00    -0.00   0.020  119
   -25.40    10.79   252.95     0.01     0.00    -0.00   0.021  120
   -23.45     9.81   254.98     0.01     0.00    -0.00   0.020  121
   -25.40    10.79   253.96     0.01     0.00    -0.00   0.021  122
   -25.40    10.79   252.95     0.01     0.00    -0.00   0.020  123
   -25.40    11.77   252.95     0.01     0.00    -0.00   0.020  125
   -25.40    10.79   252.95     0.01     0.00    -0.00   0.021  126
   -25.40    10.79   254.98     0.01     0.00    -0.00   0.020  127
   -25.40    10.79   251.93     0.01     0.00    -0.00   0.021  128
   -25.40    10.79   252.95     0.01     0.00    -0.00   0.020  129
   -25.40     9.81   252.95     0.01     0.00    -0.00   0.021  130
   -25.40     9.81   252.95     0.01     0.00    -0.00   0.021  132
   -24.43    10.79   253.96     0.01     0.00    -0.00   0.020  133
   -26.38     9.81   253.96     0.01     0.00    -0.00   0.021  134
   -24.43     9.81   253.96     0.01     0.00    -0.00   0.020  135
   -25.40    10.79   252.95     0.01     0.00    -0.00   0.021  136
   -25.40    10.79   253.96     0.01     0.00    -0.00   0.020  137
   -25.40    10.79   253.96     0.01     0.00    -0.00   0.020  139
   -25.40    10.79   252.95     0.01     0.00    -0.00   0.021  140
   -25.40     9.81   253.96     0.01     0.00    -0.00   0.020  142
   -25.40     9.81   253.96     0.00     0.00    -0.00   0.021  143
   -24.43    10.79   252.95     0.01     0.00    -0.00   0.020  144
   -25.40    10.79   254.98     0.01     0.00    -0.00   0.020  146
   -25.40    10.79   253.96     0.01     0.00    -0.00   0.021  147
   -24.43    10.79   253.96     0.01     0.00    -0.00   0.021  149
   -24.43     9.81   254.98     0.01     0.00    -0.00   0.020  150
   -25.40    10.79   253.96     0.01     0.00    -0.00   0.021  151
   -25.40     9.81   252.95     0.01     0.00    -0.00   0.021  153
   -25.40     9.81   252.95     0.01     0.00    -0.00   0.020  154
   -25.40     9.81   252.95     0.01     0.00    -0.00   0.020  156
   -25.40    10.79   254.98     0.01     0.00    -0.00   0.021  157
   -24.43     9.81   252.95     0.01     0.00    -0.00   0.020  158
   -25.40    10.79   253.96     0.01     0.00    -0.00   0.021  159
   -25.40     9.81   253.96     0.01     0.00    -0.00   0.020  160
   -24.43     9.81   253.96     0.01     0.00    -0.00   0.021  161
   -25.40    10.79   253.96     0.01     0.00    -0.00   0.021  163
   -23.45    10.79   254.98     0.01     0.00    -0.00   0.020  164
   -25.40     9.81   253.96     0.01     0.00    -0.00   0.021  165
   -25.40    10.79   253.96     0.01     0.00    -0.00   0.020  166
   -24.43    10.79   254.98     0.01     0.00    -0.00   0.020  167
   -24.43    10.79   253.96     0.01     0.00    -0.00   0.021  168
   -24.43    10.79   253.96     0.01     0.00    -0.00   0.021  170
   -25.40     9.81   254.98     0.01     0.00    -0.00   0.020  171
   -25.40    10.79   254.98     0.01     0.00    -0.00   0.021  172
   -25.40    10.79   253.96     0.01     0.00    -0.00   0.020  173
   -25.40    11.77   253.96     0.01     0.00    -0.00   0.021  174
   -25.40    10.79   254.98     0.01     0.00    -0.00   0.020  175
   -25.40    10.79   251.93     0.00     0.00    -0.00   0.020  177
   -25.40    11.77   253.96     0.01     0.00    -0.00   0.021  178
   -25.40     9.81   253.96     0.01     0.00    -0.00   0.020  179
   -24.43     9.81   253.96     0.01     0.00    -0.00   0.021  180
   -24.43    10.79   252.95     0.01     0.00    -0.00   0.020  181
   -25.40    10.79   252.95     0.01     0.00    -0.00   0.021  182
   -24.43     9.81   251.93     0.01     0.00    -0.00   0.021  184
   -25.40    10.79   254.98     0.01     0.00    -0.00   0.020  185
   -25.40    11.77   254.98     0.01     0.00    -0.00   0.021  186
   -25.40    11.77   253.96     0.01     0.00    -0.00   0.020  187
   -25.40    11.77   253.96     0.01     0.00    -0.00   0.021  188
   -24.43    11.77   253.96     0.01     0.00    -0.00   0.020  189
   -25.40    10.79   253.96     0.01     0.00    -0.00   0.020  191
   -24.43     9.81   253.96     0.01     0.00    -0.00   0.020  192
   -25.40     9.81   253.96     0.01     0.00    -0.00   0.021  193
   -25.40     9.81   254.98     0.01     0.00    -0.00   0.020  194
   -24.43    10.79   253.96     0.01     0.00    -0.00   0.021  195
   -26.38    11.77   253.96     0.01     0.00    -0.00   0.020  196
   -24.43     9.81   253.96     0.01     0.00    -0.00   0.020  198
   -25.40    10.79   252.95     0.01     0.00    -0.00   0.021  199
   -25.40    10.79   253.96     0.01     0.00    -0.00   0.020  200
   -26.38     9.81   254.98     0.01     0.00    -0.00   0.021  201
   -25.40    10.79   253.96     0.01     0.00    -0.00   0.020  202
   -25.40    10.79   253.96     0.01     0.00    -0.00   0.021  203
   -25.40    10.79   252.95     0.00     0.00    -0.00   0.021  205
   -25.40    10.79   254.98     0.01     0.00    -0.00   0.020  206
   -24.43    10.79   253.96     0.01     0.00    -0.00   0.021  207
   -24.43    10.79   253.96     0.01     0.00    -0.00   0.020  208
   -24.43    10.79   253.96     0.01     0.00    -0.00   0.021  209
   -25.40     9.81   256.00     0.01     0.00    -0.00   0.020  210
   -25.40    10.79   254.98     0.01     0.00    -0.00   0.020  212
   -25.40     9.81   253.96     0.01     0.00    -0.00   0.021  213
   -25.40    10.79   252.95     0.01     0.00    -0.00   0.020  214
   -26.38    10.79   253.96     0.01     0.00    -0.00   0.021  215
   -25.40    11.77   253.96     0.01     0.00    -0.00   0.020  216
   -24.43    10.79   254.98     0.01     0.00    -0.00   0.020  217
   -25.40    10.79   253.96     0.01     0.00    -0.00   0.020  219
   -25.40    10.79   253.96     0.01     0.00    -0.00   0.021  220
   -25.40    10.79   253.96     0.01     0.00    -0.00   0.020  221
   -24.43    10.79   254.98     0.01     0.00    -0.00   0.021  222
   -25.40    10.79   253.96     0.01     0.00    -0.00   0.020  223
   -24.43     9.81   252.95     0.01     0.00    -0.00   0.021  224
   -25.40    10.79   253.96     0.01     0.00    -0.00   0.021  226
   -25.40     9.81   253.96     0.01     0.00    -0.00   0.020  227
   -25.40    11.77   253.96     0.01     0.00    -0.00   0.021  228
   -25.40    10.79   254.98     0.01     0.00    -0.00   0.020  229
   -24.43    10.79   251.93     0.01     0.00    -0.00   0.021  230
   -25.40    11.77   254.98     0.01     0.00    -0.00   0.020  231
   -24.43     9.81   252.95     0.01     0.00    -0.00   0.020  233
   -26.38    10.79   252.95     0.01     0.00    -0.00   0.021  234
   -25.40    11.77   253.96     0.01     0.00    -0.00   0.020  235
   -26.38    10.79   253.96     0.01     0.00    -0.00   0.021  236
   -25.40    10.79   253.96     0.01     0.00    -0.00   0.020  237
   -24.43    10.79   254.98     0.01     0.00    -0.00   0.021  238
   -24.43    10.79   253.96     0.01     0.00    -0.00   0.021  240
   -24.43     9.81   252.95     0.01     0.00    -0.00   0.020  241
   -24.43     9.81   253.96     0.01     0.00    -0.00   0.020  242
   -25.40    10.79   253.96     0.01     0.00    -0.00   0.021  243
   -24.43    10.79   254.98     0.01     0.00    -0.00   0.020  244
   -24.43     9.81   254.98     0.01     0.00    -0.00   0.021  245
   -24.43    10.79   254.98     0.01     0.00    -0.00   0.021  247
   -24.43     9.81   253.96     0.01     0.00    -0.00   0.020  248
   -24.43     9.81   253.96     0.01     0.00    -0.00   0.021  249
   -24.43     9.81   254.98     0.01     0.00    -0.00   0.020  250
   -24.43     9.81   253.96     0.01     0.00    -0.00   0.021  251
   -26.38    11.77   253.96     0.01     0.00    -0.00   0.020  252
   -26.38    10.79   254.98     0.01     0.00    -0.00   0.020  254
   -24.43    10.79   253.96     0.01     0.00    -0.00   0.021  255
   -23.45     9.81   254.98     0.01     0.00    -0.00   0.020    0
   -24.43     9.81   256.00     0.01     0.00    -0.00   0.021    1
   -26.38    10.79   256.00     0.01     0.00    -0.00   0.020    2
   -24.43    10.79   253.96     0.01     0.00    -0.00   0.021    3
   -24.43    10.79   253.96     0.01     0.00    -0.00   0.021    5
   -23.45    10.79   252.95     0.01     0.00    -0.00   0.020    6
   -24.43     9.81   253.96     0.01     0.00    -0.00   0.021    7
   -23.45    10.79   252.95     0.01     0.00    -0.00   0.020    8
   -24.43    10.79   254.98     0.01     0.00    -0.00   0.021    9
   -25.40    10.79   252.95     0.01     0.00    -0.00   0.020   10
   -25.40    10.79   253.96     0.01     0.00    -0.00   0.021   12
   -25.40     9.81   253.96     0.01     0.00    -0.00   0.020   13
   -23.45     8.83   252.95     0.01     0.00    -0.00   0.021   14
   -24.43    10.79   253.96     0.01     0.00    -0.00   0.020   15
   -24.43     9.81   253.96     0.01     0.00    -0.00   0.021   16
   -23.45    10.79   253.96     0.01     0.00    -0.00   0.020   17
   -24.43     8.83   254.98     0.01     0.00    -0.00   0.020   19
   -25.40     9.81   252.95     0.00     0.00    -0.00   0.021   20
   -25.40     9.81   253.96     0.01     0.00    -0.00   0.020   21
   -25.40     9.81   254.98     0.01     0.00    -0.00   0.021   22
   -24.43    10.79   254.98     0.01     0.00    -0.00   0.020   23
   -24.43     9.81   254.98     0.01     0.00    -0.00   0.021   24
   -24.43    10.79   253.96     0.01     0.00    -0.00   0.021   26
   -23.45     8.83   253.96     0.01     0.00    -0.00   0.020   27
   -23.45    10.79   254.98     0.01     0.00    -0.00   0.021   28
   -24.43    10.79   254.98     0.01     0.00    -0.00   0.020   29
   -25.40    10.79   252.95     0.01     0.00    -0.00   0.021   30
   -26.38    10.79   252.95     0.01     0.00    -0.00   0.020   31
   -23.45    10.79   253.96     0.01     0.00    -0.00   0.020   33
   -25.40     9.81   252.95     0.00     0.00    -0.00   0.021   34
   -24.43     9.81   253.96     0.01     0.00    -0.00   0.020   35
   -24.43    11.77   253.96     0.01     0.00    -0.00   0.020   36
   -25.40    10.79   251.93     0.01     0.00    -0.00   0.021   37
   -23.45     9.81   253.96     0.01     0.00    -0.00   0.020   38
   -25.40    10.79   252.95     0.01     0.00    -0.00   0.020   40
   -24.43     8.83   253.96     0.01     0.00    -0.00   0.021   41
   -25.40    10.79   256.00     0.01     0.00    -0.00   0.020   42
   -25.40     9.81   253.96     0.01     0.00    -0.00   0.021   43
   -24.43     9.81   253.96     0.01     0.00    -0.00   0.020   44
   -26.38    10.79   253.96     0.01     0.00    -0.00   0.021   45
   -25.40     9.81   253.96     0.01     0.00    -0.00   0.021   47
   -24.43    10.79   254.98     0.01     0.00    -0.00   0.020   48
   -24.43    11.77   253.96     0.01     0.00    -0.00   0.021   49
   -25.40    10.79   253.96     0.01     0.00    -0.00   0.020   50
   -25.40    10.79   253.96     0.01     0.00    -0.00   0.021   51
   -24.43     9.81   253.96     0.01     0.00    -0.00   0.020   52
   -24.43    11.77   254.98     0.01     0.00    -0.00   0.020   54
   -25.40    10.79   254.98     0.01     0.00    -0.00   0.021   55
   -25.40    10.79   252.95     0.01     0.00    -0.00   0.020   56
   -24.43    10.79   252.95     0.01     0.00    -0.00   0.021   57
   -24.43    10.79   253.96     0.01     0.00    -0.00   0.020   58
   -24.43    10.79   254.98     0.01     0.00    -0.00   0.021   59
   -26.38    11.77   253.96     0.00     0.00    -0.00   0.020   61
   -23.45     9.81   253.96     0.01     0.00    -0.00   0.021   62
   -24.43    10.79   253.96     0.01     0.00    -0.00   0.020   63
   -25.40    10.79   254.98     0.01     0.00    -0.00   0.021   64
   -26.38    11.77   254.98     0.01     0.00    -0.00   0.020   65
   -24.43    11.77   253.96     0.01     0.00    -0.00   0.021   66
   -24.43    11.77   253.96     0.01     0.00    -0.00   0.021   68
   -25.40     9.81   253.96     0.01     0.00    -0.00   0.020   69
   -24.43     9.81   253.96     0.00     0.00    -0.00   0.021   70
   -23.45     9.81   256.00     0.01     0.00    -0.00   0.020   71
   -24.43    10.79   252.95     0.01     0.00    -0.00   0.021   72
   -24.43     9.81   253.96     0.01     0.00    -0.00   0.020   73
   -24.43    10.79   252.95     0.01     0.00    -0.00   0.020   75
   -23.45     9.81   252.95     0.01     0.00    -0.00   0.021   76
   -24.43     9.81   253.96     0.01     0.00    -0.00   0.020   77
   -25.40    10.79   253.96     0.01     0.00    -0.00   0.021   78
   -25.40    10.79   254.98     0.01     0.00    -0.00   0.020   79
   -25.40    10.79   253.96     0.01     0.00    -0.00   0.021   80
   -24.43    11.77   253.96     0.01     0.00    -0.00   0.021   82
   -25.40    10.79   254.98     0.01     0.00    -0.00   0.020   83
   -25.40    10.79   252.95     0.01     0.00    -0.00   0.021   84
   -24.43    10.79   253.96     0.01     0.00    -0.00   0.020   85
   -25.40    10.79   256.00     0.01     0.00    -0.00   0.020   86
   -25.40    10.79   253.96     0.01     0.00    -0.00   0.021   87
   -24.43    10.79   253.96     0.01     0.00    -0.00   0.021   89
   -25.40     9.81   254.98     0.01     0.00    -0.00   0.020   90
   -24.43     9.81   253.96     0.01     0.00    -0.00   0.021   91
   -25.40    10.79   256.00     0.01     0.00    -0.00   0.020   92
   -26.38    11.77   252.95     0.01     0.00    -0.00   0.021   93
   -25.40    10.79   253.96     0.01     0.00    -0.00   0.020   94
   -25.40    10.79   253.96     0.01     0.00    -0.00   0.020   96
   -24.43     9.81   253.96     0.01     0.00    -0.00   0.021   97
   -25.40     9.81   256.00     0.01     0.00    -0.00   0.020   98
   -25.40     9.81   253.96     0.01     0.00    -0.00   0.021   99
   -25.40     9.81   254.98     0.00     0.00    -0.00   0.020  100
   -24.43    10.79   253.96     0.01     0.00    -0.00   0.021  101
   -24.43     9.81   253.96     0.01     0.00    -0.00   0.021  103
   -24.43     8.83   252.95     0.01     0.00    -0.00   0.020  104
   -24.43     9.81   253.96     0.01     0.00    -0.00   0.021  105
   -25.40     9.81   253.96     0.00     0.00    -0.00   0.020  106
   -24.43    10.79   252.95     0.01     0.00    -0.00   0.021  107
   -25.40     9.81   252.95     0.01     0.00    -0.00   0.020  108
   -26.38    10.79   253.96     0.01     0.00    -0.00   0.020  110
   -25.40    10.79   252.95     0.01     0.00    -0.00   0.020  111
   -24.43     9.81   252.95     0.01     0.00    -0.00   0.021  112
   -25.40    10.79   252.95     0.01     0.00    -0.00   0.020  113
   -25.40    10.79   253.96     0.01     0.00    -0.00   0.021  114
   -24.43    10.79   254.98     0.01     0.00    -0.00   0.020  115
   -26.38     9.81   254.98     0.01     0.00    -0.00   0.020  117
   -25.40    11.77   253.96     0.01     0.00    -0.00   0.021  118
   -24.43     9.81   252.95     0.01     0.00    -0.00   0.020  119
   -24.43     8.83   252.95     0.01     0.00    -0.00   0.021  120
   -24.43     9.81   253.96     0.01     0.00    -0.00   0.020  121
   -24.43    10.79   254.98     0.01     0.00    -0.00   0.021  122
   -24.43    10.79   253.96     0.01     0.00    -0.00   0.021  124
   -24.43    10.79   253.96     0.01     0.00    -0.00   0.020  125
   -25.40     9.81   252.95     0.01     0.00    -0.00   0.021  126
   -26.38    10.79   253.96     0.01     0.00    -0.00   0.020  127
   -25.40     9.81   254.98     0.01     0.00    -0.00   0.021  128
   -24.43     9.81   253.96     0.00     0.00    -0.00   0.020  129
   -24.43    10.79   253.96     0.01     0.00    -0.00   0.020  131
   -26.38    10.79   253.96     0.01     0.00    -0.00   0.021  132
   -26.38    10.79   253.96     0.01     0.00    -0.00   0.020  133
   -24.43    10.79   254.98     0.01     0.00    -0.00   0.021  134
   -24.43     9.81   254.98     0.01     0.00    -0.00   0.020  135
   -24.43     9.81   253.96     0.01     0.00    -0.00   0.020  136
   -24.43     8.83   253.96     0.01     0.00    -0.00   0.020  138
   -25.40     9.81   254.98     0.01     0.00    -0.00   0.021  139
   -24.43     9.81   256.00     0.01     0.00    -0.00   0.020  140
   -25.40    10.79   252.95     0.01     0.00    -0.00   0.021  141
   -25.40    10.79   254.98     0.01     0.00    -0.00   0.020  142
   -25.40     9.81   252.95     0.01     0.00    -0.00   0.021  143
   -24.43     9.81   252.95     0.01     0.00    -0.00   0.021  145
   -25.40     9.81   253.96     0.01     0.00    -0.00   0.020  146
   -24.43    10.79   254.98     0.01     0.00    -0.00   0.021  147
   -26.38     9.81   253.96     0.01     0.00    -0.00   0.020  148
   -25.40    10.79   254.98     0.01     0.00    -0.00   0.021  149
   -24.43    10.79   254.98     0.01     0.00    -0.00   0.020  150
   -24.43     9.81   253.96     0.01     0.00    -0.00   0.020  152
   -24.43     9.81   254.98     0.01     0.00    -0.00   0.021  153
   -25.40    10.79   256.00     0.01     0.00    -0.00   0.020  154
   -24.43     9.81   253.96     0.01     0.00    -0.00   0.021  155
   -26.38    11.77   253.96     0.01     0.00    -0.00   0.020  156
   -26.38    10.79   254.98     0.01     0.00    -0.00   0.021  157
   -24.43     9.81   253.96     0.01     0.00    -0.00   0.021  159
   -24.43     9.81   252.95     0.01     0.00    -0.00   0.020  160
   -25.40    10.79   253.96     0.00     0.00    -0.00   0.020  161
   -25.40    10.79   254.98     0.01     0.00    -0.00   0.021  162
   -24.43    10.79   253.96     0.01     0.00    -0.00   0.020  163
   -25.40    10.79   254.98     0.01     0.00    -0.00   0.021  164
   -25.40    11.77   253.96     0.01     0.00    -0.00   0.021  166
   -24.43     9.81   254.98     0.01     0.00    -0.00   0.020  167
   -24.43     9.81   254.98     0.01     0.00    -0.00   0.021  168
   -24.43    10.79   253.96     0.01     0.00    -0.00   0.020  169
   -24.43     9.81   254.98     0.01     0.00    -0.00   0.021  170
   -25.40    10.79   253.96     0.01     0.00    -0.00   0.020  171
   -25.40    10.79   253.96     0.01     0.00    -0.00   0.020  173
   -26.38    10.79   253.96     0.01     0.00    -0.00   0.021  174
   -26.38    11.77   253.96     0.01     0.00    -0.00   0.020  175
   -24.43    10.79   252.95     0.01     0.00    -0.00   0.021  176
   -23.45     9.81   253.96     0.01     0.00    -0.00   0.020  177
   -24.43    10.79   254.98     0.01     0.00    -0.00   0.021  178
   -25.40     9.81   252.95     0.00     0.00    -0.00   0.021  180
   -25.40     9.81   254.98     0.00     0.00    -0.00   0.020  181
   -25.40     9.81   254.98     0.01     0.00    -0.00   0.021  182
   -24.43     9.81   252.95     0.01     0.00    -0.00   0.020  183
   -25.40     9.81   252.95     0.00     0.00    -0.00   0.021  184
   -25.40     9.81   252.95     0.01     0.00    -0.00   0.020  185
   -25.40     9.81   253.96     0.01     0.00    -0.00   0.021  187
   -24.43    10.79   253.96     0.01     0.00    -0.00   0.020  188
   -25.40    10.79   254.98     0.01     0.00    -0.00   0.021  189
   -24.43    10.79   253.96     0.01     0.00    -0.00   0.020  190
   -25.40    10.79   253.96     0.01     0.00    -0.00   0.021  191
   -27.36    10.79   252.95     0.01     0.00    -0.00   0.020  192
   -25.40     9.81   253.96     0.01     0.00    -0.00   0.020  194
   -25.40    10.79   252.95     0.01     0.00    -0.00   0.021  195
   -26.38    11.77   253.96     0.01     0.00    -0.00   0.021  197
   -25.40    10.79   252.95     0.01     0.00    -0.00   0.020  198
   -24.43    10.79   253.96     0.01     0.00    -0.00   0.021  199
   -25.40    11.77   253.96     0.01     0.00    -0.00   0.021  201
   -25.40    11.77   253.96     0.01     0.00    -0.00   0.020  202
   -25.40     9.81   253.96     0.01     0.00    -0.00   0.020  204
   -24.43    10.79   253.96     0.01     0.00    -0.00   0.021  205
   -25.40     9.81   253.96     0.01     0.00    -0.00   0.020  206
   -26.38    10.79   253.96     0.01     0.00    -0.00   0.021  207
   -25.40    10.79   254.98     0.01     0.00    -0.00   0.020  208
   -24.43     9.81   253.96     0.01     0.00    -0.00   0.021  209
   -25.40     9.81   254.98     0.00     0.00    -0.00   0.020  211
   -25.40    10.79   253.96     0.01     0.00    -0.00   0.021  212
   -25.40    10.79   253.96     0.01     0.00    -0.00   0.020  213
   -25.40    10.79   254.98     0.01     0.00    -0.00   0.021  214
   -26.38    11.77   253.96     0.01     0.00    -0.00   0.020  215
   -25.40    11.77   252.95     0.01     0.00    -0.00   0.021  216
   -26.38     9.81   254.98     0.01     0.00    -0.00   0.021  218
   -25.40    10.79   254.98     0.01     0.00    -0.00   0.020  219
   -25.40    10.79   252.95     0.01     0.00    -0.00   0.021  220
   -25.40    10.79   252.95     0.01     0.00    -0.00   0.020  221
   -24.43     9.81   253.96     0.01     0.00    -0.00   0.021  222
   -24.43     9.81   253.96     0.01     0.00    -0.00   0.020  223
   -24.43    10.79   253.96     0.01     0.00    -0.00   0.020  225
   -26.38    10.79   254.98     0.01     0.00    -0.00   0.021  226
   -25.40     9.81   254.98     0.00     0.00    -0.00   0.020  227
   -24.43    10.79   253.96     0.00     0.00    -0.00   0.021  228
   -25.40    11.77   253.96     0.01     0.00    -0.00   0.020  229
   -25.40    10.79   253.96     0.01     0.00    -0.00   0.021  230
   -25.40     9.81   254.98     0.01     0.00    -0.00   0.021  232
   -25.40     9.81   253.96     0.00     0.00    -0.00   0.020  233
   -25.40    10.79   252.95     0.01     0.00    -0.00   0.021  234
   -25.40    10.79   254.98     0.01     0.00    -0.00   0.020  235
   -23.45     9.81   254.98     0.01     0.00    -0.00   0.020  236
   -25.40     9.81   253.96     0.01     0.00    -0.00   0.021  237
   -25.40     9.81   254.98     0.01     0.00    -0.00   0.021  239
   -24.43    10.79   254.98     0.01     0.00    -0.00   0.020  240
   -24.43    10.79   253.96     0.01     0.00    -0.00   0.021  241
   -25.40     9.81   251.93     0.01     0.00    -0.00   0.020  242
   -25.40    10.79   253.96     0.01     0.00    -0.00   0.021  243
   -25.40    10.79   253.96     0.01     0.00    -0.00   0.020  244
   -25.40     9.81   253.96     0.01     0.00    -0.00   0.020  246
   -24.43     9.81   254.98     0.01     0.00    -0.00   0.021  247
   -24.43     9.81   253.96     0.01     0.00    -0.00   0.020  248
   -24.43     9.81   252.95     0.01     0.00    -0.00   0.021  249
   -25.40     9.81   253.96     0.01     0.00    -0.00   0.020  250
   -25.40     9.81   253.96     0.01     0.00    -0.00   0.021  251
   -25.40     9.81   254.98     0.01     0.00    -0.00   0.021  253
   -25.40    10.79   253.96     0.01     0.00    -0.00   0.020  254
   -26.38     9.81   254.98     0.01     0.00    -0.00   0.021  255
   -25.40    10.79   253.96     0.01     0.00    -0.00   0.020    0
   -24.43     9.81   253.96     0.01     0.00    -0.00   0.021    1
   -25.40    10.79   253.96     0.01     0.00    -0.00   0.020    2
   -25.40     9.81   254.98     0.01     0.00    -0.00   0.020    4
   -24.43     9.81   252.95     0.01     0.00    -0.00   0.020    5
   -26.38    10.79   254.98     0.01     0.00    -0.00   0.021    6
   -25.40    10.79   254.98     0.01     0.00    -0.00   0.020    7
   -24.43     9.81   253.96     0.01     0.00    -0.00   0.021    8
   -25.40    10.79   253.96     0.01     0.00    -0.00   0.020    9
   -25.40    10.79   253.96     0.00     0.00    -0.00   0.020   11
   -25.40    10.79   252.95     0.00     0.00    -0.00   0.021   12
   -23.45     9.81   254.98     0.01     0.00    -0.00   0.020   13
   -24.43     9.81   253.96     0.01     0.00    -0.00   0.021   14
   -25.40    10.79   254.98     0.01     0.00    -0.00   0.020   15
   -25.40    11.77   252.95     0.01     0.00    -0.00   0.021   16
   -25.40    10.79   254.98     0.00     0.00    -0.00   0.021   18
   -25.40    10.79   252.95     0.01     0.00    -0.00   0.020   19
   -23.45    10.79   253.96     0.01     0.00    -0.00   0.021   20
   -24.43     9.81   254.98     0.01     0.00    -0.00   0.020   21
   -25.40    10.79   253.96     0.01     0.00    -0.00   0.021   22
   -25.40    10.79   254.98     0.01     0.00    -0.00   0.020   23
   -24.43    10.79   253.96     0.00     0.00    -0.00   0.020   25
   -25.40    11.77   252.95     0.01     0.00    -0.00   0.021   26
   -23.45     9.81   254.98     0.01     0.00    -0.00   0.020   27
   -25.40    10.79   253.96     0.01     0.00    -0.00   0.021   28
   -25.40    10.79   253.96     0.01     0.00    -0.00   0.020   29
   -25.40    10.79   253.96     0.01     0.00    -0.00   0.020   30
   -24.43     9.81   252.95     0.00     0.00    -0.00   0.020   32
   -25.40    10.79   252.95     0.01     0.00    -0.00   0.021   33
   -24.43    10.79   253.96     0.01     0.00    -0.00   0.020   34
   -25.40    10.79   253.96     0.01     0.00    -0.00   0.021   35
   -24.43     9.81   252.95     0.00     0.00    -0.00   0.020   36
   -26.38    10.79   252.95     0.01     0.00    -0.00   0.021   37
   -25.40    10.79   253.96     0.01     0.00    -0.00   0.021   39
   -25.40    11.77   253.96     0.01     0.00    -0.00   0.020   40
   -25.40     9.81   253.96     0.01     0.00    -0.00   0.021   41
   -25.40    10.79   254.98     0.01     0.00    -0.00   0.020   42
   -24.43     9.81   253.96     0.01     0.00    -0.00   0.021   43
   -25.40    10.79   253.96     0.01     0.00    -0.00   0.020   44
   -25.40    11.77   253.96     0.01     0.00    -0.00   0.020   46
   -25.40     9.81   252.95     0.00     0.00    -0.00   0.021   47
   -25.40     9.81   254.98     0.01     0.00    -0.00   0.020   48
   -25.40    10.79   252.95     0.01     0.00    -0.00   0.021   49
   -25.40     8.83   252.95     0.01     0.00    -0.00   0.020   50
   -25.40    10.79   253.96     0.01     0.00    -0.00   0.021   51
   -25.40    10.79   253.96     0.01     0.00    -0.00   0.021   53
   -25.40     9.81   254.98     0.01     0.00    -0.00   0.020   54
   -25.40     9.81   252.95     0.01     0.00    -0.00   0.020   55
   -25.40    10.79   253.96     0.01     0.00    -0.00   0.021   56
   -24.43     9.81   253.96     0.01     0.00    -0.00   0.020   57
   -25.40    10.79   253.96     0.01     0.00    -0.00   0.021   58
   -25.40     9.81   252.95     0.01     0.00    -0.00   0.021   60
   -25.40    11.77   252.95     0.01     0.00    -0.00   0.020   61
   -26.38     9.81   253.96     0.01     0.00    -0.00   0.021   62
   -25.40    10.79   253.96     0.01     0.00    -0.00   0.020   63
   -25.40    10.79   253.96     0.01     0.00    -0.00   0.021   64
   -25.40     9.81   253.96     0.01     0.00    -0.00   0.020   65
   -25.40    10.79   254.98     0.01     0.00    -0.00   0.020   67
   -24.43    10.79   253.96     0.01     0.00    -0.00   0.021   68
   -26.38    10.79   252.95     0.01     0.00    -0.00   0.020   69
   -26.38     9.81   253.96     0.01     0.00    -0.00   0.021   70
   -25.40    10.79   252.95     0.00     0.00    -0.00   0.020   71
   -24.43     9.81   254.98     0.01     0.00    -0.00   0.021   72
   -24.43    10.79   252.95     0.01     0.00    -0.00   0.021   74
   -26.38    10.79   253.96     0.01     0.00    -0.00   0.020   75
   -25.40    10.79   252.95     0.01     0.00    -0.00   0.021   76
   -26.38    10.79   253.96     0.01     0.00    -0.00   0.020   77
   -24.43    10.79   252.95     0.01     0.00    -0.00   0.021   78
   -25.40     9.81   252.95     0.00     0.00    -0.00   0.020   79
   -26.38    11.77   254.98     0.01     0.00    -0.00   0.021   81
   -24.43    10.79   253.96     0.01     0.00    -0.00   0.020   82
   -25.40    11.77   253.96     0.01     0.00    -0.00   0.021   83
   -25.40     9.81   254.98     0.01     0.00    -0.00   0.020   84
   -26.38    11.77   253.96     0.01     0.00    -0.00   0.021   85
   -25.40    10.79   253.96     0.01     0.00    -0.00   0.020   86
   -24.43     9.81   252.95     0.01     0.00    -0.00   0.020   88
   -26.38    10.79   254.98     0.01     0.00    -0.00   0.021   89
   -25.40     9.81   254.98     0.01     0.00    -0.00   0.020   90
   -25.40     9.81   252.95     0.01     0.00    -0.00   0.021   91
   -24.43    10.79   253.96     0.01     0.00    -0.00   0.020   92
   -26.38     9.81   253.96     0.01     0.00    -0.00   0.021   93
   -24.43    10.79   251.93     0.01     0.00    -0.00   0.021   95
   -25.40     9.81   253.96     0.00     0.00    -0.00   0.020   96
   -25.40     8.83   254.98     0.01     0.00    -0.00   0.021   97
   -24.43     9.81   253.96     0.01     0.00    -0.00   0.020   98
   -25.40    10.79   253.96     0.01     0.00    -0.00   0.021   99
   -26.38     9.81   253.96     0.01     0.00    -0.00   0.020  100
   -26.38    10.79   254.98     0.01     0.00    -0.00   0.020  102
   -25.40    10.79   253.96     0.00     0.00    -0.00   0.021  103
   -25.40     9.81   253.96     0.00     0.00    -0.00   0.020  104
   -26.38    10.79   252.95     0.01     0.00    -0.00   0.020  105
   -25.40     9.81   253.96     0.01     0.00    -0.00   0.021  106
   -25.40    10.79   254.98     0.00     0.00    -0.00   0.020  107
   -24.43     9.81   254.98     0.01     0.00    -0.00   0.020  109
   -25.40    10.79   253.96     0.00     0.00    -0.00   0.021  110
   -24.43     9.81   253.96     0.01     0.00    -0.00   0.020  111
   -25.40     9.81   253.96     0.01     0.00    -0.00   0.021  112
   -24.43    10.79   252.95     0.01     0.00    -0.00   0.020  113
   -26.38     9.81   252.95     0.01     0.00    -0.00   0.021  114
   -25.40    10.79   252.95     0.01     0.00    -0.00   0.021  116
   -25.40    10.79   254.98     0.01     0.00    -0.00   0.020  117
   -25.40    10.79   253.96     0.01     0.00    -0.00   0.021  118
   -26.38    11.77   253.96     0.01     0.00    -0.00   0.020  119
   -25.40    10.79   251.93     0.01     0.00    -0.00   0.021  120
   -26.38    11.77   254.98     0.01     0.00    -0.00   0.020  121
   -25.40    10.79   253.96     0.01     0.00    -0.00   0.020  123
   -24.43    10.79   253.96     0.01     0.00    -0.00   0.021  124
   -26.38    10.79   252.95     0.01     0.00    -0.00   0.020  125
   -25.40    10.79   253.96     0.01     0.00    -0.00   0.021  126
   -25.40    10.79   253.96     0.01     0.00    -0.00   0.020  127
   -25.40    10.79   253.96     0.01     0.00    -0.00   0.021  128
   -25.40    10.79   252.95     0.01     0.00    -0.00   0.020  130
   -24.43     9.81   253.96     0.01     0.00    -0.00   0.021  131
   -25.40    11.77   254.98     0.01     0.00    -0.00   0.020  132
   -24.43    11.77   256.00     0.01     0.00    -0.00   0.021  133
   -24.43    10.79   253.96     0.01     0.00    -0.00   0.020  134
   -24.43     9.81   253.96     0.00     0.00    -0.00   0.021  135
   -25.40    10.79   253.96     0.00     0.00    -0.00   0.021  137
   -23.45    10.79   252.95     0.01     0.00    -0.00   0.020  138
   -24.43    10.79   253.96     0.01     0.00    -0.00   0.021  139
   -24.43     8.83   254.98     0.01     0.00    -0.00   0.020  140
   -24.43     9.81   253.96     0.01     0.00    -0.00   0.021  141
   -24.43     9.81   253.96     0.01     0.00    -0.00   0.020  142
   -25.40    10.79   252.95     0.00     0.00    -0.00   0.020  144
   -24.43    10.79   253.96     0.01     0.00    -0.00   0.021  145
   -25.40     9.81   254.98     0.01     0.00    -0.00   0.020  146
   -25.40    10.79   253.96     0.01     0.00    -0.00   0.021  147
   -26.38     9.81   254.98     0.01     0.00    -0.00   0.020  148
   -25.40    10.79   253.96     0.01     0.00    -0.00   0.021  149
   -25.40    10.79   253.96     0.01     0.00    -0.00   0.021  151
   -25.40     9.81   253.96     0.01     0.00    -0.00   0.020  152
   -23.45     9.81   253.96     0.01     0.00    -0.00   0.021  153
   -25.40    10.79   253.96     0.01     0.00    -0.00   0.020  154
   -25.40     9.81   252.95     0.01     0.00    -0.00   0.020  155
   -25.40    10.79   254.98     0.01     0.00    -0.00   0.021  156
   -24.43     9.81   254.98     0.01     0.00    -0.00   0.021  158
   -25.40     8.83   251.93     0.01     0.00    -0.00   0.020  159
   -24.43    10.79   252.95     0.01     0.00    -0.00   0.021  160
   -25.40    10.79   253.96     0.01     0.00    -0.00   0.020  161
   -24.43     9.81   252.95     0.01     0.00    -0.00   0.021  162
   -25.40    10.79   253.96     0.01     0.00    -0.00   0.020  163
   -25.40     9.81   254.98     0.01     0.00    -0.00   0.020  165
   -23.45     9.81   252.95     0.01     0.00    -0.00   0.021  166
   -24.43    10.79   253.96     0.00     0.00    -0.00   0.020  167
   -25.40     9.81   253.96     0.00     0.00    -0.00   0.021  168
   -25.40    10.79   254.98     0.01     0.00    -0.00   0.020  169
   -26.38    10.79   253.96     0.01     0.00    -0.00   0.021  170
   -23.45     9.81   254.98     0.01     0.00    -0.00   0.021  172
   -24.43     9.81   253.96     0.01     0.00    -0.00   0.020  173
   -25.40    10.79   252.95     0.01     0.00    -0.00   0.021  174
   -24.43     9.81   253.96     0.01     0.00    -0.00   0.020  175
   -24.43    10.79   253.96     0.01     0.00    -0.00   0.021  176
   -25.40    10.79   254.98     0.01     0.00    -0.00   0.020  177
   -24.43    10.79   254.98     0.01     0.00    -0.00   0.020  179
   -23.45    10.79   254.98     0.01     0.00    -0.00   0.020  180
   -24.43     9.81   253.96     0.01     0.00    -0.00   0.021  181
   -25.40    11.77   254.98     0.01     0.00    -0.00   0.020  182
   -24.43     9.81   254.98     0.00     0.00    -0.00   0.021  183
   -25.40    10.79   254.98     0.01     0.00    -0.00   0.020  184
   -26.38    11.77   253.96     0.01     0.00    -0.00   0.020  186
   -25.40     9.81   254.98     0.01     0.00    -0.00   0.021  187
   -26.38    10.79   253.96     0.01     0.00    -0.00   0.020  188
   -25.40     8.83   252.95     0.01     0.00    -0.00   0.021  189
   -24.43     9.81   252.95     0.01     0.00    -0.00   0.020  190
   -25.40    10.79   253.96     0.01     0.00    -0.00   0.021  191
   -25.40    10.79   251.93     0.01     0.00    -0.00   0.021  193
   -24.43     9.81   254.98     0.01     0.00    -0.00   0.020  194
   -24.43     9.81   253.96     0.01     0.00    -0.00   0.021  195
   -25.40     9.81   252.95     0.01     0.00     0.00   0.020  196
   -25.40     9.81   252.95     0.01     0.00    -0.00   0.021  197
   -24.43    10.79   253.96     0.01     0.00    -0.00   0.020  198
   -24.43     9.81   252.95     0.01     0.00    -0.00   0.020  200
   -25.40     9.81   253.96     0.01     0.00    -0.00   0.021  201
   -25.40    10.79   253.96     0.01     0.00    -0.00   0.020  202
   -25.40     9.81   253.96     0.01     0.00    -0.00   0.021  203
   -25.40     9.81   253.96     0.01     0.00    -0.00   0.020  204
   -25.40    10.79   253.96     0.01     0.00    -0.00   0.020  205
   -24.43    11.77   253.96     0.01     0.00    -0.00   0.020  207
   -25.40    10.79   254.98     0.01     0.00    -0.00   0.021  208
   -23.45    10.79   253.96     0.01     0.00    -0.00   0.020  209
   -25.40    10.79   253.96     0.01     0.00    -0.00   0.021  210
   -26.38    10.79   251.93     0.01     0.00    -0.00   0.020  211
   -25.40     9.81   253.96     0.01     0.00    -0.00   0.021  212
   -25.40     9.81   253.96     0.01     0.00    -0.00   0.021  214
   -24.43     8.83   252.95     0.01     0.00    -0.00   0.020  215
   -24.43    10.79   252.95     0.01     0.00    -0.00   0.021  216
   -24.43    11.77   252.95     0.01     0.00    -0.00   0.020  217
   -25.40     9.81   253.96     0.01     0.00    -0.00   0.021  218
   -25.40     9.81   253.96     0.00     0.00    -0.00   0.020  219
   -25.40    10.79   253.96     0.01     0.00    -0.00   0.020  221
   -24.43    10.79   253.96     0.01     0.00    -0.00   0.021  222
   -24.43    10.79   252.95     0.01     0.00    -0.00   0.020  223
   -24.43     9.81   254.98     0.01     0.00    -0.00   0.021  224
   -25.40     9.81   251.93     0.01     0.00    -0.00   0.020  225
   -24.43    11.77   252.95     0.01     0.00    -0.00   0.021  226
   -25.40     9.81   254.98     0.01     0.00    -0.00   0.021  228
   -25.40     9.81   254.98     0.00     0.00    -0.00   0.020  229
   -25.40    10.79   253.96     0.01     0.00    -0.00   0.021  231
   -26.38    10.79   252.95     0.00     0.00    -0.00   0.020  232
   -24.43    10.79   253.96     0.00     0.00    -0.00   0.021  233
   -26.38    10.79   252.95     0.01     0.00    -0.00   0.020  234
   -25.40    10.79   253.96     0.01     0.00    -0.00   0.021  235
   -24.43    10.79   254.98     0.01     0.00    -0.00   0.020  236
   -25.40     9.81   253.96     0.01     0.00    -0.00   0.020  238
   -25.40    10.79   252.95     0.01     0.00    -0.00   0.021  239
   -24.43     9.81   253.96     0.01     0.00    -0.00   0.020  240
   -24.43     9.81   252.95     0.01     0.00    -0.00   0.021  241
   -25.40    10.79   253.96     0.01     0.00    -0.00   0.020  242
   -25.40    10.79   252.95     0.01     0.00    -0.00   0.021  243
   -25.40    10.79   253.96     0.01     0.00    -0.00   0.020  244
   -25.40     9.81   253.96     0.01     0.00    -0.00   0.021  245
   -25.40    11.77   253.96     0.01     0.00    -0.00   0.020  246
   -25.40    10.79   253.96     0.01     0.00    -0.00   0.021  247
   -24.43    10.79   253.96     0.01     0.00    -0.00   0.021  249
   -25.40    10.79   253.96     0.01     0.00    -0.00   0.020  250
   -24.43     9.81   252.95     0.01     0.00    -0.00   0.020  252
   -24.43     9.81   254.98     0.01     0.00    -0.00   0.021  253
   -25.40     9.81   254.98     0.01     0.00    -0.00   0.020  254
   -26.38     9.81   254.98     0.01     0.00    -0.00   0.020  255
   -25.40    10.79   253.96     0.01     0.00    -0.00   0.021    0
   -25.40     9.81   253.96     0.01     0.00    -0.00   0.020    1
   -25.40    10.79   253.96     0.01     0.00    -0.00   0.020    3
   -25.40     9.81   253.96     0.01     0.00    -0.00   0.021    4
   -24.43    10.79   253.96     0.01     0.00    -0.00   0.020    5
   -25.40    10.79   253.96     0.01     0.00    -0.00   0.021    6
   -26.38    10.79   253.96     0.01     0.00    -0.00   0.020    7
   -24.43     8.83   253.96     0.01     0.00    -0.00   0.021    8
   -25.40    11.77   253.96     0.01     0.00    -0.00   0.021   10
   -25.40    10.79   256.00     0.01     0.00    -0.00   0.020   11
   -25.40    10.79   253.96     0.01     0.00    -0.00   0.021   12
   -26.38     9.81   254.98     0.00     0.00    -0.00   0.020   13
   -25.40    10.79   252.95     0.01     0.00    -0.00   0.021   14
   -26.38     8.83   252.95     0.01     0.00    -0.00   0.020   15
   -24.43    10.79   253.96     0.01     0.00    -0.00   0.020   17
   -25.40    11.77   253.96     0.01     0.00    -0.00   0.021   18
   -24.43     9.81   253.96     0.01     0.00    -0.00   0.020   19
   -25.40    10.79   253.96     0.00     0.00    -0.00   0.021   20
   -25.40    10.79   252.95     0.01     0.00    -0.00   0.020   21
   -25.40    10.79   253.96     0.01     0.00    -0.00   0.021   22
   -23.45     9.81   253.96     0.00     0.00    -0.00   0.020   24
   -25.40    10.79   253.96     0.01     0.00    -0.00   0.021   25
   -25.40    10.79   253.96     0.01     0.00    -0.00   0.020   26
   -24.43    10.79   253.96     0.00     0.00    -0.00   0.021   27
   -24.43    10.79   254.98     0.01     0.00    -0.00   0.020   28
   -25.40    10.79   253.96     0.00     0.00    -0.00   0.021   29
   -24.43    10.79   256.00     0.01     0.00    -0.00   0.021   31
   -25.40     9.81   253.96     0.01     0.00    -0.00   0.020   32
   -24.43     9.81   254.98     0.01     0.00    -0.00   0.021   33
   -25.40    10.79   252.95     0.01     0.00    -0.00   0.020   34
   -24.43    10.79   253.96     0.01     0.00    -0.00   0.021   35
   -25.40     9.81   253.96     0.01     0.00    -0.00   0.020   36
   -25.40    10.79   253.96     0.01     0.00    -0.00   0.020   38
   -25.40    10.79   252.95     0.01     0.00    -0.00   0.021   39
   -25.40    10.79   253.96     0.01     0.00    -0.00   0.020   40
   -25.40    10.79   253.96     0.01     0.00    -0.00   0.021   41
   -25.40    10.79   252.95     0.01     0.00    -0.00   0.020   42
   -24.43    10.79   254.98     0.01     0.00    -0.00   0.021   43
   -24.43     9.81   253.96     0.01     0.00    -0.00   0.021   45
   -25.40    10.79   254.98     0.01     0.00    -0.00   0.020   46
   -23.45    10.79   253.96     0.01     0.00    -0.00   0.021   47
   -24.43     9.81   254.98     0.00     0.00    -0.00   0.020   48
   -25.40     9.81   253.96     0.01     0.00    -0.00   0.020   49
   -25.40     9.81   254.98     0.00     0.00    -0.00   0.021   50
   -25.40    10.79   253.96     0.01     0.00    -0.00   0.021   52
   -24.43     9.81   253.96     0.01     0.00    -0.00   0.020   53
   -25.40    10.79   252.95     0.01     0.00    -0.00   0.021   54
   -26.38    10.79   253.96     0.00     0.00    -0.00   0.020   55
   -24.43    10.79   254.98     0.01     0.00    -0.00   0.021   56
   -24.43    11.77   254.98     0.01     0.00    -0.00   0.020   57
   -24.43     9.81   253.96     0.01     0.00    -0.00   0.020   59
   -25.40     9.81   253.96     0.00     0.00    -0.00   0.021   60
   -24.43    10.79   253.96     0.01     0.00    -0.00   0.020   61
   -25.40    11.77   253.96     0.01     0.00    -0.00   0.021   62
   -25.40    10.79   251.93     0.01     0.00    -0.00   0.020   63
   -25.40    10.79   253.96     0.00     0.00    -0.00   0.021   64
   -24.43     9.81   254.98     0.01     0.00    -0.00   0.021   66
   -25.40    10.79   252.95     0.01     0.00    -0.00   0.020   67
   -25.40     9.81   253.96     0.01     0.00    -0.00   0.021   68
   -25.40     9.81   252.95     0.01     0.00    -0.00   0.020   69
   -25.40     9.81   251.93     0.01     0.00    -0.00   0.021   70
   -24.43    11.77   254.98     0.01     0.00    -0.00   0.020   71
   -25.40     9.81   252.95     0.00     0.00    -0.00   0.020   73
   -25.40    11.77   253.96     0.01     0.00    -0.00   0.020   74
   -26.38    10.79   254.98     0.01     0.00    -0.00   0.021   75
   -25.40    11.77   252.95     0.00     0.00    -0.00   0.020   76
   -25.40    10.79   253.96     0.01     0.00    -0.00   0.021   77
   -23.45     8.83   252.95     0.01     0.00    -0.00   0.020   78
   -25.40    10.79   251.93     0.00     0.00    -0.00   0.020   80
   -25.40     9.81   252.95     0.00     0.00    -0.00   0.021   81
   -25.40    10.79   253.96     0.01     0.00    -0.00   0.020   82
   -24.43    11.77   254.98     0.01     0.00    -0.00   0.021   83
   -24.43    10.79   253.96     0.01     0.00    -0.00   0.020   84
   -25.40    10.79   253.96     0.01     0.00    -0.00   0.021   85
   -25.40    10.79   253.96     0.01     0.00    -0.00   0.021   87
   -24.43     9.81   253.96     0.01     0.00    -0.00   0.020   88
   -25.40    10.79   252.95     0.01     0.00    -0.00   0.021   89
   -25.40     9.81   253.96     0.01     0.00    -0.00   0.020   90
   -25.40    10.79   253.96     0.01     0.00    -0.00   0.021   91
   -25.40     9.81   254.98     0.01     0.00    -0.00   0.020   92
   -25.40    10.79   252.95     0.01     0.00    -0.00   0.020   94
   -24.43    10.79   253.96     0.01     0.00    -0.00   0.021   95
   -25.40    10.79   254.98     0.01     0.00    -0.00   0.020   96
   -26.38    10.79   253.96     0.01     0.00    -0.00   0.021   97
   -25.40     9.81   253.96     0.01     0.00    -0.00   0.020   98
   -25.40    11.77   252.95     0.01     0.00    -0.00   0.020   99
   -25.40     9.81   253.96     0.01     0.00    -0.00   0.020  101
   -25.40    10.79   254.98     0.01     0.00    -0.00   0.021  102
   -25.40    10.79   252.95     0.01     0.00    -0.00   0.020  103
   -25.40    10.79   253.96     0.01     0.00    -0.00   0.021  104
   -25.40     9.81   252.95     0.01     0.00    -0.00   0.020  105
   -25.40    11.77   253.96     0.01     0.00    -0.00   0.021  106
   -25.40     9.81   253.96     0.01     0.00    -0.00   0.021  108
   -25.40     9.81   252.95     0.01     0.00    -0.00   0.020  109
   -26.38     8.83   258.04     0.01     0.00    -0.00   0.021  110
   -25.40     9.81   252.95     0.01     0.00    -0.00   0.020  111
   -25.40     9.81   253.96     0.01     0.00    -0.00   0.021  112
   -25.40     9.81   253.96     0.01     0.00    -0.00   0.020  113
   -24.43     9.81   253.96     0.01     0.00    -0.00   0.020  115
   -24.43     9.81   253.96     0.01     0.00    -0.00   0.021  116
   -25.40    10.79   254.98     0.01     0.00    -0.00   0.020  117
   -24.43    10.79   253.96     0.01     0.00    -0.00   0.021  118
