   158.29    50.02   195.94    -0.00     0.00    -0.00   0.021    0
   159.27    49.04   195.94    -0.00     0.00     0.00   0.020    1
   160.24    49.04   196.96    -0.00     0.00     0.00   0.021    2
   160.24    49.04   194.93    -0.00     0.00     0.00   0.020    3
   160.24    49.04   195.94    -0.00    -0.00     0.00   0.021    4
   159.27    49.04   196.96    -0.00     0.00     0.00   0.020    5
   160.24    50.02   195.94    -0.00     0.00     0.00   0.021    6
   159.27    50.02   195.94    -0.00     0.00     0.00   0.020    7
   161.22    50.02   196.96    -0.00    -0.00     0.00   0.021    8
   159.27    49.04   195.94    -0.00     0.00     0.00   0.020    9
   159.27    50.02   194.93    -0.00    -0.00     0.00   0.021   10
   159.27    50.02   195.94    -0.00    -0.00     0.00   0.020   11
   159.27    51.00   195.94    -0.00     0.00     0.00   0.021   12
   159.27    50.02   194.93    -0.00     0.00     0.00   0.020   13
   160.24    50.02   196.96    -0.00    -0.00     0.00   0.021   14
   158.29    51.00   194.93    -0.00    -0.00     0.00   0.020   15
   159.27    50.02   195.94    -0.00    -0.00     0.00   0.020   16
   160.24    50.02   196.96    -0.00    -0.00     0.00   0.021   17
   160.24    50.02   195.94    -0.00     0.00     0.00   0.020   18
   159.27    50.02   194.93    -0.00    -0.00     0.00   0.021   19
   161.22    49.04   196.96    -0.00    -0.00     0.00   0.020   20
   159.27    49.04   195.94    -0.00    -0.00     0.00   0.021   21
   160.24    50.02   194.93    -0.00     0.00     0.00   0.020   22
   160.24    50.02   195.94    -0.00    -0.00     0.00   0.021   23
   159.27    49.04   196.96    -0.00     0.00     0.00   0.020   24
   158.29    50.02   194.93    -0.00    -0.00     0.00   0.021   25
   160.24    51.00   197.98    -0.00    -0.00     0.00   0.020   26
   159.27    49.04   195.94    -0.00    -0.00     0.00   0.021   27
   158.29    49.04   195.94    -0.00    -0.00     0.00   0.020   28
   160.24    50.02   194.93    -0.00    -0.00     0.00   0.021   29
   159.27    50.02   195.94    -0.00    -0.00     0.00   0.020   30
   159.27    50.02   195.94    -0.00    -0.00     0.00   0.021   31
   159.27    51.00   196.96    -0.01    -0.00     0.00   0.020   32
   159.27    50.02   194.93    -0.00     0.00     0.00   0.021   33
   159.27    49.04   195.94    -0.01    -0.00     0.00   0.020   34
   160.24    50.02   197.98    -0.00    -0.00     0.00   0.021   35
   159.27    50.02   194.93    -0.00    -0.00    -0.00   0.020   36
   159.27    50.02   195.94    -0.00    -0.00     0.00   0.021   37
   160.24    50.02   197.98    -0.00     0.00     0.00   0.020   38
   158.29    50.02   195.94    -0.00     0.00     0.00   0.021   39
   159.27    49.04   195.94    -0.00     0.00     0.00   0.020   40
   159.27    50.02   195.94    -0.00    -0.00     0.00   0.020   41
   159.27    49.04   193.91    -0.00    -0.00     0.00   0.021   42
   160.24    50.02   194.93    -0.00    -0.00     0.00   0.020   43
   159.27    50.02   194.93    -0.00     0.00     0.00   0.021   44
   160.24    49.04   194.93    -0.00     0.00     0.00   0.020   45
   159.27    49.04   194.93    -0.00    -0.00     0.00   0.021   46
   159.27    50.02   195.94    -0.00     0.00     0.00   0.020   47
   159.27    49.04   195.94    -0.01     0.00     0.00   0.021   48
   158.29    49.04   195.94    -0.00     0.00     0.00   0.020   49
   159.27    50.02   194.93    -0.00    -0.00     0.00   0.021   50
   160.24    50.02   195.94    -0.00    -0.00     0.00   0.020   51
   159.27    50.02   195.94    -0.00    -0.00     0.00   0.021   52
   160.24    49.04   193.91    -0.00     0.00     0.00   0.020   53
   160.24    50.02   196.96    -0.00    -0.00     0.00   0.021   54
   159.27    50.02   195.94    -0.00    -0.00     0.00   0.020   55
   159.27    50.02   195.94    -0.00     0.00     0.00   0.021   56
   159.27    50.02   194.93    -0.00    -0.00     0.00   0.020   57
   159.27    50.02   194.93    -0.00    -0.00     0.00   0.021   58
   159.27    50.02   194.93    -0.00     0.00     0.00   0.020   59
   159.27    50.02   195.94    -0.00    -0.00     0.00   0.021   60
   159.27    50.02   195.94    -0.00    -0.00     0.00   0.020   61
   159.27    50.02   194.93    -0.00    -0.00     0.00   0.021   62
   160.24    51.00   196.96    -0.00     0.00     0.00   0.020   63
   159.27    50.02   195.94    -0.00    -0.00     0.00   0.021   64
   158.29    50.02   194.93    -0.00    -0.00     0.00   0.020   65
   159.27    51.00   195.94    -0.00    -0.00     0.00   0.020   66
   159.27    49.04   196.96    -0.00    -0.00     0.00   0.021   67
   160.24    48.06   194.93    -0.00     0.00     0.00   0.020   68
   159.27    50.02   196.96    -0.00    -0.00    -0.00   0.021   69
   159.27    51.00   195.94    -0.00    -0.00     0.00   0.020   70
   159.27    50.02   195.94    -0.00     0.00     0.00   0.021   71
   158.29    50.02   195.94    -0.00    -0.00     0.00   0.020   72
   157.31    51.00   195.94    -0.00    -0.00    -0.00   0.021   73
   159.27    50.02   194.93    -0.00    -0.00     0.00   0.020   74
   160.24    50.02   195.94    -0.00    -0.00     0.00   0.021   75
   160.24    49.04   195.94    -0.01     0.00     0.00   0.020   76
   158.29    50.02   194.93    -0.00    -0.00     0.00   0.021   77
   159.27    50.02   194.93    -0.00    -0.00    -0.00   0.020   78
   159.27    50.02   195.94    -0.00     0.00     0.00   0.021   79
   158.29    50.02   194.93    -0.00     0.00     0.00   0.020   80
   159.27    50.02   196.96    -0.00    -0.00    -0.00   0.021   81
   159.27    51.00   195.94    -0.00    -0.00    -0.00   0.020   82
   158.29    50.02   195.94    -0.00    -0.00     0.00   0.021   83
   160.24    49.04   196.96    -0.00    -0.00     0.00   0.020   84
   159.27    50.02   195.94    -0.00     0.00    -0.00   0.021   85
   158.29    51.00   194.93    -0.00     0.00     0.00   0.020   86
   160.24    50.02   194.93    -0.00     0.00    -0.00   0.021   87
   159.27    50.02   196.96    -0.00     0.00    -0.00   0.020   88
   158.29    50.02   194.93    -0.00    -0.00     0.00   0.021   89
   160.24    50.02   195.94    -0.00    -0.00     0.00   0.020   90
   161.22    48.06   195.94    -0.00     0.00     0.00   0.020   91
   159.27    50.02   194.93    -0.00    -0.00     0.00   0.021   92
   158.29    49.04   195.94    -0.00    -0.00     0.00   0.020   93
   158.29    50.02   195.94    -0.00    -0.00     0.00   0.021   94
   160.24    50.02   195.94    -0.00    -0.00     0.00   0.020   95
   158.29    50.02   195.94    -0.00    -0.00     0.00   0.021   96
   159.27    49.04   194.93    -0.00    -0.00     0.00   0.020   97
   159.27    50.02   195.94    -0.00    -0.00     0.00   0.021   98
   159.27    51.00   195.94    -0.00    -0.00     0.00   0.020   99
   159.27    49.04   195.94    -0.00     0.00     0.00   0.021  100
   159.27    49.04   196.96    -0.01    -0.00     0.00   0.020  101
   159.27    49.04   195.94    -0.00    -0.00     0.00   0.021  102
   160.24    51.00   194.93    -0.00    -0.00     0.00   0.020  103
   160.24    49.04   195.94    -0.00    -0.00     0.00   0.021  104
   158.29    49.04   194.93    -0.00     0.00     0.00   0.020  105
   160.24    49.04   195.94    -0.00     0.00     0.00   0.021  106
   159.27    49.04   195.94    -0.00    -0.00     0.00   0.020  107
   159.27    50.02   194.93    -0.00    -0.00    -0.00   0.021  108
   159.27    49.04   195.94    -0.00     0.00     0.00   0.020  109
   160.24    51.00   195.94    -0.00    -0.00     0.00   0.021  110
   159.27    50.02   194.93    -0.00    -0.00     0.00   0.020  111
   159.27    50.02   196.96    -0.00     0.00     0.00   0.021  112
   159.27    50.02   196.96    -0.00     0.00     0.00   0.020  113
   159.27    48.06   196.96    -0.00    -0.00     0.00   0.021  114
   159.27    48.06   196.96    -0.00    -0.00     0.00   0.020  115
   161.22    49.04   196.96    -0.00    -0.00     0.00   0.020  116
   159.27    49.04   194.93    -0.01    -0.00     0.00   0.021  117
   159.27    49.04   194.93    -0.01    -0.00     0.00   0.020  118
   161.22    50.02   196.96    -0.01    -0.00     0.00   0.021  119
   160.24    50.02   194.93    -0.00    -0.00     0.00   0.020  120
   160.24    49.04   195.94    -0.00    -0.00     0.00   0.021  121
   160.24    50.02   195.94    -0.00    -0.00     0.00   0.020  122
   159.27    51.00   195.94    -0.00     0.00     0.00   0.021  123
   160.24    49.04   195.94    -0.00    -0.00     0.00   0.020  124
   159.27    50.02   195.94    -0.00    -0.00     0.00   0.021  125
   159.27    50.02   195.94    -0.00    -0.00     0.00   0.020  126
   159.27    49.04   195.94    -0.00     0.00     0.00   0.021  127
   158.29    50.02   197.98    -0.00     0.00     0.00   0.020  128
   158.29    50.02   195.94    -0.00    -0.00     0.00   0.021  129
   158.29    49.04   195.94    -0.00    -0.00     0.00   0.020  130
   160.24    49.04   195.94    -0.00    -0.00     0.00   0.021  131
   160.24    50.02   196.96    -0.00     0.00     0.00   0.020  132
   159.27    49.04   194.93    -0.01    -0.00     0.00   0.021  133
   158.29    50.02   196.96    -0.00    -0.00     0.00   0.020  134
   161.22    49.04   195.94    -0.00    -0.00     0.00   0.021  135
   159.27    50.02   196.96    -0.00     0.00     0.00   0.020  136
   159.27    49.04   195.94    -0.00     0.00    -0.00   0.021  137
   159.27    51.00   196.96    -0.00    -0.00     0.00   0.020  138
   158.29    49.04   194.93    -0.00    -0.00     0.00   0.021  139
   159.27    50.02   195.94    -0.00    -0.00     0.00   0.020  140
   160.24    49.04   195.94    -0.00    -0.00     0.00   0.020  141
   159.27    49.04   195.94    -0.00    -0.00     0.00   0.021  142
   159.27    49.04   195.94    -0.00    -0.00     0.00   0.020  143
   159.27    50.02   195.94    -0.00     0.00     0.00   0.021  144
   160.24    49.04   194.93    -0.00    -0.00     0.00   0.020  145
   159.27    50.02   194.93    -0.00     0.00     0.00   0.021  146
   160.24    50.02   196.96    -0.00    -0.00     0.00   0.020  147
   159.27    49.04   195.94    -0.00    -0.00     0.00   0.021  148
   160.24    50.02   195.94    -0.00    -0.00     0.00   0.020  149
   159.27    50.02   196.96    -0.00     0.00     0.00   0.021  150
   159.27    50.02   195.94    -0.00    -0.00     0.00   0.020  151
   159.27    50.02   195.94    -0.00    -0.00     0.00   0.021  152
   159.27    51.00   195.94    -0.01    -0.00     0.00   0.020  153
   159.27    49.04   195.94    -0.00    -0.00     0.00   0.021  154
   158.29    50.02   195.94    -0.00    -0.00     0.00   0.020  155
   159.27    50.02   195.94    -0.00     0.00     0.00   0.021  156
   159.27    50.02   195.94    -0.00     0.00     0.00   0.020  157
   159.27    49.04   195.94    -0.00     0.00     0.00   0.021  158
   159.27    50.02   195.94    -0.00    -0.00     0.00   0.020  159
   158.29    50.02   194.93    -0.00    -0.00     0.00   0.021  160
   160.24    49.04   195.94    -0.00    -0.00     0.00   0.020  161
   159.27    50.02   196.96    -0.00    -0.00     0.00   0.021  162
   158.29    50.02   195.94    -0.00     0.00     0.00   0.020  163
   158.29    50.02   195.94    -0.00    -0.00     0.00   0.021  164
   160.24    49.04   195.94    -0.00     0.00     0.00   0.020  165
   159.27    50.02   196.96    -0.00    -0.00     0.00   0.020  166
   159.27    50.02   196.96    -0.00     0.00     0.00   0.021  167
   160.24    50.02   195.94    -0.00    -0.00     0.00   0.020  168
   159.27    49.04   194.93    -0.00    -0.00     0.00   0.021  169
   160.24    49.04   194.93    -0.00    -0.00     0.00   0.020  170
   159.27    51.00   195.94    -0.00    -0.00     0.00   0.021  171
   158.29    49.04   194.93    -0.00    -0.00     0.00   0.020  172
   159.27    50.02   195.94    -0.00    -0.00     0.00   0.021  173
   160.24    49.04   195.94    -0.00     0.00     0.00   0.020  174
   159.27    49.04   193.91    -0.00     0.00     0.00   0.021  175
   158.29    50.02   195.94    -0.00     0.00     0.00   0.020  176
   160.24    49.04   195.94    -0.00    -0.00     0.00   0.021  177
   159.27    49.04   195.94    -0.00     0.00     0.00   0.020  178
   160.24    49.04   194.93    -0.00    -0.00     0.00   0.021  179
   160.24    50.02   195.94    -0.01     0.00     0.00   0.020  180
   159.27    50.02   194.93    -0.00    -0.00     0.00   0.021  181
   160.24    50.02   195.94    -0.00     0.00     0.00   0.020  182
   158.29    49.04   195.94    -0.00     0.00     0.00   0.021  183
   159.27    51.00   194.93    -0.00     0.00     0.00   0.020  184
   159.27    50.02   195.94    -0.00     0.00     0.00   0.021  185
   159.27    49.04   196.96    -0.01    -0.00     0.00   0.020  186
   159.27    49.04   195.94    -0.00     0.00     0.00   0.021  187
   158.29    50.02   195.94    -0.00     0.00     0.00   0.020  188
   159.27    50.02   195.94    -0.00    -0.00     0.00   0.021  189
   158.29    50.02   195.94    -0.00     0.00     0.00   0.020  190
   157.31    49.04   196.96    -0.00    -0.00    -0.00   0.020  191
   160.24    48.06   195.94    -0.00    -0.00     0.00   0.021  192
   159.27    50.02   195.94    -0.00    -0.00     0.00   0.020  193
   159.27    49.04   196.96    -0.01     0.00     0.00   0.021  194
   159.27    49.04   196.96    -0.00    -0.00     0.00   0.020  195
   159.27    49.04   195.94    -0.00    -0.00     0.00   0.021  196
   158.29    49.04   194.93    -0.00    -0.00     0.00   0.020  197
   159.27    49.04   195.94    -0.00    -0.00     0.00   0.021  198
   158.29    50.02   195.94    -0.00    -0.00     0.00   0.020  199
   158.29    49.04   194.93    -0.00    -0.00     0.00   0.021  200
   159.27    50.02   194.93    -0.00    -0.00     0.00   0.020  201
   159.27    50.02   194.93    -0.00     0.00     0.00   0.021  202
   160.24    50.02   195.94    -0.00     0.00     0.00   0.020  203
   159.27    49.04   195.94    -0.00    -0.00     0.00   0.021  204
   160.24    50.02   196.96    -0.00     0.00    -0.00   0.020  205
   159.27    50.02   195.94    -0.00    -0.00     0.00   0.021  206
   159.27    50.02   196.96    -0.00    -0.00     0.00   0.020  207
   159.27    50.02   196.96    -0.00    -0.00     0.00   0.021  208
   159.27    50.02   195.94    -0.00     0.00     0.00   0.020  209
   159.27    49.04   194.93    -0.01     0.00     0.00   0.021  210
   160.24    49.04   195.94    -0.00     0.00     0.00   0.020  211
   159.27    49.04   195.94    -0.00    -0.00     0.00   0.021  212
   159.27    49.04   195.94    -0.00    -0.00     0.00   0.020  213
   159.27    49.04   194.93    -0.00     0.00     0.00   0.021  214
   159.27    49.04   194.93    -0.01    -0.00     0.00   0.020  215
   160.24    49.04   195.94    -0.00     0.00     0.00   0.020  216
   160.24    50.02   195.94    -0.00    -0.00     0.00   0.021  217
   159.27    49.04   194.93    -0.00    -0.00     0.00   0.020  218
   160.24    50.02   195.94    -0.00    -0.00     0.00   0.021  219
   159.27    49.04   194.93    -0.00    -0.00     0.00   0.020  220
   159.27    50.02   195.94    -0.00    -0.00     0.00   0.021  221
   159.27    50.02   194.93    -0.01    -0.00     0.00   0.020  222
   159.27    49.04   195.94    -0.00     0.00     0.00   0.021  223
   159.27    49.04   195.94    -0.00    -0.00     0.00   0.020  224
   159.27    50.02   195.94    -0.00    -0.00     0.00   0.021  225
   159.27    50.02   196.96    -0.00    -0.00     0.00   0.020  226
   159.27    49.04   195.94    -0.00     0.00     0.00   0.021  227
   160.24    49.04   196.96    -0.01     0.00     0.00   0.020  228
   159.27    50.02   195.94    -0.00    -0.00     0.00   0.021  229
   159.27    49.04   196.96    -0.00     0.00     0.00   0.020  230
   159.27    50.02   194.93    -0.00    -0.00     0.00   0.021  231
   160.24    50.02   196.96    -0.00    -0.00     0.00   0.020  232
   160.24    50.02   195.94    -0.00    -0.00     0.00   0.021  233
   160.24    49.04   196.96    -0.00     0.00     0.00   0.020  234
   158.29    50.02   194.93    -0.00    -0.00     0.00   0.021  235
   159.27    50.02   194.93    -0.00     0.00     0.00   0.020  236
   160.24    51.00   196.96    -0.00    -0.00     0.00   0.021  237
   158.29    49.04   195.94    -0.00     0.00     0.00   0.020  238
   158.29    50.02   195.94    -0.00    -0.00     0.00   0.021  239
   161.22    50.02   195.94    -0.00    -0.00     0.00   0.020  240
   159.27    49.04   195.94    -0.00    -0.00     0.00   0.020  241
   158.29    49.04   194.93    -0.00    -0.00     0.00   0.021  242
   160.24    49.04   196.96    -0.00     0.00     0.00   0.020  243
   160.24    50.02   194.93    -0.00     0.00     0.00   0.021  244
   159.27    49.04   194.93    -0.00    -0.00     0.00   0.020  245
   159.27    49.04   196.96    -0.00    -0.00     0.00   0.021  246
   159.27    49.04   195.94    -0.00     0.00     0.00   0.020  247
   159.27    49.04   195.94    -0.00    -0.00    -0.00   0.021  248
   159.27    50.02   196.96    -0.00    -0.00     0.00   0.020  249
   161.22    50.02   195.94    -0.00     0.00     0.00   0.021  250
   158.29    49.04   195.94    -0.00    -0.00     0.00   0.020  251
   160.24    49.04   194.93    -0.00    -0.00     0.00   0.021  252
   159.27    51.00   196.96    -0.00    -0.00     0.00   0.020  253
   159.27    49.04   195.94    -0.00    -0.00     0.00   0.021  254
   158.29    49.04   196.96    -0.00     0.00     0.00   0.020  255
   159.27    50.02   196.96    -0.00    -0.00     0.00   0.021    0
   158.29    50.02   199.00    -0.00    -0.00    -0.00   0.020    1
   159.27    49.04   195.94    -0.00     0.00     0.00   0.021    2
   160.24    49.04   195.94    -0.00     0.00     0.00   0.020    3
   159.27    50.02   195.94    -0.00    -0.00     0.00   0.021    4
   159.27    49.04   196.96    -0.00    -0.00     0.00   0.020    5
   160.24    49.04   194.93    -0.00     0.00     0.00   0.021    6
   158.29    50.02   195.94    -0.00     0.00     0.00   0.020    7
   160.24    49.04   196.96    -0.00    -0.00     0.00   0.021    8
   158.29    50.02   196.96    -0.00    -0.00     0.00   0.020    9
   159.27    50.02   195.94    -0.00    -0.00     0.00   0.020   10
   160.24    49.04   196.96    -0.01    -0.00     0.00   0.021   11
   159.27    49.04   195.94    -0.00    -0.00    -0.00   0.020   12
   159.27    50.02   195.94    -0.00    -0.00     0.00   0.021   13
   159.27    50.02   195.94    -0.01     0.00     0.00   0.020   14
   158.29    50.02   195.94    -0.00    -0.00     0.00   0.021   15
   159.27    50.02   196.96    -0.00    -0.00     0.00   0.020   16
   159.27    50.02   194.93    -0.00    -0.00     0.00   0.021   17
   159.27    49.04   194.93    -0.00    -0.00     0.00   0.020   18
   159.27    49.04   195.94    -0.00     0.00     0.00   0.021   19
   158.29    50.02   196.96    -0.00    -0.00     0.00   0.020   20
   159.27    50.02   195.94    -0.00    -0.00     0.00   0.021   21
   159.27    50.02   196.96    -0.00    -0.00     0.00   0.020   22
   159.27    49.04   195.94    -0.00    -0.00     0.00   0.021   23
   159.27    49.04   195.94    -0.00     0.00     0.00   0.020   24
   158.29    50.02   196.96    -0.00    -0.00     0.00   0.021   25
   158.29    50.02   196.96    -0.00     0.00     0.00   0.020   26
   158.29    50.02   195.94    -0.00    -0.00     0.00   0.021   27
   160.24    50.02   196.96    -0.00    -0.00     0.00   0.020   28
   159.27    50.02   195.94    -0.00    -0.00     0.00   0.021   29
   159.27    50.02   193.91    -0.00     0.00     0.00   0.020   30
   159.27    50.02   195.94    -0.00    -0.00     0.00   0.021   31
   158.29    50.02   195.94    -0.00    -0.00     0.00   0.020   32
   158.29    49.04   195.94    -0.00    -0.00     0.00   0.021   33
   159.27    50.02   197.98    -0.00     0.00     0.00   0.020   34
   158.29    50.02   195.94    -0.00     0.00     0.00   0.020   35
   158.29    49.04   194.93    -0.00    -0.00     0.00   0.021   36
   159.27    51.98   196.96    -0.00    -0.00     0.00   0.020   37
   159.27    50.02   195.94    -0.00    -0.00     0.00   0.021   38
   158.29    48.06   196.96    -0.00    -0.00     0.00   0.020   39
   159.27    49.04   196.96    -0.01    -0.00     0.00   0.021   40
   159.27    50.02   194.93    -0.00    -0.00     0.00   0.020   41
   158.29    49.04   195.94    -0.01    -0.00     0.00   0.021   42
   159.27    49.04   195.94    -0.00     0.00     0.00   0.020   43
   158.29    50.02   195.94    -0.00    -0.00     0.00   0.021   44
   159.27    49.04   195.94    -0.00    -0.00     0.00   0.020   45
   159.27    49.04   195.94    -0.00    -0.00     0.00   0.021   46
   160.24    50.02   194.93    -0.00    -0.00     0.00   0.020   47
   159.27    49.04   195.94    -0.00     0.00     0.00   0.021   48
   159.27    50.02   196.96    -0.00    -0.00     0.00   0.020   49
   159.27    49.04   195.94    -0.00    -0.00     0.00   0.021   50
   159.27    50.02   195.94    -0.00    -0.00     0.00   0.020   51
   159.27    49.04   196.96    -0.00    -0.00     0.00   0.021   52
   159.27    48.06   195.94    -0.00     0.00     0.00   0.020   53
   160.24    49.04   193.91    -0.00    -0.00     0.00   0.021   54
   159.27    49.04   196.96    -0.01    -0.00     0.00   0.020   55
   158.29    49.04   195.94    -0.01     0.00     0.00   0.021   56
   159.27    49.04   195.94    -0.00     0.00     0.00   0.020   57
   159.27    49.04   195.94    -0.00    -0.00     0.00   0.021   58
   159.27    50.02   195.94    -0.00    -0.00     0.00   0.020   59
   159.27    49.04   194.93    -0.00    -0.00     0.00   0.020   60
   159.27    49.04   195.94    -0.00    -0.00     0.00   0.021   61
   159.27    49.04   195.94    -0.00    -0.00     0.00   0.020   62
   159.27    49.04   194.93    -0.00    -0.00     0.00   0.021   63
   159.27    49.04   196.96    -0.00    -0.00     0.00   0.020   64
   159.27    50.02   196.96    -0.00    -0.00     0.00   0.021   65
   160.24    49.04   195.94    -0.00    -0.00     0.00   0.020   66
   159.27    49.04   195.94    -0.00     0.00     0.00   0.021   67
   160.24    49.04   196.96    -0.00     0.00     0.00   0.020   68
   158.29    50.02   195.94    -0.00    -0.00     0.00   0.021   69
   157.31    50.02   195.94    -0.00    -0.00     0.00   0.020   70
   160.24    50.02   197.98    -0.00    -0.00     0.00   0.021   71
   159.27    50.02   196.96    -0.00    -0.00     0.00   0.020   72
   159.27    50.02   196.96    -0.01     0.00     0.00   0.021   73
   160.24    50.02   195.94    -0.00     0.00     0.00   0.020   74
   159.27    49.04   195.94    -0.01    -0.00     0.00   0.021   75
   159.27    49.04   196.96    -0.00    -0.00     0.00   0.020   76
   159.27    49.04   195.94    -0.00     0.00     0.00   0.021   77
   159.27    48.06   195.94    -0.00    -0.00     0.00   0.020   78
   158.29    50.02   196.96    -0.00     0.00     0.00   0.021   79
   160.24    50.02   195.94    -0.01     0.00     0.00   0.020   80
   157.31    50.02   195.94    -0.00    -0.00     0.00   0.021   81
   159.27    50.02   195.94    -0.00    -0.00     0.00   0.020   82
   160.24    50.02   195.94    -0.01     0.00     0.00   0.021   83
   159.27    50.02   195.94    -0.00    -0.00     0.00   0.020   84
   158.29    49.04   195.94    -0.01    -0.00     0.00   0.020   85
   160.24    51.00   196.96    -0.01    -0.00     0.00   0.021   86
   159.27    49.04   194.93    -0.00    -0.00     0.00   0.020   87
   160.24    49.04   195.94    -0.00    -0.00     0.00   0.021   88
   159.27    49.04   195.94    -0.00    -0.00     0.00   0.020   89
   159.27    50.02   196.96    -0.00    -0.00     0.00   0.021   90
   160.24    48.06   194.93    -0.00    -0.00     0.00   0.020   91
   161.22    50.02   194.93    -0.00    -0.00     0.00   0.021   92
   158.29    48.06   194.93    -0.00     0.00     0.00   0.020   93
   158.29    48.06   196.96    -0.00    -0.00     0.00   0.021   94
   160.24    50.02   195.94    -0.00    -0.00    -0.00   0.020   95
   159.27    50.02   195.94    -0.00     0.00     0.00   0.021   96
   158.29    49.04   195.94    -0.01     0.00     0.00   0.020   97
   159.27    50.02   196.96    -0.00    -0.00     0.00   0.021   98
   158.29    49.04   195.94    -0.00     0.00     0.00   0.020   99
   159.27    49.04   196.96    -0.00    -0.00     0.00   0.021  100
   158.29    49.04   194.93    -0.00    -0.00     0.00   0.020  101
   159.27    49.04   195.94    -0.01    -0.00     0.00   0.021  102
   159.27    50.02   196.96    -0.00    -0.00     0.00   0.020  103
   160.24    49.04   196.96    -0.00    -0.00     0.00   0.021  104
   159.27    49.04   197.98    -0.00    -0.00     0.00   0.020  105
   159.27    49.04   194.93    -0.00     0.00     0.00   0.021  106
   158.29    50.02   196.96    -0.00    -0.00     0.00   0.020  107
   158.29    49.04   195.94    -0.00     0.00     0.00   0.021  108
   158.29    49.04   196.96    -0.00    -0.00     0.00   0.020  109
   159.27    49.04   195.94    -0.00     0.00     0.00   0.020  110
   158.29    48.06   195.94    -0.00     0.00     0.00   0.021  111
   159.27    50.02   195.94    -0.00    -0.00     0.00   0.020  112
   159.27    50.02   196.96    -0.00    -0.00     0.00   0.021  113
   159.27    49.04   194.93    -0.00     0.00     0.00   0.020  114
   158.29    49.04   194.93    -0.00     0.00     0.00   0.021  115
   160.24    51.00   197.98    -0.00    -0.00     0.00   0.020  116
   160.24    49.04   194.93    -0.00     0.00     0.00   0.021  117
   157.31    48.06   193.91    -0.00     0.00     0.00   0.020  118
   159.27    49.04   195.94    -0.01    -0.00     0.00   0.021  119
   160.24    48.06   195.94    -0.00     0.00     0.00   0.020  120
   158.29    49.04   194.93    -0.00     0.00     0.00   0.021  121
   159.27    49.04   196.96    -0.00     0.00     0.00   0.020  122
   160.24    50.02   195.94    -0.00    -0.00     0.00   0.021  123
   159.27    49.04   195.94    -0.00     0.00     0.00   0.020  124
   159.27    50.02   195.94    -0.00    -0.00     0.00   0.021  125
   159.27    49.04   196.96    -0.00    -0.00     0.00   0.020  126
   159.27    48.06   195.94    -0.00    -0.00     0.00   0.021  127
   158.29    49.04   197.98    -0.01    -0.00     0.00   0.020  128
   160.24    49.04   196.96    -0.01    -0.00     0.00   0.021  129
   158.29    50.02   196.96    -0.00    -0.00     0.00   0.020  130
   158.29    49.04   196.96    -0.00    -0.00    -0.00   0.021  131
   158.29    50.02   196.96    -0.00    -0.00     0.00   0.020  132
   159.27    49.04   196.96    -0.00    -0.00     0.00   0.021  133
   158.29    50.02   196.96    -0.00     0.00     0.00   0.020  134
   159.27    48.06   197.98    -0.00    -0.00     0.00   0.020  135
   159.27    49.04   195.94    -0.00    -0.00     0.00   0.021  136
   159.27    49.04   196.96    -0.00    -0.00     0.00   0.020  137
   160.24    48.06   195.94    -0.00     0.00     0.00   0.021  138
   160.24    48.06   195.94    -0.00     0.00     0.00   0.020  139
   158.29    50.02   195.94    -0.00    -0.00     0.00   0.021  140
   159.27    51.00   196.96    -0.00     0.00     0.00   0.020  141
   159.27    50.02   194.93    -0.00     0.00     0.00   0.021  142
   158.29    49.04   196.96    -0.00     0.00     0.00   0.020  143
   159.27    50.02   195.94    -0.01     0.00     0.00   0.021  144
   159.27    48.06   195.94    -0.00    -0.00     0.00   0.020  145
   160.24    48.06   195.94    -0.00    -0.00     0.00   0.021  146
   159.27    50.02   195.94    -0.00    -0.00     0.00   0.020  147
   159.27    48.06   194.93    -0.01    -0.00     0.00   0.021  148
   158.29    49.04   195.94    -0.00     0.00     0.00   0.020  149
   159.27    50.02   195.94    -0.00    -0.00    -0.00   0.021  150
   159.27    49.04   195.94    -0.00    -0.00     0.00   0.020  151
   159.27    49.04   195.94    -0.00    -0.00     0.00   0.021  152
   160.24    49.04   196.96    -0.00    -0.00    -0.00   0.020  153
   159.27    49.04   195.94    -0.00    -0.00     0.00   0.021  154
   159.27    48.06   194.93    -0.00    -0.00     0.00   0.020  155
   159.27    50.02   197.98    -0.00    -0.00     0.00   0.021  156
   159.27    49.04   195.94    -0.00    -0.00     0.00   0.020  157
   158.29    49.04   194.93    -0.00     0.00     0.00   0.021  158
   159.27    49.04   195.94    -0.00    -0.00     0.00   0.020  159
   159.27    50.02   195.94    -0.00    -0.00     0.00   0.020  160
   159.27    49.04   195.94    -0.00     0.00     0.00   0.021  161
   158.29    50.02   197.98    -0.00    -0.00     0.00   0.020  162
   159.27    50.02   194.93    -0.00    -0.00     0.00   0.021  163
   158.29    49.04   195.94    -0.00    -0.00     0.00   0.020  164
   159.27    49.04   195.94    -0.00     0.00     0.00   0.021  165
   159.27    49.04   194.93    -0.00     0.00     0.00   0.020  166
   159.27    48.06   194.93    -0.00    -0.00     0.00   0.021  167
   159.27    50.02   196.96    -0.00    -0.00     0.00   0.020  168
   159.27    51.00   197.98    -0.00    -0.00     0.00   0.021  169
   159.27    49.04   195.94    -0.00    -0.00     0.00   0.020  170
   159.27    49.04   196.96    -0.00    -0.00     0.00   0.021  171
   160.24    49.04   195.94    -0.00    -0.00     0.00   0.020  172
   158.29    49.04   195.94    -0.00    -0.00    -0.00   0.021  173
   158.29    49.04   195.94    -0.00    -0.00     0.00   0.020  174
   159.27    49.04   195.94    -0.00     0.00     0.00   0.021  175
   159.27    50.02   196.96    -0.00    -0.00     0.00   0.020  176
   159.27    50.02   194.93    -0.00    -0.00     0.00   0.021  177
   158.29    49.04   194.93    -0.00    -0.00     0.00   0.020  178
   159.27    50.02   196.96    -0.00     0.00     0.00   0.021  179
   158.29    49.04   196.96    -0.00     0.00     0.00   0.020  180
   159.27    49.04   195.94    -0.00    -0.00     0.00   0.021  181
   159.27    50.02   197.98    -0.00    -0.00     0.00   0.020  182
   159.27    49.04   195.94    -0.00    -0.00     0.00   0.021  183
   159.27    49.04   195.94    -0.00    -0.00     0.00   0.020  184
   159.27    50.02   195.94    -0.00    -0.00     0.00   0.020  185
   159.27    50.02   194.93    -0.00    -0.00     0.00   0.021  186
   158.29    50.02   195.94    -0.00     0.00     0.00   0.020  187
   160.24    50.02   195.94    -0.00    -0.00     0.00   0.021  188
   158.29    49.04   195.94    -0.00    -0.00     0.00   0.020  189
   158.29    49.04   194.93    -0.00    -0.00     0.00   0.021  190
   159.27    50.02   195.94    -0.00    -0.00     0.00   0.020  191
   158.29    50.02   195.94    -0.00    -0.00     0.00   0.021  192
   158.29    49.04   195.94    -0.01     0.00     0.00   0.020  193
   159.27    49.04   196.96    -0.00     0.00     0.00   0.021  194
   159.27    49.04   195.94    -0.00     0.00     0.00   0.020  195
   157.31    50.02   194.93    -0.00    -0.00     0.00   0.021  196
   160.24    49.04   196.96    -0.00     0.00     0.00   0.020  197
   159.27    49.04   196.96    -0.00     0.00     0.00   0.021  198
   159.27    49.04   196.96    -0.00    -0.00     0.00   0.020  199
   160.24    49.04   195.94    -0.00     0.00     0.00   0.021  200
   159.27    49.04   194.93    -0.00     0.00     0.00   0.020  201
   159.27    49.04   195.94    -0.00    -0.00     0.00   0.021  202
   159.27    50.02   195.94    -0.00    -0.00     0.00   0.020  203
   159.27    48.06   195.94    -0.00     0.00     0.00   0.021  204
   158.29    49.04   195.94    -0.00     0.00     0.00   0.020  205
   161.22    49.04   195.94    -0.00    -0.00     0.00   0.021  206
   159.27    50.02   196.96    -0.00    -0.00    -0.00   0.020  207
   159.27    49.04   196.96    -0.00     0.00     0.00   0.021  208
   159.27    49.04   195.94    -0.00    -0.00     0.00   0.020  209
   158.29    49.04   195.94    -0.00    -0.00     0.00   0.020  210
   159.27    49.04   197.98    -0.00     0.00     0.00   0.021  211
   159.27    50.02   195.94    -0.00    -0.00     0.00   0.020  212
   160.24    48.06   194.93    -0.00    -0.00     0.00   0.021  213
   158.29    49.04   196.96    -0.00     0.00     0.00   0.020  214
   159.27    50.02   195.94    -0.01    -0.00     0.00   0.021  215
   160.24    49.04   195.94    -0.00    -0.00     0.00   0.020  216
   159.27    48.06   194.93    -0.00    -0.00     0.00   0.021  217
   160.24    50.02   195.94    -0.01     0.00     0.00   0.020  218
   160.24    48.06   195.94    -0.00     0.00     0.00   0.021  219
   159.27    48.06   196.96    -0.01     0.00     0.00   0.020  220
   158.29    49.04   194.93    -0.00    -0.00     0.00   0.021  221
   158.29    50.02   194.93    -0.00    -0.00     0.00   0.020  222
   159.27    50.02   196.96    -0.00    -0.00     0.00   0.021  223
   159.27    49.04   196.96    -0.00    -0.00     0.00   0.020  224
   159.27    48.06   195.94    -0.00    -0.00     0.00   0.021  225
   159.27    48.06   196.96    -0.00    -0.00     0.00   0.020  226
   159.27    48.06   194.93    -0.00    -0.00     0.00   0.021  227
   159.27    48.06   195.94    -0.00    -0.00     0.00   0.020  228
   159.27    48.06   195.94    -0.00     0.00     0.00   0.021  229
   159.27    49.04   196.96    -0.00    -0.00     0.00   0.020  230
   158.29    50.02   195.94    -0.00     0.00     0.00   0.021  231
   160.24    50.02   196.96    -0.00     0.00     0.00   0.020  232
   159.27    49.04   196.96    -0.00    -0.00     0.00   0.021  233
   158.29    49.04   194.93    -0.00     0.00     0.00   0.020  234
   159.27    50.02   194.93    -0.00    -0.00     0.00   0.020  235
   159.27    50.02   195.94    -0.00     0.00     0.00   0.021  236
   159.27    49.04   195.94    -0.00     0.00     0.00   0.020  237
   159.27    49.04   195.94    -0.00     0.00     0.00   0.021  238
   158.29    49.04   196.96    -0.00    -0.00     0.00   0.020  239
   158.29    49.04   195.94    -0.00    -0.00     0.00   0.021  240
   158.29    49.04   196.96    -0.00     0.00     0.00   0.020  241
   158.29    49.04   195.94    -0.00    -0.00     0.00   0.021  242
   158.29    49.04   195.94    -0.00    -0.00     0.00   0.020  243
   160.24    49.04   195.94    -0.00    -0.00     0.00   0.021  244
   158.29    48.06   195.94    -0.01    -0.00     0.00   0.020  245
   160.24    49.04   196.96    -0.00    -0.00     0.00   0.021  246
   159.27    49.04   197.98    -0.00    -0.00     0.00   0.020  247
   158.29    49.04   195.94    -0.00     0.00     0.00   0.021  248
   158.29    49.04   195.94    -0.00     0.00     0.00   0.020  249
   159.27    50.02   196.96    -0.00     0.00     0.00   0.021  250
   160.24    49.04   196.96    -0.00     0.00     0.00   0.020  251
   159.27    49.04   196.96    -0.00    -0.00     0.00   0.021  252
   160.24    49.04   197.98    -0.00    -0.00     0.00   0.020  253
   158.29    50.02   195.94    -0.00     0.00     0.00   0.021  254
   158.29    49.04   196.96    -0.00     0.00     0.00   0.020  255
   159.27    49.04   195.94    -0.00     0.00     0.00   0.021    0
   158.29    49.04   196.96    -0.00    -0.00     0.00   0.020    1
   159.27    50.02   196.96    -0.00    -0.00     0.00   0.021    2
   159.27    49.04   195.94    -0.01     0.00     0.00   0.020    3
   157.31    50.02   195.94    -0.01    -0.00     0.00   0.020    4
   158.29    49.04   195.94    -0.00    -0.00     0.00   0.021    5
   160.24    49.04   195.94    -0.00    -0.00     0.00   0.020    6
   158.29    50.02   195.94    -0.00    -0.00     0.00   0.021    7
   159.27    48.06   195.94    -0.00    -0.00     0.00   0.020    8
   159.27    50.02   195.94    -0.00    -0.00     0.00   0.021    9
   159.27    48.06   195.94    -0.00     0.00     0.00   0.020   10
   159.27    50.02   196.96    -0.00    -0.00     0.00   0.021   11
   160.24    49.04   197.98    -0.00     0.00     0.00   0.020   12
   158.29    48.06   195.94    -0.00     0.00     0.00   0.021   13
   158.29    49.04   195.94    -0.00     0.00     0.00   0.020   14
   158.29    49.04   195.94    -0.01     0.00     0.00   0.021   15
   159.27    49.04   194.93    -0.01    -0.00     0.00   0.020   16
   159.27    49.04   195.94    -0.01    -0.00     0.00   0.021   17
   159.27    50.02   194.93    -0.00    -0.00     0.00   0.020   18
   158.29    49.04   194.93    -0.00     0.00     0.00   0.021   19
   160.24    48.06   195.94    -0.00    -0.00     0.00   0.020   20
   158.29    50.02   195.94    -0.00     0.00     0.00   0.021   21
   159.27    49.04   195.94    -0.00    -0.00     0.00   0.020   22
   158.29    49.04   196.96    -0.00    -0.00     0.00   0.021   23
   159.27    49.04   195.94    -0.00    -0.00     0.00   0.020   24
   160.24    48.06   195.94    -0.00    -0.00     0.00   0.021   25
   158.29    50.02   195.94    -0.00    -0.00     0.00   0.020   26
   158.29    50.02   196.96    -0.00    -0.00     0.00   0.021   27
   159.27    49.04   194.93    -0.00    -0.00     0.00   0.020   28
   159.27    50.02   195.94    -0.00    -0.00     0.00   0.020   29
   159.27    48.06   197.98    -0.00     0.00     0.00   0.021   30
   159.27    48.06   195.94    -0.00    -0.00     0.00   0.020   31
   159.27    48.06   197.98    -0.00    -0.00     0.00   0.021   32
   159.27    49.04   197.98    -0.00     0.00     0.00   0.020   33
   159.27    49.04   195.94    -0.00    -0.00     0.00   0.021   34
   158.29    49.04   194.93    -0.00    -0.00     0.00   0.020   35
   159.27    49.04   195.94    -0.01    -0.00     0.00   0.021   36
   159.27    49.04   195.94    -0.01     0.00     0.00   0.020   37
   159.27    49.04   197.98    -0.00    -0.00     0.00   0.021   38
   159.27    49.04   195.94    -0.00    -0.00     0.00   0.020   39
   158.29    49.04   194.93    -0.00    -0.00     0.00   0.021   40
   158.29    48.06   196.96    -0.00    -0.00     0.00   0.020   41
   159.27    49.04   197.98    -0.00     0.00     0.00   0.021   42
   158.29    50.02   195.94    -0.00    -0.00     0.00   0.020   43
   159.27    50.02   196.96    -0.00     0.00     0.00   0.021   44
   157.31    50.02   195.94    -0.00    -0.00     0.00   0.020   45
   158.29    49.04   195.94    -0.00    -0.00     0.00   0.021   46
   159.27    49.04   195.94    -0.00    -0.00     0.00   0.020   47
   159.27    50.02   195.94    -0.01     0.00     0.00   0.021   48
   159.27    49.04   195.94    -0.01    -0.00     0.00   0.020   49
   158.29    49.04   195.94    -0.01    -0.00     0.00   0.021   50
   158.29    49.04   196.96    -0.01     0.00     0.00   0.020   51
   157.31    49.04   195.94    -0.00    -0.00     0.00   0.021   52
   158.29    49.04   195.94    -0.00    -0.00     0.00   0.020   53
   160.24    48.06   195.94    -0.00    -0.00     0.00   0.020   54
   158.29    49.04   195.94    -0.00    -0.00     0.00   0.021   55
   159.27    49.04   195.94    -0.00    -0.00     0.00   0.020   56
   159.27    49.04   196.96    -0.00     0.00     0.00   0.021   57
   158.29    48.06   194.93    -0.00    -0.00    -0.00   0.020   58
   157.31    48.06   195.94    -0.00    -0.00     0.00   0.021   59
   159.27    49.04   195.94    -0.00    -0.00     0.00   0.020   60
   159.27    50.02   196.96    -0.00    -0.00     0.00   0.021   61
   158.29    49.04   195.94    -0.00    -0.00     0.00   0.020   62
   159.27    49.04   195.94    -0.00    -0.00     0.00   0.021   63
   160.24    49.04   197.98    -0.00    -0.00     0.00   0.020   64
   160.24    48.06   195.94    -0.00     0.00    -0.00   0.021   65
   159.27    48.06   196.96    -0.00    -0.00     0.00   0.020   66
   160.24    49.04   195.94    -0.00    -0.00     0.00   0.021   67
   159.27    48.06   194.93    -0.00    -0.00     0.00   0.020   68
   159.27    48.06   195.94    -0.01    -0.00     0.00   0.021   69
   160.24    48.06   196.96    -0.00     0.00     0.00   0.020   70
   158.29    49.04   195.94    -0.00    -0.00     0.00   0.021   71
   159.27    49.04   194.93    -0.00    -0.00     0.00   0.020   72
   159.27    49.04   195.94    -0.00    -0.00     0.00   0.021   73
   159.27    49.04   196.96    -0.00    -0.00     0.00   0.020   74
   159.27    49.04   195.94    -0.00     0.00     0.00   0.021   75
   158.29    50.02   195.94    -0.00     0.00     0.00   0.020   76
   159.27    48.06   195.94    -0.00    -0.00     0.00   0.021   77
   159.27    49.04   193.91    -0.00    -0.00     0.00   0.020   78
   159.27    50.02   196.96    -0.00    -0.00     0.00   0.020   79
   158.29    49.04   197.98    -0.01    -0.00     0.00   0.021   80
   159.27    49.04   196.96    -0.00    -0.00    -0.00   0.020   81
   159.27    49.04   194.93    -0.00    -0.00     0.00   0.021   82
   159.27    49.04   195.94    -0.00    -0.00     0.00   0.020   83
   158.29    50.02   194.93    -0.00     0.00     0.00   0.021   84
   158.29    51.00   196.96    -0.00    -0.00     0.00   0.020   85
   160.24    49.04   196.96    -0.00    -0.00     0.00   0.021   86
   160.24    49.04   197.98    -0.00    -0.00     0.00   0.020   87
   160.24    49.04   197.98    -0.00    -0.00     0.00   0.021   88
   158.29    49.04   195.94    -0.00    -0.00     0.00   0.020   89
   158.29    49.04   195.94    -0.00     0.00     0.00   0.021   90
   159.27    49.04   196.96    -0.00    -0.00     0.00   0.020   91
   159.27    49.04   195.94    -0.00    -0.00     0.00   0.021   92
   159.27    49.04   196.96    -0.00    -0.00     0.00   0.020   93
   158.29    49.04   196.96    -0.01    -0.00     0.00   0.021   94
   159.27    49.04   195.94    -0.00    -0.00     0.00   0.020   95
   159.27    48.06   196.96    -0.00    -0.00     0.00   0.021   96
   159.27    49.04   195.94    -0.00    -0.00     0.00   0.020   97
   158.29    49.04   195.94    -0.00    -0.00     0.00   0.021   98
   159.27    49.04   196.96    -0.00    -0.00     0.00   0.020   99
   159.27    51.00   195.94    -0.00    -0.00     0.00   0.021  100
   159.27    48.06   194.93    -0.00    -0.00     0.00   0.020  101
   160.24    48.06   196.96    -0.00    -0.00     0.00   0.021  102
   160.24    48.06   196.96    -0.00    -0.00     0.00   0.020  103
   158.29    49.04   195.94    -0.00    -0.00     0.00   0.020  104
   158.29    49.04   196.96    -0.00    -0.00     0.00   0.021  105
   160.24    49.04   196.96    -0.00     0.00     0.00   0.020  106
   160.24    49.04   196.96    -0.00    -0.00     0.00   0.021  107
   159.27    48.06   196.96    -0.01    -0.00     0.00   0.020  108
   159.27    49.04   195.94    -0.01     0.00     0.00   0.021  109
   158.29    48.06   194.93    -0.00     0.00     0.00   0.020  110
   158.29    49.04   195.94    -0.00    -0.00     0.00   0.021  111
   159.27    50.02   197.98    -0.00    -0.00     0.00   0.020  112
   159.27    49.04   196.96    -0.01    -0.00     0.00   0.021  113
   159.27    49.04   195.94    -0.01    -0.00     0.00   0.020  114
   159.27    50.02   196.96    -0.00     0.00     0.00   0.021  115
   160.24    49.04   195.94    -0.00    -0.00     0.00   0.020  116
   158.29    49.04   194.93    -0.00     0.00     0.00   0.021  117
   158.29    49.04   195.94    -0.00     0.00     0.00   0.020  118
   159.27    49.04   196.96    -0.00    -0.00     0.00   0.021  119
   159.27    48.06   196.96    -0.00    -0.00     0.00   0.020  120
   159.27    49.04   196.96    -0.00    -0.00     0.00   0.021  121
   159.27    49.04   195.94    -0.00    -0.00     0.00   0.020  122
   159.27    49.04   197.98    -0.00     0.00     0.00   0.021  123
   160.24    49.04   197.98    -0.00    -0.00     0.00   0.020  124
   158.29    49.04   197.98    -0.00    -0.00     0.00   0.021  125
   159.27    49.04   196.96    -0.00    -0.00     0.00   0.020  126
   159.27    50.02   196.96    -0.00    -0.00     0.00   0.021  127
   158.29    48.06   194.93    -0.00    -0.00     0.00   0.020  128
   158.29    49.04   196.96    -0.00    -0.00     0.00   0.020  129
   159.27    49.04   195.94    -0.00    -0.00     0.00   0.021  130
   159.27    49.04   194.93    -0.00    -0.00     0.00   0.020  131
   159.27    49.04   197.98    -0.00    -0.00     0.00   0.021  132
   159.27    50.02   196.96    -0.00     0.00     0.00   0.020  133
   158.29    47.08   196.96    -0.00     0.00     0.00   0.021  134
   159.27    49.04   196.96    -0.00    -0.00     0.00   0.020  135
   160.24    49.04   195.94    -0.00    -0.00     0.00   0.021  136
   158.29    49.04   194.93    -0.00    -0.00     0.00   0.020  137
   159.27    48.06   196.96    -0.00    -0.00     0.00   0.021  138
   160.24    49.04   196.96    -0.00    -0.00     0.00   0.020  139
   159.27    49.04   195.94    -0.00    -0.00     0.00   0.021  140
   159.27    49.04   196.96    -0.00     0.00     0.00   0.020  141
   159.27    49.04   196.96    -0.00    -0.00    -0.00   0.021  142
   157.31    49.04   195.94    -0.00    -0.00     0.00   0.020  143
   159.27    50.02   195.94    -0.00    -0.00     0.00   0.021  144
   158.29    50.02   196.96    -0.00    -0.00     0.00   0.020  145
   159.27    48.06   195.94    -0.00     0.00     0.00   0.021  146
   158.29    47.08   196.96    -0.00    -0.00     0.00   0.020  147
   159.27    48.06   196.96    -0.00    -0.00     0.00   0.021  148
   159.27    48.06   195.94    -0.00    -0.00     0.00   0.020  149
   159.27    48.06   195.94    -0.00    -0.00     0.00   0.021  150
   158.29    49.04   197.98    -0.00     0.00     0.00   0.020  151
   157.31    49.04   195.94    -0.00    -0.00     0.00   0.021  152
   159.27    48.06   194.93    -0.00    -0.00     0.00   0.020  153
   159.27    49.04   195.94    -0.01    -0.00     0.00   0.020  154
   158.29    50.02   195.94    -0.01     0.00     0.00   0.021  155
   158.29    48.06   196.96    -0.01    -0.00     0.00   0.020  156
   160.24    48.06   196.96    -0.01    -0.00     0.00   0.021  157
   159.27    50.02   195.94    -0.00    -0.00     0.00   0.020  158
   158.29    48.06   194.93    -0.01     0.00     0.00   0.021  159
   160.24    48.06   196.96    -0.01     0.00     0.00   0.020  160
   159.27    49.04   195.94    -0.00    -0.00     0.00   0.021  161
   159.27    48.06   196.96    -0.00    -0.00     0.00   0.020  162
   158.29    49.04   196.96    -0.00     0.00     0.00   0.021  163
   158.29    49.04   194.93    -0.00    -0.00     0.00   0.020  164
   159.27    49.04   196.96    -0.00    -0.00     0.00   0.021  165
   159.27    49.04   196.96    -0.00    -0.00     0.00   0.020  166
   159.27    49.04   195.94    -0.00    -0.00     0.00   0.021  167
   158.29    49.04   195.94    -0.00    -0.00     0.00   0.020  168
   159.27    49.04   196.96    -0.00    -0.00     0.00   0.021  169
   159.27    48.06   196.96    -0.00    -0.00     0.00   0.020  170
   159.27    48.06   196.96    -0.00     0.00     0.00   0.021  171
   158.29    48.06   196.96    -0.00     0.00     0.00   0.020  172
   159.27    50.02   197.98    -0.01     0.00     0.00   0.021  173
   159.27    49.04   196.96    -0.00     0.00     0.00   0.020  174
   158.29    49.04   195.94    -0.00    -0.00     0.00   0.021  175
   159.27    48.06   196.96    -0.00    -0.00     0.00   0.020  176
   158.29    49.04   196.96    -0.00     0.00     0.00   0.021  177
   158.29    49.04   195.94    -0.00    -0.00     0.00   0.020  178
   160.24    49.04   194.93    -0.00    -0.00     0.00   0.020  179
   159.27    50.02   197.98    -0.00     0.00     0.00   0.021  180
   159.27    49.04   196.96    -0.00     0.00     0.00   0.020  181
   160.24    49.04   197.98    -0.00    -0.00     0.00   0.021  182
   160.24    49.04   195.94    -0.00     0.00     0.00   0.020  183
   159.27    49.04   196.96    -0.00    -0.00     0.00   0.021  184
   159.27    49.04   195.94    -0.01     0.00     0.00   0.020  185
   159.27    48.06   195.94    -0.01     0.00     0.00   0.021  186
   158.29    48.06   197.98    -0.01    -0.00     0.00   0.020  187
   159.27    49.04   196.96    -0.00    -0.00     0.00   0.021  188
   158.29    49.04   196.96    -0.00    -0.00     0.00   0.020  189
   158.29    48.06   194.93    -0.00    -0.00     0.00   0.021  190
   159.27    49.04   196.96    -0.00    -0.00     0.00   0.020  191
   158.29    49.04   196.96    -0.00    -0.00     0.00   0.021  192
   158.29    50.02   196.96    -0.00    -0.00     0.00   0.020  193
   158.29    48.06   195.94    -0.00    -0.00     0.00   0.021  194
   159.27    49.04   197.98    -0.00    -0.00     0.00   0.020  195
   158.29    49.04   197.98    -0.00    -0.00     0.00   0.021  196
   158.29    49.04   196.96    -0.00     0.00     0.00   0.020  197
   159.27    49.04   194.93    -0.00     0.00     0.00   0.021  198
   158.29    50.02   195.94    -0.00     0.00     0.00   0.020  199
   158.29    49.04   195.94    -0.01    -0.00     0.00   0.021  200
   159.27    49.04   196.96    -0.00     0.00     0.00   0.020  201
   158.29    49.04   196.96    -0.00    -0.00     0.00   0.021  202
   158.29    49.04   196.96    -0.00    -0.00     0.00   0.020  203
   159.27    49.04   195.94    -0.00    -0.00     0.00   0.020  204
   158.29    48.06   195.94    -0.00     0.00     0.00   0.021  205
   159.27    48.06   196.96    -0.00     0.00     0.00   0.020  206
   159.27    48.06   197.98    -0.00     0.00     0.00   0.021  207
   157.31    49.04   195.94    -0.00    -0.00     0.00   0.020  208
   158.29    49.04   196.96    -0.01    -0.00     0.00   0.021  209
   159.27    48.06   195.94    -0.00    -0.00     0.00   0.020  210
   159.27    49.04   195.94    -0.00    -0.00     0.00   0.021  211
   158.29    49.04   195.94    -0.00    -0.00     0.00   0.020  212
   160.24    48.06   197.98    -0.00     0.00     0.00   0.021  213
   160.24    48.06   196.96    -0.01     0.00     0.00   0.020  214
   158.29    49.04   195.94    -0.00    -0.00     0.00   0.021  215
   160.24    49.04   196.96    -0.00    -0.00     0.00   0.020  216
   159.27    49.04   196.96    -0.01     0.00     0.00   0.021  217
   160.24    48.06   195.94    -0.00    -0.00     0.00   0.020  218
   159.27    49.04   197.98    -0.00     0.00     0.00   0.021  219
   158.29    49.04   196.96    -0.00     0.00     0.00   0.020  220
   159.27    48.06   196.96    -0.00    -0.00     0.00   0.021  221
   160.24    48.06   197.98    -0.00    -0.00     0.00   0.020  222
   158.29    49.04   195.94    -0.00     0.00     0.00   0.021  223
   158.29    48.06   194.93    -0.00    -0.00     0.00   0.020  224
   159.27    49.04   196.96    -0.00    -0.00     0.00   0.021  225
   158.29    47.08   195.94    -0.01    -0.00     0.00   0.020  226
   159.27    48.06   197.98    -0.00    -0.00     0.00   0.021  227
   159.27    49.04   196.96    -0.00     0.00    -0.00   0.020  228
   157.31    49.04   195.94    -0.00     0.00     0.00   0.020  229
   158.29    49.04   195.94    -0.01     0.00     0.00   0.021  230
   160.24    49.04   196.96    -0.00    -0.00     0.00   0.020  231
   158.29    49.04   195.94    -0.00    -0.00     0.00   0.021  232
   158.29    48.06   194.93    -0.00     0.00     0.00   0.020  233
   159.27    48.06   195.94    -0.00    -0.00     0.00   0.021  234
   159.27    49.04   197.98    -0.00     0.00     0.00   0.020  235
   158.29    48.06   195.94    -0.00    -0.00     0.00   0.021  236
   158.29    48.06   195.94    -0.00    -0.00     0.00   0.020  237
   160.24    49.04   194.93    -0.00    -0.00     0.00   0.021  238
   159.27    48.06   195.94    -0.00    -0.00     0.00   0.020  239
   158.29    48.06   195.94    -0.00    -0.00     0.00   0.021  240
   159.27    49.04   196.96    -0.00    -0.00     0.00   0.020  241
   158.29    48.06   196.96    -0.00     0.00     0.00   0.021  242
   159.27    49.04   195.94    -0.00    -0.00     0.00   0.020  243
   159.27    50.02   197.98    -0.00    -0.00     0.00   0.021  244
   158.29    49.04   195.94    -0.00     0.00     0.00   0.020  245
   158.29    48.06   195.94    -0.00     0.00     0.00   0.021  246
   160.24    49.04   196.96    -0.00    -0.00     0.00   0.020  247
   159.27    49.04   196.96    -0.00    -0.00     0.00   0.021  248
   158.29    48.06   196.96    -0.01    -0.00     0.00   0.020  249
   159.27    49.04   196.96    -0.00     0.00     0.00   0.021  250
   159.27    49.04   196.96    -0.00     0.00     0.00   0.020  251
   159.27    47.08   196.96    -0.00     0.00     0.00   0.021  252
   160.24    49.04   195.94    -0.00     0.00     0.00   0.020  253
   160.24    48.06   196.96    -0.00     0.00     0.00   0.020  254
   159.27    47.08   195.94    -0.00    -0.00     0.00   0.021  255
   158.29    49.04   196.96    -0.00     0.00     0.00   0.020    0
   159.27    49.04   195.94    -0.00     0.00     0.00   0.021    1
   158.29    47.08   195.94    -0.00    -0.00     0.00   0.020    2
   159.27    48.06   196.96    -0.00    -0.00     0.00   0.021    3
   159.27    49.04   196.96    -0.00    -0.00     0.00   0.020    4
   158.29    49.04   195.94    -0.00    -0.00     0.00   0.021    5
   159.27    49.04   196.96    -0.00     0.00     0.00   0.020    6
   160.24    48.06   196.96    -0.01    -0.00     0.00   0.021    7
   159.27    49.04   195.94    -0.00    -0.00     0.00   0.020    8
   159.27    49.04   196.96    -0.00    -0.00     0.00   0.021    9
   160.24    50.02   197.98    -0.00    -0.00     0.00   0.020   10
   159.27    49.04   195.94    -0.01    -0.00     0.00   0.021   11
   158.29    48.06   196.96    -0.00    -0.00     0.00   0.020   12
   159.27    49.04   196.96    -0.00    -0.00     0.00   0.021   13
   159.27    48.06   194.93    -0.00    -0.00     0.00   0.020   14
   158.29    47.08   196.96    -0.00    -0.00     0.00   0.021   15
   159.27    49.04   197.98    -0.00    -0.00     0.00   0.020   16
   159.27    49.04   195.94    -0.00    -0.00     0.00   0.021   17
   159.27    48.06   196.96    -0.00    -0.00     0.00   0.020   18
   159.27    49.04   197.98    -0.01    -0.00     0.00   0.021   19
   159.27    49.04   195.94    -0.01    -0.00     0.00   0.020   20
   159.27    47.08   194.93    -0.01    -0.00     0.00   0.021   21
   158.29    50.02   196.96    -0.01    -0.00     0.00   0.020   22
   157.31    49.04   196.96    -0.00    -0.00     0.00   0.020   23
   158.29    48.06   195.94    -0.00    -0.00     0.00   0.021   24
   159.27    48.06   194.93    -0.00    -0.00     0.00   0.020   25
   158.29    48.06   195.94    -0.00    -0.00     0.00   0.021   26
   160.24    49.04   196.96    -0.00    -0.00     0.00   0.020   27
   159.27    49.04   196.96    -0.00    -0.00     0.00   0.021   28
   157.31    49.04   194.93    -0.00     0.00     0.00   0.020   29
   159.27    48.06   196.96    -0.00    -0.00     0.00   0.021   30
   159.27    48.06   196.96    -0.00    -0.00    -0.00   0.020   31
   159.27    49.04   195.94    -0.00    -0.00    -0.00   0.021   32
   159.27    48.06   195.94    -0.00    -0.00     0.00   0.020   33
   159.27    48.06   196.96    -0.00    -0.00     0.00   0.021   34
   159.27    47.08   195.94    -0.00    -0.00     0.00   0.020   35
   159.27    49.04   196.96    -0.00     0.00     0.00   0.021   36
   158.29    49.04   196.96    -0.00     0.00     0.00   0.020   37
   159.27    48.06   195.94    -0.00    -0.00     0.00   0.021   38
   158.29    49.04   195.94    -0.00    -0.00     0.00   0.020   39
   159.27    49.04   196.96    -0.00    -0.00     0.00   0.021   40
   159.27    49.04   197.98    -0.00    -0.00     0.00   0.020   41
   158.29    49.04   196.96    -0.00    -0.00     0.00   0.021   42
   159.27    49.04   195.94    -0.00     0.00     0.00   0.020   43
   158.29    48.06   194.93    -0.00     0.00     0.00   0.021   44
   159.27    48.06   195.94    -0.00    -0.00     0.00   0.020   45
   158.29    49.04   195.94    -0.00    -0.00     0.00   0.021   46
   158.29    49.04   195.94    -0.00    -0.00     0.00   0.020   47
   160.24    49.04   197.98    -0.00    -0.00     0.00   0.020   48
   159.27    49.04   196.96    -0.00     0.00     0.00   0.021   49
   158.29    48.06   195.94    -0.00    -0.00     0.00   0.020   50
   158.29    49.04   195.94    -0.00     0.00     0.00   0.021   51
   159.27    49.04   195.94    -0.00    -0.00     0.00   0.020   52
   159.27    48.06   195.94    -0.00    -0.00     0.00   0.021   53
   160.24    48.06   196.96    -0.00    -0.00     0.00   0.020   54
   159.27    49.04   195.94    -0.00    -0.00     0.00   0.021   55
   159.27    48.06   195.94    -0.00     0.00     0.00   0.020   56
   159.27    49.04   196.96    -0.00    -0.00     0.00   0.021   57
   160.24    48.06   197.98    -0.01    -0.00     0.00   0.020   58
   158.29    49.04   195.94    -0.00     0.00     0.00   0.021   59
   159.27    48.06   196.96    -0.00    -0.00     0.00   0.020   60
   159.27    48.06   196.96    -0.00    -0.00     0.00   0.021   61
   157.31    49.04   196.96    -0.00    -0.00     0.00   0.020   62
   159.27    49.04   195.94    -0.00    -0.00     0.00   0.021   63
   159.27    49.04   196.96    -0.00    -0.00     0.00   0.020   64
   158.29    48.06   195.94    -0.01     0.00     0.00   0.021   65
   158.29    49.04   196.96    -0.00    -0.00     0.00   0.020   66
   158.29    49.04   195.94    -0.01     0.00     0.00   0.021   67
   159.27    48.06   195.94    -0.00     0.00     0.00   0.020   68
   159.27    48.06   196.96    -0.00    -0.00     0.00   0.021   69
   159.27    49.04   196.96    -0.00    -0.00     0.00   0.020   70
   159.27    48.06   195.94    -0.00    -0.00     0.00   0.021   71
   159.27    49.04   195.94    -0.00    -0.00     0.00   0.020   72
   159.27    49.04   196.96    -0.00    -0.00     0.00   0.020   73
   159.27    48.06   196.96    -0.00    -0.00     0.00   0.021   74
   158.29    48.06   197.98    -0.00     0.00     0.00   0.020   75
   159.27    49.04   196.96    -0.00    -0.00     0.00   0.021   76
   158.29    48.06   194.93    -0.00     0.00     0.00   0.020   77
   159.27    48.06   195.94    -0.00     0.00     0.00   0.021   78
   159.27    49.04   196.96    -0.00     0.00     0.00   0.020   79
   158.29    48.06   196.96    -0.00    -0.00     0.00   0.021   80
   158.29    49.04   196.96    -0.00    -0.00     0.00   0.020   81
   158.29    50.02   196.96    -0.00     0.00     0.00   0.021   82
   158.29    48.06   195.94    -0.00     0.00     0.00   0.020   83
   158.29    48.06   195.94    -0.00    -0.00     0.00   0.021   84
   159.27    49.04   196.96    -0.00    -0.00     0.00   0.020   85
   159.27    48.06   195.94    -0.01     0.00     0.00   0.021   86
   159.27    48.06   196.96    -0.00    -0.00     0.00   0.020   87
   158.29    49.04   195.94    -0.00    -0.00     0.00   0.021   88
   159.27    48.06   196.96    -0.00    -0.00     0.00   0.020   89
   158.29    49.04   196.96    -0.00    -0.00     0.00   0.021   90
   159.27    50.02   197.98    -0.00    -0.00     0.00   0.020   91
   159.27    48.06   195.94    -0.00    -0.00     0.00   0.021   92
   158.29    47.08   195.94    -0.00    -0.00     0.00   0.020   93
   159.27    48.06   197.98    -0.00     0.00     0.00   0.021   94
   160.24    48.06   196.96    -0.00    -0.00     0.00   0.020   95
   158.29    49.04   195.94    -0.00    -0.00     0.00   0.021   96
   158.29    49.04   195.94    -0.00    -0.00     0.00   0.020   97
   159.27    49.04   195.94    -0.00     0.00     0.00   0.020   98
   159.27    49.04   194.93    -0.00    -0.00     0.00   0.021   99
   158.29    49.04   195.94    -0.01    -0.00     0.00   0.020  100
   159.27    49.04   196.96    -0.00    -0.00     0.00   0.021  101
   158.29    49.04   195.94    -0.00    -0.00     0.00   0.020  102
   159.27    49.04   196.96    -0.00    -0.00     0.00   0.021  103
   159.27    49.04   197.98    -0.00    -0.00     0.00   0.020  104
   159.27    48.06   196.96    -0.01    -0.00     0.00   0.021  105
   158.29    49.04   197.98    -0.00    -0.00     0.00   0.020  106
   160.24    48.06   196.96    -0.00    -0.00     0.00   0.021  107
   159.27    48.06   196.96    -0.00    -0.00     0.00   0.020  108
   158.29    48.06   197.98    -0.00     0.00     0.00   0.021  109
   160.24    49.04   196.96    -0.01    -0.00     0.00   0.020  110
   158.29    50.02   196.96    -0.01    -0.00     0.00   0.021  111
   159.27    47.08   195.94    -0.01     0.00     0.00   0.020  112
   159.27    48.06   196.96    -0.00    -0.00     0.00   0.021  113
   159.27    49.04   195.94    -0.00    -0.00     0.00   0.020  114
   160.24    48.06   196.96    -0.00    -0.00     0.00   0.021  115
   159.27    48.06   197.98    -0.00    -0.00     0.00   0.020  116
   159.27    49.04   196.96    -0.00    -0.00     0.00   0.021  117
   158.29    49.04   196.96    -0.00    -0.00     0.00   0.020  118
   160.24    49.04   195.94    -0.00    -0.00     0.00   0.021  119
   159.27    49.04   196.96    -0.00     0.00     0.00   0.020  120
   159.27    48.06   195.94    -0.00     0.00     0.00   0.021  121
   158.29    50.02   195.94    -0.00    -0.00     0.00   0.020  122
   159.27    50.02   197.98    -0.00     0.00     0.00   0.020  123
   158.29    48.06   195.94    -0.00     0.00     0.00   0.021  124
   159.27    48.06   195.94    -0.00    -0.00     0.00   0.020  125
   160.24    49.04   197.98    -0.00    -0.00     0.00   0.021  126
   159.27    49.04   196.96    -0.00     0.00     0.00   0.020  127
   159.27    47.08   195.94    -0.00     0.00     0.00   0.021  128
   158.29    49.04   196.96    -0.00     0.00     0.00   0.020  129
