   159.27    37.27   199.00    -0.01     0.00    -0.00   0.021    0
   159.27    36.29   199.00    -0.01     0.00    -0.00   0.020    1
   159.27    37.27   200.02    -0.01     0.00    -0.00   0.021    2
   158.29    37.27   199.00    -0.01     0.00    -0.00   0.020    3
   159.27    38.25   199.00    -0.01     0.00    -0.00   0.021    4
   160.24    37.27   199.00    -0.01     0.00    -0.00   0.020    5
   159.27    36.29   199.00    -0.01     0.00    -0.00   0.021    6
   160.24    37.27   199.00    -0.01     0.00    -0.00   0.020    7
   159.27    36.29   197.98    -0.01     0.00    -0.00   0.021    8
   159.27    36.29   197.98    -0.01     0.00    -0.00   0.020    9
   160.24    36.29   200.02    -0.01     0.00    -0.00   0.021   10
   159.27    36.29   197.98    -0.01     0.00    -0.00   0.020   11
   160.24    38.25   199.00    -0.01     0.00    -0.00   0.021   12
   160.24    37.27   199.00    -0.01     0.00    -0.00   0.020   13
   160.24    38.25   199.00    -0.01     0.00     0.00   0.021   14
   160.24    38.25   199.00    -0.01     0.00    -0.00   0.020   15
   160.24    37.27   199.00    -0.01     0.00    -0.00   0.020   16
   161.22    37.27   199.00    -0.01     0.00    -0.00   0.021   17
   160.24    37.27   199.00    -0.01     0.00    -0.00   0.020   18
   161.22    38.25   197.98    -0.01     0.00    -0.00   0.021   19
   159.27    38.25   199.00    -0.01     0.00    -0.00   0.020   20
   160.24    37.27   199.00    -0.00     0.00    -0.00   0.021   21
   161.22    37.27   199.00    -0.01     0.00    -0.00   0.020   22
   160.24    37.27   197.98    -0.01     0.00    -0.00   0.021   23
   161.22    37.27   197.98    -0.01     0.00    -0.00   0.020   24
   162.20    35.31   197.98    -0.01     0.00    -0.00   0.021   25
   159.27    36.29   197.98    -0.01     0.00    -0.00   0.020   26
   159.27    37.27   199.00    -0.01     0.00    -0.00   0.021   27
   159.27    38.25   200.02    -0.01     0.00    -0.00   0.020   28
   160.24    37.27   197.98    -0.01     0.00    -0.00   0.021   29
   159.27    36.29   199.00    -0.01     0.00    -0.00   0.020   30
   159.27    38.25   200.02    -0.01     0.00    -0.00   0.021   31
   160.24    37.27   197.98    -0.01     0.00    -0.00   0.020   32
   159.27    37.27   199.00    -0.01     0.00    -0.00   0.021   33
   159.27    37.27   197.98    -0.01     0.00    -0.00   0.020   34
   159.27    36.29   199.00    -0.01     0.00    -0.00   0.021   35
   161.22    36.29   199.00    -0.01     0.00    -0.00   0.020   36
   159.27    36.29   197.98    -0.01     0.00     0.00   0.021   37
   160.24    39.23   201.03    -0.01     0.00     0.00   0.020   38
   161.22    37.27   196.96    -0.01     0.00    -0.00   0.021   39
   160.24    37.27   200.02    -0.01     0.00     0.00   0.020   40
   160.24    37.27   199.00    -0.01     0.00    -0.00   0.020   41
   160.24    35.31   199.00    -0.01     0.00    -0.00   0.021   42
   161.22    37.27   199.00    -0.01     0.00    -0.00   0.020   43
   160.24    36.29   197.98    -0.01     0.00    -0.00   0.021   44
   160.24    35.31   196.96    -0.01     0.00    -0.00   0.020   45
   159.27    37.27   199.00    -0.01     0.00    -0.00   0.021   46
   159.27    37.27   197.98    -0.01     0.00     0.00   0.020   47
   159.27    36.29   200.02    -0.01     0.00    -0.00   0.021   48
   161.22    37.27   199.00    -0.01     0.00    -0.00   0.020   49
   159.27    36.29   199.00    -0.01     0.00    -0.00   0.021   50
   161.22    37.27   200.02    -0.01     0.00     0.00   0.020   51
   159.27    37.27   196.96    -0.01     0.00    -0.00   0.021   52
   161.22    37.27   199.00    -0.01     0.00    -0.00   0.020   53
   159.27    36.29   197.98    -0.01     0.00    -0.00   0.021   54
   161.22    36.29   197.98    -0.01     0.00    -0.00   0.020   55
   159.27    36.29   197.98    -0.01     0.00    -0.00   0.021   56
   160.24    37.27   199.00    -0.01     0.00    -0.00   0.020   57
   160.24    38.25   197.98    -0.01     0.00     0.00   0.021   58
   160.24    36.29   200.02    -0.01     0.00    -0.00   0.020   59
   159.27    37.27   197.98    -0.01     0.00    -0.00   0.021   60
   158.29    37.27   197.98    -0.01     0.00    -0.00   0.020   61
   161.22    37.27   199.00    -0.01     0.00    -0.00   0.021   62
   159.27    37.27   197.98    -0.01     0.00     0.00   0.020   63
   160.24    38.25   197.98    -0.01     0.00    -0.00   0.021   64
   159.27    36.29   199.00    -0.01     0.00    -0.00   0.020   65
   160.24    37.27   199.00    -0.01     0.00    -0.00   0.020   66
   159.27    38.25   199.00    -0.01     0.00    -0.00   0.021   67
   160.24    37.27   199.00    -0.01     0.00    -0.00   0.020   68
   160.24    37.27   200.02    -0.01     0.00     0.00   0.021   69
   159.27    38.25   197.98    -0.01     0.00    -0.00   0.020   70
   159.27    37.27   200.02    -0.01     0.00     0.00   0.021   71
   160.24    36.29   197.98    -0.00     0.00    -0.00   0.020   72
   160.24    37.27   200.02    -0.01     0.00    -0.00   0.021   73
   160.24    37.27   199.00    -0.01     0.00    -0.00   0.020   74
   161.22    37.27   199.00    -0.01     0.00    -0.00   0.021   75
   159.27    37.27   199.00    -0.01     0.00    -0.00   0.020   76
   160.24    37.27   199.00    -0.01     0.00    -0.00   0.021   77
   161.22    37.27   199.00    -0.01     0.00    -0.00   0.020   78
   159.27    37.27   197.98    -0.01     0.00    -0.00   0.021   79
   160.24    37.27   199.00    -0.01     0.00    -0.00   0.020   80
   159.27    36.29   197.98    -0.01     0.00     0.00   0.021   81
   161.22    37.27   200.02    -0.01     0.00    -0.00   0.020   82
   159.27    38.25   197.98    -0.01     0.00    -0.00   0.021   83
   159.27    37.27   201.03    -0.01     0.00    -0.00   0.020   84
   159.27    36.29   196.96    -0.01     0.00    -0.00   0.021   85
   160.24    37.27   199.00    -0.01     0.00    -0.00   0.020   86
   160.24    38.25   199.00    -0.01     0.00    -0.00   0.021   87
   160.24    36.29   196.96    -0.01     0.00     0.00   0.020   88
   161.22    37.27   199.00    -0.01     0.00     0.00   0.021   89
   159.27    36.29   197.98    -0.01     0.00    -0.00   0.020   90
   160.24    37.27   199.00    -0.01     0.00    -0.00   0.020   91
   160.24    36.29   197.98    -0.01     0.00     0.00   0.021   92
   161.22    37.27   200.02    -0.01     0.00    -0.00   0.020   93
   161.22    36.29   199.00    -0.01     0.00    -0.00   0.021   94
   160.24    37.27   197.98    -0.01     0.00    -0.00   0.020   95
   159.27    36.29   199.00    -0.01     0.00    -0.00   0.021   96
   160.24    37.27   200.02    -0.01     0.00    -0.00   0.020   97
   158.29    37.27   199.00    -0.01     0.00    -0.00   0.021   98
   159.27    36.29   200.02    -0.01     0.00    -0.00   0.020   99
   160.24    37.27   199.00    -0.01     0.00    -0.00   0.021  100
   161.22    38.25   199.00    -0.01     0.00     0.00   0.020  101
   160.24    37.27   200.02    -0.01     0.00    -0.00   0.021  102
   159.27    36.29   199.00    -0.01     0.00    -0.00   0.020  103
   159.27    37.27   199.00    -0.01     0.00    -0.00   0.021  104
   159.27    37.27   197.98    -0.01     0.00     0.00   0.020  105
   159.27    38.25   199.00    -0.01     0.00    -0.00   0.021  106
   160.24    36.29   196.96    -0.01     0.00     0.00   0.020  107
   160.24    37.27   200.02    -0.01     0.00    -0.00   0.021  108
   158.29    37.27   197.98    -0.01     0.00     0.00   0.020  109
   161.22    37.27   199.00    -0.01     0.00     0.00   0.021  110
   160.24    37.27   199.00    -0.01     0.00     0.00   0.020  111
   160.24    37.27   200.02    -0.01     0.00    -0.00   0.021  112
   161.22    37.27   199.00    -0.01     0.00    -0.00   0.020  113
   160.24    37.27   197.98    -0.01     0.00    -0.00   0.021  114
   159.27    36.29   197.98    -0.01     0.00    -0.00   0.020  115
   160.24    37.27   199.00    -0.01     0.00    -0.00   0.020  116
   158.29    36.29   197.98    -0.01     0.00    -0.00   0.021  117
   159.27    37.27   199.00    -0.01     0.00    -0.00   0.020  118
   159.27    37.27   199.00    -0.01     0.00     0.00   0.021  119
   159.27    37.27   197.98    -0.01     0.00     0.00   0.020  120
   160.24    35.31   197.98    -0.01     0.00    -0.00   0.021  121
   160.24    37.27   199.00    -0.01     0.00     0.00   0.020  122
   160.24    37.27   199.00    -0.01     0.00     0.00   0.021  123
   158.29    37.27   199.00    -0.01     0.00    -0.00   0.020  124
   160.24    37.27   199.00    -0.01     0.00    -0.00   0.021  125
   159.27    37.27   197.98    -0.01     0.00    -0.00   0.020  126
   159.27    36.29   199.00    -0.01     0.00     0.00   0.021  127
   159.27    36.29   196.96    -0.01     0.00    -0.00   0.020  128
   160.24    38.25   200.02    -0.01     0.00    -0.00   0.021  129
   159.27    37.27   197.98    -0.01     0.00    -0.00   0.020  130
   160.24    37.27   200.02    -0.01     0.00    -0.00   0.021  131
   159.27    36.29   197.98    -0.01     0.00    -0.00   0.020  132
   160.24    36.29   197.98    -0.01     0.00    -0.00   0.021  133
   160.24    37.27   200.02    -0.01     0.00    -0.00   0.020  134
   159.27    36.29   199.00    -0.01     0.00    -0.00   0.021  135
   160.24    37.27   199.00    -0.01     0.00    -0.00   0.020  136
   160.24    35.31   199.00    -0.01     0.00    -0.00   0.021  137
   160.24    37.27   200.02    -0.01     0.00     0.00   0.020  138
   158.29    38.25   199.00    -0.01     0.00    -0.00   0.021  139
   160.24    37.27   199.00    -0.01     0.00    -0.00   0.020  140
   160.24    37.27   197.98    -0.01     0.00     0.00   0.020  141
   160.24    36.29   199.00    -0.01     0.00    -0.00   0.021  142
   159.27    36.29   197.98    -0.01     0.00    -0.00   0.020  143
   160.24    36.29   199.00    -0.01     0.00     0.00   0.021  144
   160.24    36.29   199.00    -0.01     0.00    -0.00   0.020  145
   160.24    36.29   199.00    -0.01     0.00    -0.00   0.021  146
   160.24    37.27   200.02    -0.01     0.00    -0.00   0.020  147
   160.24    37.27   199.00    -0.01     0.00     0.00   0.021  148
   160.24    36.29   200.02    -0.01     0.00    -0.00   0.020  149
   159.27    36.29   200.02    -0.01     0.00    -0.00   0.021  150
   159.27    37.27   200.02    -0.01     0.00    -0.00   0.020  151
   160.24    36.29   197.98    -0.01     0.00    -0.00   0.021  152
   159.27    37.27   199.00    -0.01     0.00    -0.00   0.020  153
   159.27    36.29   199.00    -0.01     0.00     0.00   0.021  154
   160.24    37.27   199.00    -0.01     0.00    -0.00   0.020  155
   159.27    37.27   199.00    -0.01     0.00    -0.00   0.021  156
   162.20    38.25   201.03    -0.01     0.00    -0.00   0.020  157
   160.24    39.23   199.00    -0.01     0.00    -0.00   0.021  158
   159.27    35.31   197.98    -0.01     0.00    -0.00   0.020  159
   160.24    36.29   197.98    -0.01     0.00    -0.00   0.021  160
   158.29    36.29   197.98    -0.01     0.00    -0.00   0.020  161
   160.24    36.29   199.00    -0.01     0.00    -0.00   0.021  162
   158.29    37.27   197.98    -0.01     0.00    -0.00   0.020  163
   160.24    39.23   200.02    -0.01     0.00     0.00   0.021  164
   159.27    37.27   197.98    -0.01     0.00    -0.00   0.020  165
   160.24    37.27   200.02    -0.01     0.00    -0.00   0.020  166
   161.22    37.27   199.00    -0.01     0.00    -0.00   0.021  167
   160.24    36.29   199.00    -0.01     0.00    -0.00   0.020  168
   159.27    36.29   196.96    -0.01     0.00    -0.00   0.021  169
   159.27    36.29   199.00    -0.01     0.00    -0.00   0.020  170
   159.27    36.29   199.00    -0.01     0.00    -0.00   0.021  171
   160.24    36.29   197.98    -0.01     0.00    -0.00   0.020  172
   159.27    37.27   199.00    -0.01     0.00    -0.00   0.021  173
   159.27    37.27   197.98    -0.01     0.00     0.00   0.020  174
   160.24    37.27   197.98    -0.01     0.00    -0.00   0.021  175
   160.24    36.29   199.00    -0.01     0.00     0.00   0.020  176
   161.22    37.27   199.00    -0.01     0.00    -0.00   0.021  177
   159.27    36.29   199.00    -0.01     0.00    -0.00   0.020  178
   159.27    37.27   200.02    -0.01     0.00     0.00   0.021  179
   159.27    36.29   199.00    -0.01     0.00    -0.00   0.020  180
   160.24    37.27   196.96    -0.01     0.00     0.00   0.021  181
   159.27    35.31   197.98    -0.01     0.00    -0.00   0.020  182
   162.20    36.29   199.00    -0.01     0.00    -0.00   0.021  183
   159.27    36.29   197.98    -0.01     0.00    -0.00   0.020  184
   160.24    37.27   200.02    -0.01     0.00    -0.00   0.021  185
   159.27    36.29   197.98    -0.01     0.00    -0.00   0.020  186
   159.27    37.27   197.98    -0.01     0.00    -0.00   0.021  187
   161.22    37.27   197.98    -0.01     0.00     0.00   0.020  188
   161.22    36.29   200.02    -0.01     0.00     0.00   0.021  189
   160.24    38.25   199.00    -0.01     0.00    -0.00   0.020  190
   159.27    36.29   196.96    -0.01     0.00    -0.00   0.020  191
   160.24    37.27   196.96    -0.01     0.00     0.00   0.021  192
   159.27    37.27   200.02    -0.01     0.00     0.00   0.020  193
   160.24    36.29   201.03    -0.01     0.00    -0.00   0.021  194
   160.24    35.31   199.00    -0.01     0.00    -0.00   0.020  195
   160.24    37.27   200.02    -0.01     0.00     0.00   0.021  196
   160.24    37.27   201.03    -0.01     0.00    -0.00   0.020  197
   158.29    37.27   199.00    -0.01     0.00    -0.00   0.021  198
   158.29    36.29   196.96    -0.01     0.00    -0.00   0.020  199
   159.27    37.27   199.00    -0.01     0.00    -0.00   0.021  200
   158.29    37.27   195.94    -0.01     0.00    -0.00   0.020  201
   160.24    36.29   199.00    -0.01     0.00    -0.00   0.021  202
   159.27    35.31   199.00    -0.00     0.00     0.00   0.020  203
   161.22    38.25   197.98    -0.01     0.00    -0.00   0.021  204
   159.27    37.27   199.00    -0.01     0.00    -0.00   0.020  205
   160.24    38.25   201.03    -0.01     0.00     0.00   0.021  206
   159.27    35.31   199.00    -0.01     0.00    -0.00   0.020  207
   159.27    37.27   201.03    -0.01     0.00    -0.00   0.021  208
   160.24    36.29   199.00    -0.01     0.00     0.00   0.020  209
   160.24    36.29   199.00    -0.01     0.00    -0.00   0.021  210
   159.27    35.31   197.98    -0.01     0.00    -0.00   0.020  211
   159.27    36.29   199.00    -0.01     0.00    -0.00   0.021  212
   158.29    36.29   197.98    -0.01     0.00    -0.00   0.020  213
   159.27    38.25   199.00    -0.01     0.00    -0.00   0.021  214
   158.29    38.25   199.00    -0.01     0.00    -0.00   0.020  215
   159.27    37.27   197.98    -0.01     0.00    -0.00   0.020  216
   160.24    37.27   199.00    -0.01     0.00    -0.00   0.021  217
   160.24    35.31   199.00    -0.01     0.00    -0.00   0.020  218
   160.24    37.27   197.98    -0.01     0.00    -0.00   0.021  219
   158.29    36.29   199.00    -0.01     0.00     0.00   0.020  220
   159.27    35.31   197.98    -0.01     0.00    -0.00   0.021  221
   160.24    36.29   199.00    -0.01     0.00    -0.00   0.020  222
   159.27    36.29   199.00    -0.01     0.00    -0.00   0.021  223
   159.27    36.29   197.98    -0.01     0.00    -0.00   0.020  224
   160.24    37.27   200.02    -0.01     0.00    -0.00   0.021  225
   158.29    37.27   197.98    -0.01     0.00    -0.00   0.020  226
   160.24    36.29   199.00    -0.01     0.00    -0.00   0.021  227
   161.22    37.27   200.02    -0.01     0.00     0.00   0.020  228
   159.27    35.31   199.00    -0.01     0.00    -0.00   0.021  229
   159.27    36.29   197.98    -0.01     0.00    -0.00   0.020  230
   158.29    36.29   199.00    -0.01     0.00    -0.00   0.021  231
   160.24    37.27   201.03    -0.01     0.00    -0.00   0.020  232
   160.24    36.29   197.98    -0.01     0.00    -0.00   0.021  233
   160.24    37.27   197.98    -0.01     0.00    -0.00   0.020  234
   160.24    37.27   197.98    -0.01     0.00    -0.00   0.021  235
   160.24    36.29   197.98    -0.01     0.00     0.00   0.020  236
   160.24    37.27   199.00    -0.01     0.00    -0.00   0.021  237
   159.27    36.29   197.98    -0.01     0.00     0.00   0.020  238
   160.24    37.27   199.00    -0.01     0.00    -0.00   0.021  239
   159.27    37.27   199.00    -0.01     0.00    -0.00   0.020  240
   160.24    38.25   200.02    -0.01     0.00    -0.00   0.020  241
   160.24    37.27   199.00    -0.01     0.00    -0.00   0.021  242
   160.24    37.27   199.00    -0.01     0.00    -0.00   0.020  243
   160.24    36.29   197.98    -0.01     0.00    -0.00   0.021  244
   160.24    35.31   200.02    -0.01     0.00    -0.00   0.020  245
   159.27    37.27   199.00    -0.01     0.00    -0.00   0.021  246
   158.29    37.27   197.98    -0.01     0.00    -0.00   0.020  247
   159.27    36.29   199.00    -0.01     0.00    -0.00   0.021  248
   159.27    37.27   199.00    -0.01     0.00    -0.00   0.020  249
   159.27    37.27   199.00    -0.01     0.00    -0.00   0.021  250
   159.27    36.29   199.00    -0.01     0.00     0.00   0.020  251
   160.24    36.29   199.00    -0.01     0.00    -0.00   0.021  252
   159.27    37.27   197.98    -0.01     0.00     0.00   0.020  253
   159.27    36.29   199.00    -0.01     0.00    -0.00   0.021  254
   159.27    35.31   199.00    -0.01     0.00    -0.00   0.020  255
   159.27    37.27   199.00    -0.01     0.00    -0.00   0.021    0
   158.29    36.29   196.96    -0.01     0.00    -0.00   0.020    1
   161.22    37.27   200.02    -0.01     0.00    -0.00   0.021    2
   159.27    38.25   199.00    -0.01     0.00    -0.00   0.020    3
   160.24    36.29   200.02    -0.01     0.00    -0.00   0.021    4
   161.22    36.29   200.02    -0.01     0.00    -0.00   0.020    5
   159.27    36.29   197.98    -0.01     0.00    -0.00   0.021    6
   159.27    37.27   199.00    -0.01     0.00    -0.00   0.020    7
   159.27    36.29   197.98    -0.01     0.00    -0.00   0.021    8
   158.29    36.29   197.98    -0.01     0.00    -0.00   0.020    9
   159.27    36.29   196.96    -0.01     0.00     0.00   0.020   10
   161.22    37.27   200.02    -0.01     0.00    -0.00   0.021   11
   159.27    36.29   200.02    -0.01     0.00    -0.00   0.020   12
   160.24    37.27   202.05    -0.01     0.00    -0.00   0.021   13
   160.24    37.27   199.00    -0.01     0.00     0.00   0.020   14
   159.27    37.27   199.00    -0.01     0.00    -0.00   0.021   15
   159.27    36.29   199.00    -0.01     0.00     0.00   0.020   16
   159.27    35.31   199.00    -0.01     0.00    -0.00   0.021   17
   160.24    37.27   196.96    -0.01     0.00    -0.00   0.020   18
   159.27    36.29   197.98    -0.01     0.00    -0.00   0.021   19
   159.27    36.29   199.00    -0.01     0.00    -0.00   0.020   20
   159.27    36.29   197.98    -0.01     0.00    -0.00   0.021   21
   160.24    36.29   200.02    -0.01     0.00    -0.00   0.020   22
   160.24    37.27   199.00    -0.01     0.00     0.00   0.021   23
   160.24    37.27   200.02    -0.01     0.00    -0.00   0.020   24
   159.27    35.31   199.00    -0.01     0.00     0.00   0.021   25
   160.24    37.27   199.00    -0.01     0.00    -0.00   0.020   26
   158.29    37.27   196.96    -0.01     0.00    -0.00   0.021   27
   160.24    37.27   199.00    -0.01     0.00     0.00   0.020   28
   159.27    36.29   197.98    -0.01     0.00     0.00   0.021   29
   160.24    36.29   199.00    -0.01     0.00    -0.00   0.020   30
   159.27    36.29   199.00    -0.01     0.00    -0.00   0.021   31
   159.27    37.27   199.00    -0.01     0.00    -0.00   0.020   32
   159.27    36.29   199.00    -0.01     0.00    -0.00   0.021   33
   160.24    36.29   197.98    -0.01     0.00    -0.00   0.020   34
   160.24    37.27   197.98    -0.01     0.00    -0.00   0.020   35
   159.27    36.29   199.00    -0.00     0.00    -0.00   0.021   36
   161.22    35.31   197.98    -0.01     0.00    -0.00   0.020   37
   158.29    37.27   197.98    -0.01     0.00     0.00   0.021   38
   161.22    38.25   200.02    -0.01     0.00     0.00   0.020   39
   160.24    35.31   199.00    -0.01     0.00    -0.00   0.021   40
   160.24    36.29   200.02    -0.01     0.00    -0.00   0.020   41
   159.27    37.27   199.00    -0.01     0.00    -0.00   0.021   42
   160.24    37.27   199.00    -0.01     0.00     0.00   0.020   43
   159.27    36.29   199.00    -0.01     0.00     0.00   0.021   44
   159.27    36.29   199.00    -0.01     0.00    -0.00   0.020   45
   159.27    37.27   199.00    -0.01     0.00    -0.00   0.021   46
   159.27    35.31   197.98    -0.01     0.00    -0.00   0.020   47
   160.24    36.29   197.98    -0.01     0.00    -0.00   0.021   48
   160.24    36.29   197.98    -0.01     0.00    -0.00   0.020   49
   160.24    35.31   199.00    -0.01     0.00    -0.00   0.021   50
   159.27    36.29   197.98    -0.01     0.00    -0.00   0.020   51
   160.24    36.29   199.00    -0.01     0.00     0.00   0.021   52
   159.27    35.31   196.96    -0.01     0.00    -0.00   0.020   53
   160.24    36.29   197.98    -0.01     0.00     0.00   0.021   54
   159.27    36.29   199.00    -0.01     0.00    -0.00   0.020   55
   160.24    36.29   200.02    -0.01     0.00    -0.00   0.021   56
   160.24    37.27   199.00    -0.01     0.00    -0.00   0.020   57
   159.27    37.27   199.00    -0.01     0.00     0.00   0.021   58
   161.22    37.27   199.00    -0.01     0.00     0.00   0.020   59
   158.29    36.29   197.98    -0.01     0.00     0.00   0.020   60
   160.24    37.27   199.00    -0.01     0.00    -0.00   0.021   61
   159.27    35.31   195.94    -0.01     0.00     0.00   0.020   62
   160.24    36.29   197.98    -0.01     0.00    -0.00   0.021   63
   159.27    37.27   199.00    -0.01     0.00     0.00   0.020   64
   159.27    37.27   200.02    -0.01     0.00     0.00   0.021   65
   159.27    38.25   197.98    -0.01     0.00    -0.00   0.020   66
   160.24    36.29   199.00    -0.01     0.00    -0.00   0.021   67
   160.24    37.27   199.00    -0.01     0.00    -0.00   0.020   68
   160.24    35.31   197.98    -0.01     0.00     0.00   0.021   69
   160.24    37.27   197.98    -0.01     0.00     0.00   0.020   70
   159.27    36.29   197.98    -0.01     0.00    -0.00   0.021   71
   159.27    36.29   197.98    -0.01     0.00    -0.00   0.020   72
   159.27    35.31   197.98    -0.01     0.00    -0.00   0.021   73
   160.24    38.25   200.02    -0.01     0.00     0.00   0.020   74
   159.27    36.29   197.98    -0.01     0.00    -0.00   0.021   75
   161.22    37.27   199.00    -0.01     0.00     0.00   0.020   76
   159.27    37.27   199.00    -0.01     0.00    -0.00   0.021   77
   160.24    36.29   197.98    -0.01     0.00    -0.00   0.020   78
   160.24    36.29   199.00    -0.01     0.00    -0.00   0.021   79
   158.29    36.29   197.98    -0.01     0.00    -0.00   0.020   80
   158.29    38.25   199.00    -0.01     0.00    -0.00   0.021   81
   160.24    36.29   197.98    -0.01     0.00    -0.00   0.020   82
   160.24    37.27   199.00    -0.01     0.00    -0.00   0.021   83
   160.24    37.27   199.00    -0.01     0.00    -0.00   0.020   84
   159.27    37.27   199.00    -0.01     0.00    -0.00   0.020   85
   160.24    37.27   201.03    -0.01     0.00    -0.00   0.021   86
   160.24    37.27   199.00    -0.01     0.00    -0.00   0.020   87
   158.29    38.25   199.00    -0.01     0.00    -0.00   0.021   88
   158.29    36.29   197.98    -0.01     0.00    -0.00   0.020   89
   159.27    36.29   197.98    -0.01     0.00    -0.00   0.021   90
   159.27    36.29   197.98    -0.01     0.00    -0.00   0.020   91
   159.27    38.25   199.00    -0.01     0.00    -0.00   0.021   92
   160.24    35.31   197.98    -0.01     0.00    -0.00   0.020   93
   159.27    38.25   199.00    -0.00     0.00     0.00   0.021   94
   160.24    36.29   200.02    -0.01     0.00    -0.00   0.020   95
   161.22    34.33   199.00    -0.01     0.00    -0.00   0.021   96
   161.22    38.25   200.02    -0.01     0.00     0.00   0.020   97
   159.27    36.29   199.00    -0.01     0.00     0.00   0.021   98
   160.24    36.29   199.00    -0.01     0.00     0.00   0.020   99
   160.24    37.27   197.98    -0.01     0.00    -0.00   0.021  100
   160.24    38.25   199.00    -0.01     0.00     0.00   0.020  101
   160.24    37.27   199.00    -0.01     0.00    -0.00   0.021  102
   160.24    37.27   200.02    -0.01     0.00    -0.00   0.020  103
   159.27    36.29   199.00    -0.01     0.00    -0.00   0.021  104
   160.24    37.27   197.98    -0.01     0.00    -0.00   0.020  105
   160.24    37.27   200.02    -0.01     0.00     0.00   0.021  106
   160.24    37.27   200.02    -0.01     0.00    -0.00   0.020  107
   160.24    36.29   199.00    -0.01     0.00    -0.00   0.021  108
   161.22    35.31   197.98    -0.01     0.00    -0.00   0.020  109
   160.24    38.25   196.96    -0.01     0.00    -0.00   0.020  110
   161.22    37.27   199.00    -0.01     0.00    -0.00   0.021  111
   160.24    37.27   199.00    -0.01     0.00    -0.00   0.020  112
   159.27    37.27   197.98    -0.01     0.00    -0.00   0.021  113
   160.24    37.27   200.02    -0.01     0.00    -0.00   0.020  114
   159.27    36.29   200.02    -0.01     0.00    -0.00   0.021  115
   160.24    37.27   199.00    -0.01     0.00    -0.00   0.020  116
   160.24    35.31   199.00    -0.00     0.00    -0.00   0.021  117
   160.24    37.27   200.02    -0.01     0.00    -0.00   0.020  118
   158.29    36.29   197.98    -0.01     0.00     0.00   0.021  119
   160.24    36.29   200.02    -0.01     0.00    -0.00   0.020  120
   160.24    36.29   199.00    -0.01     0.00    -0.00   0.021  121
   160.24    38.25   200.02    -0.01     0.00    -0.00   0.020  122
   160.24    36.29   200.02    -0.01     0.00    -0.00   0.021  123
   161.22    37.27   197.98    -0.01     0.00    -0.00   0.020  124
   160.24    36.29   199.00    -0.01     0.00    -0.00   0.021  125
   159.27    37.27   199.00    -0.01     0.00    -0.00   0.020  126
   160.24    38.25   200.02    -0.01     0.00    -0.00   0.021  127
   159.27    36.29   199.00    -0.01     0.00    -0.00   0.020  128
   159.27    36.29   197.98    -0.01     0.00    -0.00   0.021  129
   160.24    36.29   199.00    -0.01     0.00    -0.00   0.020  130
   161.22    37.27   200.02    -0.01     0.00    -0.00   0.021  131
   160.24    37.27   197.98    -0.01     0.00     0.00   0.020  132
   162.20    36.29   199.00    -0.01     0.00    -0.00   0.021  133
   160.24    36.29   197.98    -0.01     0.00    -0.00   0.020  134
   161.22    35.31   199.00    -0.01     0.00    -0.00   0.020  135
   159.27    35.31   197.98    -0.01     0.00    -0.00   0.021  136
   160.24    36.29   199.00    -0.01     0.00    -0.00   0.020  137
   159.27    36.29   197.98    -0.01     0.00    -0.00   0.021  138
   159.27    36.29   200.02    -0.01     0.00    -0.00   0.020  139
   160.24    35.31   200.02    -0.01     0.00    -0.00   0.021  140
   159.27    36.29   197.98    -0.01     0.00    -0.00   0.020  141
   160.24    37.27   199.00    -0.01     0.00    -0.00   0.021  142
   159.27    36.29   197.98    -0.01     0.00    -0.00   0.020  143
   159.27    37.27   199.00    -0.01     0.00    -0.00   0.021  144
   160.24    35.31   197.98    -0.01     0.00    -0.00   0.020  145
   160.24    37.27   200.02    -0.01     0.00    -0.00   0.021  146
   159.27    36.29   199.00    -0.01     0.00    -0.00   0.020  147
   159.27    37.27   199.00    -0.01     0.00    -0.00   0.021  148
   160.24    35.31   196.96    -0.01     0.00     0.00   0.020  149
   161.22    36.29   199.00    -0.01     0.00    -0.00   0.021  150
   159.27    37.27   196.96    -0.01     0.00    -0.00   0.020  151
   158.29    37.27   200.02    -0.01     0.00    -0.00   0.021  152
   159.27    37.27   197.98    -0.01     0.00    -0.00   0.020  153
   159.27    36.29   199.00    -0.01     0.00    -0.00   0.021  154
   160.24    37.27   200.02    -0.01     0.00     0.00   0.020  155
   159.27    36.29   199.00    -0.01     0.00    -0.00   0.021  156
   160.24    37.27   201.03    -0.01     0.00    -0.00   0.020  157
   159.27    35.31   197.98    -0.01     0.00    -0.00   0.021  158
   161.22    37.27   200.02    -0.01     0.00    -0.00   0.020  159
   159.27    37.27   200.02    -0.01     0.00    -0.00   0.020  160
   159.27    37.27   199.00    -0.00     0.00    -0.00   0.021  161
   160.24    37.27   199.00    -0.01     0.00    -0.00   0.020  162
   159.27    36.29   197.98    -0.01     0.00    -0.00   0.021  163
   161.22    36.29   199.00    -0.00     0.00    -0.00   0.020  164
   159.27    36.29   196.96    -0.01     0.00    -0.00   0.021  165
   161.22    36.29   200.02    -0.01     0.00    -0.00   0.020  166
   159.27    36.29   199.00    -0.01     0.00     0.00   0.021  167
   161.22    37.27   200.02    -0.01     0.00    -0.00   0.020  168
   159.27    37.27   196.96    -0.01     0.00    -0.00   0.021  169
   159.27    37.27   197.98    -0.01     0.00    -0.00   0.020  170
   160.24    36.29   200.02    -0.01     0.00    -0.00   0.021  171
   159.27    36.29   197.98    -0.01     0.00    -0.00   0.020  172
   160.24    37.27   199.00    -0.01     0.00     0.00   0.021  173
   159.27    37.27   197.98    -0.01     0.00     0.00   0.020  174
   159.27    38.25   201.03    -0.01     0.00     0.00   0.021  175
   159.27    37.27   199.00    -0.01     0.00    -0.00   0.020  176
   161.22    36.29   200.02    -0.01     0.00     0.00   0.021  177
   159.27    37.27   199.00    -0.01     0.00    -0.00   0.020  178
   160.24    36.29   199.00    -0.01     0.00     0.00   0.021  179
   160.24    36.29   199.00    -0.01     0.00     0.00   0.020  180
   160.24    37.27   197.98    -0.01     0.00     0.00   0.021  181
   161.22    36.29   199.00    -0.01     0.00    -0.00   0.020  182
   159.27    36.29   199.00    -0.01     0.00     0.00   0.021  183
   159.27    37.27   199.00    -0.01     0.00    -0.00   0.020  184
   159.27    36.29   199.00    -0.01     0.00    -0.00   0.020  185
   160.24    35.31   201.03    -0.01     0.00     0.00   0.021  186
   158.29    36.29   196.96    -0.01     0.00    -0.00   0.020  187
   161.22    36.29   199.00    -0.01     0.00    -0.00   0.021  188
   159.27    35.31   197.98    -0.01     0.00    -0.00   0.020  189
   159.27    36.29   199.00    -0.01     0.00     0.00   0.021  190
   159.27    35.31   197.98    -0.01     0.00    -0.00   0.020  191
   161.22    37.27   202.05    -0.01     0.00    -0.00   0.021  192
   160.24    36.29   197.98    -0.01     0.00    -0.00   0.020  193
   160.24    36.29   199.00    -0.01     0.00    -0.00   0.021  194
   160.24    37.27   199.00    -0.01     0.00    -0.00   0.020  195
   158.29    35.31   200.02    -0.01     0.00    -0.00   0.021  196
   159.27    36.29   200.02    -0.01     0.00     0.00   0.020  197
   159.27    37.27   197.98    -0.01     0.00     0.00   0.021  198
   159.27    37.27   197.98    -0.01     0.00    -0.00   0.020  199
   160.24    35.31   197.98    -0.01     0.00    -0.00   0.021  200
   160.24    36.29   197.98    -0.01     0.00    -0.00   0.020  201
   159.27    36.29   199.00    -0.01     0.00    -0.00   0.021  202
   160.24    38.25   197.98    -0.01     0.00    -0.00   0.020  203
   160.24    36.29   201.03    -0.01     0.00    -0.00   0.021  204
   160.24    36.29   200.02    -0.01     0.00    -0.00   0.020  205
   159.27    35.31   197.98    -0.01     0.00    -0.00   0.021  206
   160.24    36.29   197.98    -0.01     0.00    -0.00   0.020  207
   160.24    36.29   199.00    -0.01     0.00    -0.00   0.021  208
   159.27    35.31   200.02    -0.00     0.00    -0.00   0.020  209
   159.27    35.31   197.98    -0.01     0.00    -0.00   0.020  210
   158.29    36.29   199.00    -0.01     0.00    -0.00   0.021  211
   159.27    36.29   197.98    -0.01     0.00    -0.00   0.020  212
   159.27    36.29   200.02    -0.01     0.00    -0.00   0.021  213
   158.29    37.27   200.02    -0.01     0.00    -0.00   0.020  214
   159.27    35.31   200.02    -0.01     0.00    -0.00   0.021  215
   159.27    37.27   197.98    -0.01     0.00    -0.00   0.020  216
   158.29    36.29   197.98    -0.01     0.00     0.00   0.021  217
   160.24    35.31   201.03    -0.01     0.00     0.00   0.020  218
   160.24    36.29   199.00    -0.01     0.00    -0.00   0.021  219
   160.24    38.25   199.00    -0.01     0.00     0.00   0.020  220
   159.27    36.29   196.96    -0.01     0.00    -0.00   0.021  221
   160.24    37.27   199.00    -0.01     0.00    -0.00   0.020  222
   159.27    37.27   199.00    -0.01     0.00    -0.00   0.021  223
   160.24    36.29   199.00    -0.01     0.00     0.00   0.020  224
   160.24    37.27   201.03    -0.01     0.00    -0.00   0.021  225
   158.29    37.27   196.96    -0.01     0.00     0.00   0.020  226
   161.22    37.27   200.02    -0.01     0.00     0.00   0.021  227
   160.24    35.31   197.98    -0.01     0.00     0.00   0.020  228
   160.24    36.29   200.02    -0.01     0.00    -0.00   0.021  229
   159.27    36.29   199.00    -0.01     0.00    -0.00   0.020  230
   159.27    36.29   199.00    -0.01     0.00    -0.00   0.021  231
   160.24    36.29   199.00    -0.01     0.00    -0.00   0.020  232
   158.29    36.29   197.98    -0.01     0.00     0.00   0.021  233
   161.22    36.29   199.00    -0.01     0.00     0.00   0.020  234
   160.24    35.31   199.00    -0.01     0.00     0.00   0.020  235
   160.24    37.27   200.02    -0.01     0.00     0.00   0.021  236
   159.27    36.29   197.98    -0.01     0.00    -0.00   0.020  237
   160.24    36.29   201.03    -0.01     0.00     0.00   0.021  238
   160.24    36.29   199.00    -0.01     0.00    -0.00   0.020  239
   160.24    36.29   200.02    -0.01     0.00    -0.00   0.021  240
   159.27    36.29   197.98    -0.01     0.00    -0.00   0.020  241
   159.27    37.27   199.00    -0.01     0.00    -0.00   0.021  242
   160.24    36.29   199.00    -0.01     0.00    -0.00   0.020  243
   159.27    36.29   199.00    -0.01     0.00    -0.00   0.021  244
   160.24    36.29   199.00    -0.01     0.00    -0.00   0.020  245
   160.24    36.29   200.02    -0.01     0.00    -0.00   0.021  246
   159.27    37.27   200.02    -0.01     0.00    -0.00   0.020  247
   159.27    36.29   197.98    -0.01     0.00    -0.00   0.021  248
   160.24    36.29   199.00    -0.01     0.00    -0.00   0.020  249
   159.27    36.29   197.98    -0.01     0.00    -0.00   0.021  250
   159.27    36.29   199.00    -0.01     0.00     0.00   0.020  251
   158.29    36.29   197.98    -0.01     0.00    -0.00   0.021  252
   160.24    37.27   199.00    -0.01     0.00    -0.00   0.020  253
   159.27    36.29   200.02    -0.01     0.00     0.00   0.021  254
   160.24    37.27   201.03    -0.01     0.00     0.00   0.020  255
   160.24    37.27   199.00    -0.01     0.00     0.00   0.021    0
   159.27    35.31   199.00    -0.01     0.00     0.00   0.020    1
   160.24    37.27   200.02    -0.01     0.00    -0.00   0.021    2
   158.29    36.29   196.96    -0.01     0.00    -0.00   0.020    3
   159.27    35.31   199.00    -0.01     0.00    -0.00   0.020    4
   159.27    35.31   197.98    -0.01     0.00    -0.00   0.021    5
   159.27    38.25   199.00    -0.01     0.00    -0.00   0.020    6
   158.29    35.31   199.00    -0.01     0.00    -0.00   0.021    7
   160.24    37.27   200.02    -0.01     0.00    -0.00   0.020    8
   160.24    35.31   199.00    -0.01     0.00    -0.00   0.021    9
   160.24    36.29   199.00    -0.01     0.00     0.00   0.020   10
   159.27    35.31   199.00    -0.01     0.00    -0.00   0.021   11
   159.27    36.29   197.98    -0.01     0.00    -0.00   0.020   12
   158.29    36.29   199.00    -0.01     0.00     0.00   0.021   13
   160.24    37.27   197.98    -0.01     0.00    -0.00   0.020   14
   158.29    36.29   196.96    -0.01     0.00     0.00   0.021   15
   160.24    35.31   200.02    -0.01     0.00     0.00   0.020   16
   160.24    36.29   199.00    -0.01     0.00    -0.00   0.021   17
   159.27    35.31   199.00    -0.01     0.00     0.00   0.020   18
   160.24    35.31   197.98    -0.01     0.00    -0.00   0.021   19
   158.29    36.29   199.00    -0.01     0.00    -0.00   0.020   20
   160.24    35.31   199.00    -0.01     0.00     0.00   0.021   21
   159.27    36.29   197.98    -0.01     0.00     0.00   0.020   22
   160.24    35.31   199.00    -0.01     0.00    -0.00   0.021   23
   159.27    36.29   199.00    -0.01     0.00    -0.00   0.020   24
   160.24    36.29   199.00    -0.01     0.00    -0.00   0.021   25
   159.27    36.29   199.00    -0.01     0.00    -0.00   0.020   26
   159.27    37.27   201.03    -0.01     0.00    -0.00   0.021   27
   159.27    36.29   199.00    -0.01     0.00    -0.00   0.020   28
   158.29    36.29   199.00    -0.01     0.00     0.00   0.020   29
   160.24    37.27   197.98    -0.01     0.00    -0.00   0.021   30
   158.29    36.29   199.00    -0.01     0.00    -0.00   0.020   31
   159.27    36.29   199.00    -0.01     0.00     0.00   0.021   32
   159.27    35.31   196.96    -0.01     0.00     0.00   0.020   33
   160.24    37.27   199.00    -0.01     0.00    -0.00   0.021   34
   160.24    35.31   199.00    -0.01     0.00    -0.00   0.020   35
   159.27    36.29   199.00    -0.01     0.00    -0.00   0.021   36
   159.27    36.29   199.00    -0.01     0.00    -0.00   0.020   37
   160.24    35.31   199.00    -0.01     0.00    -0.00   0.021   38
   159.27    37.27   201.03    -0.01     0.00     0.00   0.020   39
   160.24    35.31   197.98    -0.01     0.00    -0.00   0.021   40
   160.24    38.25   199.00    -0.01     0.00    -0.00   0.020   41
   158.29    37.27   197.98    -0.01     0.00    -0.00   0.021   42
   160.24    37.27   199.00    -0.01     0.00     0.00   0.020   43
   159.27    36.29   197.98    -0.01     0.00    -0.00   0.021   44
   161.22    36.29   199.00    -0.01     0.00    -0.00   0.020   45
   159.27    36.29   199.00    -0.01     0.00     0.00   0.021   46
   159.27    36.29   200.02    -0.01     0.00    -0.00   0.020   47
   159.27    37.27   199.00    -0.01     0.00    -0.00   0.021   48
   159.27    36.29   199.00    -0.01     0.00    -0.00   0.020   49
   159.27    37.27   199.00    -0.01     0.00    -0.00   0.021   50
   160.24    37.27   197.98    -0.01     0.00    -0.00   0.020   51
   160.24    36.29   201.03    -0.01     0.00    -0.00   0.021   52
   161.22    35.31   199.00    -0.01     0.00    -0.00   0.020   53
   160.24    36.29   200.02    -0.01     0.00    -0.00   0.020   54
   158.29    35.31   196.96    -0.00     0.00    -0.00   0.021   55
   159.27    37.27   199.00    -0.01     0.00    -0.00   0.020   56
   159.27    36.29   199.00    -0.01     0.00     0.00   0.021   57
   159.27    36.29   200.02    -0.01     0.00     0.00   0.020   58
   159.27    35.31   199.00    -0.01     0.00    -0.00   0.021   59
   160.24    36.29   200.02    -0.01     0.00    -0.00   0.020   60
   159.27    36.29   199.00    -0.01     0.00    -0.00   0.021   61
   160.24    37.27   200.02    -0.01     0.00    -0.00   0.020   62
   159.27    36.29   200.02    -0.01     0.00    -0.00   0.021   63
   158.29    36.29   200.02    -0.01     0.00     0.00   0.020   64
   160.24    36.29   199.00    -0.01     0.00     0.00   0.021   65
   159.27    36.29   199.00    -0.01     0.00    -0.00   0.020   66
   160.24    36.29   199.00    -0.01     0.00    -0.00   0.021   67
   159.27    36.29   197.98    -0.01     0.00    -0.00   0.020   68
   160.24    37.27   199.00    -0.01     0.00    -0.00   0.021   69
   160.24    36.29   199.00    -0.01     0.00    -0.00   0.020   70
   159.27    37.27   200.02    -0.01     0.00    -0.00   0.021   71
   158.29    36.29   199.00    -0.01     0.00    -0.00   0.020   72
