   161.22    44.14   194.93    -0.00     0.00    -0.00   0.021    0
   161.22    44.14   195.94    -0.00     0.00    -0.00   0.020    1
   160.24    46.10   195.94    -0.00     0.00    -0.00   0.021    2
   161.22    44.14   194.93    -0.00     0.00    -0.00   0.020    3
   161.22    43.16   195.94    -0.00     0.00    -0.00   0.021    4
   161.22    44.14   195.94    -0.00     0.00    -0.00   0.020    5
   161.22    43.16   195.94    -0.00     0.00    -0.00   0.021    6
   161.22    44.14   195.94    -0.00     0.00    -0.00   0.020    7
   161.22    44.14   195.94    -0.00     0.00    -0.00   0.021    8
   161.22    43.16   195.94    -0.00     0.00    -0.00   0.020    9
   162.20    44.14   195.94    -0.00     0.00    -0.00   0.021   10
   161.22    45.12   195.94    -0.00     0.00    -0.00   0.020   11
   162.20    43.16   195.94    -0.00     0.00     0.00   0.021   12
   161.22    44.14   194.93    -0.00     0.00    -0.00   0.020   13
   162.20    44.14   195.94    -0.00     0.00    -0.00   0.021   14
   162.20    44.14   195.94    -0.00     0.00    -0.00   0.020   15
   161.22    43.16   194.93    -0.00     0.00    -0.00   0.020   16
   161.22    44.14   195.94    -0.00     0.00    -0.00   0.021   17
   161.22    43.16   195.94    -0.00     0.00    -0.00   0.020   18
   160.24    44.14   195.94    -0.00     0.00    -0.00   0.021   19
   161.22    45.12   195.94    -0.00     0.00    -0.00   0.020   20
   161.22    43.16   195.94    -0.00     0.00    -0.00   0.021   21
   161.22    43.16   195.94    -0.00     0.00    -0.00   0.020   22
   162.20    43.16   194.93    -0.00     0.00    -0.00   0.021   23
   160.24    43.16   194.93    -0.00     0.00    -0.00   0.020   24
   161.22    44.14   195.94     0.00     0.00    -0.00   0.021   25
   162.20    44.14   195.94     0.00     0.00    -0.00   0.020   26
   160.24    44.14   194.93    -0.00     0.00    -0.00   0.021   27
   161.22    43.16   193.91     0.00     0.00    -0.00   0.020   28
   162.20    44.14   196.96     0.00     0.00    -0.00   0.021   29
   161.22    44.14   195.94     0.00     0.00    -0.00   0.020   30
   161.22    44.14   195.94     0.00     0.00    -0.00   0.021   31
   160.24    44.14   193.91    -0.00     0.00    -0.00   0.020   32
   162.20    43.16   195.94    -0.00     0.00    -0.00   0.021   33
   161.22    45.12   196.96    -0.00     0.00    -0.00   0.020   34
   161.22    44.14   193.91    -0.00     0.00    -0.00   0.021   35
   160.24    44.14   195.94    -0.01     0.00     0.00   0.020   36
   160.24    45.12   195.94    -0.00     0.00     0.00   0.021   37
   161.22    44.14   195.94    -0.01     0.00     0.00   0.020   38
   160.24    44.14   194.93    -0.01     0.00     0.00   0.021   39
   162.20    44.14   194.93    -0.00     0.00     0.00   0.020   40
   162.20    45.12   195.94    -0.00     0.00    -0.00   0.020   41
   160.24    44.14   195.94    -0.00     0.00    -0.00   0.021   42
   161.22    45.12   195.94    -0.00     0.00    -0.00   0.020   43
   161.22    44.14   194.93    -0.00     0.00    -0.00   0.021   44
   161.22    44.14   194.93    -0.00     0.00    -0.00   0.020   45
   161.22    44.14   194.93    -0.00     0.00    -0.00   0.021   46
   160.24    43.16   194.93    -0.00     0.00    -0.00   0.020   47
   161.22    44.14   196.96    -0.00     0.00    -0.00   0.021   48
   160.24    44.14   194.93    -0.00     0.00     0.00   0.020   49
   161.22    43.16   196.96    -0.00     0.00    -0.00   0.021   50
   161.22    44.14   195.94    -0.00     0.00    -0.00   0.020   51
   161.22    43.16   194.93    -0.00     0.00    -0.00   0.021   52
   160.24    44.14   194.93    -0.00     0.00    -0.00   0.020   53
   162.20    45.12   196.96    -0.00     0.00    -0.00   0.021   54
   161.22    44.14   195.94    -0.00     0.00    -0.00   0.020   55
   161.22    44.14   194.93    -0.00     0.00    -0.00   0.021   56
   160.24    45.12   194.93    -0.00     0.00    -0.00   0.020   57
   161.22    43.16   193.91    -0.00     0.00    -0.00   0.021   58
   162.20    43.16   195.94    -0.00     0.00    -0.00   0.020   59
   161.22    44.14   194.93    -0.00     0.00    -0.00   0.021   60
   162.20    44.14   195.94    -0.00     0.00    -0.00   0.020   61
   161.22    43.16   195.94    -0.00     0.00    -0.00   0.021   62
   161.22    44.14   194.93    -0.00     0.00    -0.00   0.020   63
   162.20    45.12   197.98    -0.00     0.00    -0.00   0.021   64
   161.22    45.12   194.93    -0.00     0.00    -0.00   0.020   65
   162.20    43.16   194.93    -0.00     0.00    -0.00   0.020   66
   162.20    44.14   195.94    -0.00     0.00    -0.00   0.021   67
   162.20    44.14   195.94    -0.00     0.00    -0.00   0.020   68
   161.22    44.14   196.96    -0.00     0.00    -0.00   0.021   69
   162.20    45.12   196.96    -0.00     0.00    -0.00   0.020   70
   160.24    44.14   195.94    -0.00     0.00    -0.00   0.021   71
   160.24    45.12   195.94    -0.00     0.00    -0.00   0.020   72
   162.20    44.14   194.93    -0.00     0.00    -0.00   0.021   73
   162.20    44.14   194.93    -0.00     0.00     0.00   0.020   74
   160.24    45.12   195.94    -0.01     0.00    -0.00   0.021   75
   161.22    43.16   195.94    -0.00     0.00    -0.00   0.020   76
   161.22    45.12   195.94    -0.00     0.00    -0.00   0.021   77
   162.20    44.14   194.93    -0.01     0.00     0.00   0.020   78
   161.22    44.14   194.93    -0.00     0.00    -0.00   0.021   79
   162.20    43.16   196.96    -0.00     0.00    -0.00   0.020   80
   162.20    44.14   196.96    -0.00     0.00     0.00   0.021   81
   162.20    43.16   195.94    -0.01     0.00     0.00   0.020   82
   162.20    44.14   197.98    -0.00     0.00     0.00   0.021   83
   161.22    43.16   196.96    -0.00     0.00    -0.00   0.020   84
   162.20    44.14   196.96    -0.00     0.00    -0.00   0.021   85
   162.20    44.14   195.94    -0.00     0.00    -0.00   0.020   86
   161.22    44.14   195.94    -0.00     0.00    -0.00   0.021   87
   161.22    44.14   195.94    -0.00     0.00    -0.00   0.020   88
   159.27    45.12   194.93    -0.00     0.00    -0.00   0.021   89
   161.22    44.14   194.93    -0.00     0.00    -0.00   0.020   90
   162.20    45.12   196.96    -0.00     0.00    -0.00   0.020   91
   161.22    43.16   193.91    -0.00     0.00    -0.00   0.021   92
   161.22    43.16   195.94    -0.00     0.00    -0.00   0.020   93
   162.20    45.12   195.94    -0.01     0.00     0.00   0.021   94
   162.20    45.12   196.96    -0.00     0.00     0.00   0.020   95
   161.22    43.16   196.96    -0.00     0.00    -0.00   0.021   96
   161.22    44.14   195.94    -0.00     0.00     0.00   0.020   97
   161.22    43.16   194.93    -0.01     0.00     0.00   0.021   98
   163.18    44.14   197.98    -0.01     0.00     0.00   0.020   99
   160.24    45.12   196.96    -0.00     0.00     0.00   0.021  100
   162.20    43.16   196.96    -0.00     0.00    -0.00   0.020  101
   163.18    44.14   195.94    -0.00     0.00    -0.00   0.021  102
   161.22    43.16   193.91    -0.00     0.00    -0.00   0.020  103
   160.24    44.14   195.94    -0.00     0.00    -0.00   0.021  104
   162.20    44.14   195.94    -0.00     0.00    -0.00   0.020  105
   161.22    43.16   194.93    -0.00     0.00    -0.00   0.021  106
   161.22    44.14   195.94    -0.00     0.00    -0.00   0.020  107
   161.22    44.14   195.94    -0.00     0.00    -0.00   0.021  108
   161.22    44.14   194.93    -0.00     0.00    -0.00   0.020  109
   161.22    44.14   196.96    -0.00     0.00    -0.00   0.021  110
   162.20    43.16   196.96    -0.00     0.00    -0.00   0.020  111
   162.20    44.14   196.96    -0.00     0.00    -0.00   0.021  112
   161.22    45.12   196.96    -0.00     0.00    -0.00   0.020  113
   161.22    45.12   195.94    -0.00     0.00    -0.00   0.021  114
   162.20    44.14   195.94    -0.00     0.00    -0.00   0.020  115
   161.22    44.14   196.96    -0.00     0.00    -0.00   0.020  116
   160.24    44.14   195.94    -0.00     0.00    -0.00   0.021  117
   161.22    44.14   196.96    -0.00     0.00    -0.00   0.020  118
   161.22    44.14   194.93    -0.00     0.00    -0.00   0.021  119
   162.20    44.14   195.94    -0.00     0.00    -0.00   0.020  120
   162.20    45.12   196.96    -0.00     0.00    -0.00   0.021  121
   159.27    43.16   195.94    -0.00     0.00    -0.00   0.020  122
   160.24    44.14   194.93    -0.00     0.00    -0.00   0.021  123
   162.20    45.12   195.94    -0.00     0.00    -0.00   0.020  124
   162.20    43.16   195.94    -0.00     0.00    -0.00   0.021  125
   160.24    44.14   196.96    -0.00     0.00    -0.00   0.020  126
   161.22    43.16   195.94    -0.00     0.00    -0.00   0.021  127
   161.22    43.16   196.96    -0.00     0.00    -0.00   0.020  128
   162.20    45.12   196.96    -0.00     0.00    -0.00   0.021  129
   161.22    44.14   195.94    -0.00     0.00    -0.00   0.020  130
   160.24    43.16   195.94    -0.00     0.00    -0.00   0.021  131
   161.22    44.14   195.94    -0.00     0.00    -0.00   0.020  132
   161.22    44.14   195.94    -0.00     0.00    -0.00   0.021  133
   162.20    45.12   195.94    -0.00     0.00    -0.00   0.020  134
   162.20    43.16   196.96    -0.00     0.00    -0.00   0.021  135
   161.22    43.16   195.94    -0.00     0.00     0.00   0.020  136
   161.22    43.16   195.94    -0.00     0.00    -0.00   0.021  137
   160.24    44.14   195.94    -0.00     0.00    -0.00   0.020  138
   161.22    44.14   196.96    -0.00     0.00    -0.00   0.021  139
   161.22    44.14   195.94    -0.00     0.00    -0.00   0.020  140
   162.20    44.14   195.94    -0.00     0.00    -0.00   0.020  141
   161.22    44.14   194.93    -0.00     0.00    -0.00   0.021  142
   162.20    45.12   196.96    -0.00     0.00    -0.00   0.020  143
   161.22    44.14   194.93    -0.00     0.00    -0.00   0.021  144
   161.22    43.16   195.94    -0.00     0.00    -0.00   0.020  145
   162.20    44.14   195.94    -0.00     0.00    -0.00   0.021  146
   162.20    42.18   195.94    -0.00     0.00    -0.00   0.020  147
   162.20    44.14   196.96    -0.00     0.00    -0.00   0.021  148
   161.22    44.14   195.94    -0.00     0.00    -0.00   0.020  149
   160.24    43.16   195.94    -0.00     0.00    -0.00   0.021  150
   161.22    43.16   195.94    -0.00     0.00     0.00   0.020  151
   162.20    44.14   194.93    -0.00     0.00    -0.00   0.021  152
   161.22    44.14   195.94    -0.00     0.00    -0.00   0.020  153
   162.20    44.14   196.96    -0.00     0.00    -0.00   0.021  154
   160.24    44.14   196.96    -0.00     0.00     0.00   0.020  155
   161.22    44.14   195.94    -0.00     0.00    -0.00   0.021  156
   163.18    44.14   197.98    -0.00     0.00    -0.00   0.020  157
   161.22    44.14   194.93    -0.00     0.00    -0.00   0.021  158
   161.22    43.16   195.94    -0.00     0.00    -0.00   0.020  159
   160.24    43.16   196.96    -0.00     0.00    -0.00   0.021  160
   161.22    43.16   195.94    -0.00     0.00    -0.00   0.020  161
   162.20    43.16   194.93    -0.00     0.00    -0.00   0.021  162
   161.22    45.12   196.96    -0.00     0.00    -0.00   0.020  163
   160.24    43.16   195.94    -0.00     0.00    -0.00   0.021  164
   161.22    43.16   195.94    -0.00     0.00    -0.00   0.020  165
   162.20    43.16   195.94    -0.00     0.00    -0.00   0.020  166
   162.20    43.16   195.94    -0.00     0.00    -0.00   0.021  167
   160.24    45.12   196.96    -0.00     0.00    -0.00   0.020  168
   163.18    44.14   196.96    -0.00     0.00    -0.00   0.021  169
   161.22    44.14   194.93    -0.00     0.00    -0.00   0.020  170
   161.22    45.12   196.96    -0.00     0.00    -0.00   0.021  171
   161.22    43.16   195.94    -0.00     0.00    -0.00   0.020  172
   160.24    44.14   196.96    -0.00     0.00    -0.00   0.021  173
   162.20    45.12   195.94    -0.00     0.00    -0.00   0.020  174
   162.20    44.14   196.96    -0.00     0.00    -0.00   0.021  175
   161.22    43.16   194.93    -0.00     0.00    -0.00   0.020  176
   161.22    44.14   195.94    -0.00     0.00    -0.00   0.021  177
   161.22    43.16   196.96    -0.00     0.00    -0.00   0.020  178
   163.18    43.16   195.94    -0.00     0.00    -0.00   0.021  179
   161.22    43.16   195.94    -0.00     0.00    -0.00   0.020  180
   161.22    44.14   196.96    -0.00     0.00    -0.00   0.021  181
   161.22    45.12   195.94    -0.00     0.00    -0.00   0.020  182
   161.22    44.14   193.91    -0.00     0.00    -0.00   0.021  183
   161.22    43.16   195.94    -0.00     0.00    -0.00   0.020  184
   160.24    44.14   195.94    -0.00     0.00    -0.00   0.021  185
   161.22    44.14   194.93    -0.00     0.00    -0.00   0.020  186
   162.20    45.12   196.96    -0.00     0.00    -0.00   0.021  187
   162.20    44.14   195.94    -0.00     0.00    -0.00   0.020  188
   160.24    44.14   195.94    -0.00     0.00    -0.00   0.021  189
   161.22    44.14   196.96    -0.00     0.00    -0.00   0.020  190
   161.22    45.12   195.94    -0.00     0.00    -0.00   0.020  191
   162.20    44.14   195.94    -0.00     0.00    -0.00   0.021  192
   162.20    44.14   195.94    -0.00     0.00    -0.00   0.020  193
   161.22    42.18   194.93    -0.00     0.00    -0.00   0.021  194
   162.20    42.18   196.96    -0.00     0.00    -0.00   0.020  195
   161.22    44.14   195.94    -0.00     0.00    -0.00   0.021  196
   162.20    43.16   194.93    -0.00     0.00    -0.00   0.020  197
   162.20    44.14   195.94    -0.00     0.00    -0.00   0.021  198
   161.22    44.14   196.96    -0.00     0.00    -0.00   0.020  199
   161.22    43.16   195.94    -0.00     0.00    -0.00   0.021  200
   162.20    44.14   196.96    -0.00     0.00     0.00   0.020  201
   162.20    44.14   194.93    -0.00     0.00    -0.00   0.021  202
   161.22    44.14   197.98    -0.00     0.00    -0.00   0.020  203
   162.20    44.14   196.96    -0.00     0.00     0.00   0.021  204
   161.22    43.16   195.94    -0.00     0.00    -0.00   0.020  205
   162.20    44.14   197.98    -0.00     0.00    -0.00   0.021  206
   161.22    43.16   196.96    -0.00     0.00    -0.00   0.020  207
   161.22    43.16   196.96    -0.00     0.00    -0.00   0.021  208
   163.18    43.16   196.96    -0.00     0.00    -0.00   0.020  209
   160.24    44.14   195.94    -0.00     0.00    -0.00   0.021  210
   161.22    44.14   197.98    -0.00     0.00    -0.00   0.020  211
   161.22    45.12   196.96    -0.00     0.00     0.00   0.021  212
   162.20    44.14   194.93    -0.00     0.00     0.00   0.020  213
   161.22    43.16   193.91    -0.00     0.00     0.00   0.021  214
   161.22    45.12   195.94    -0.00     0.00    -0.00   0.020  215
   161.22    44.14   195.94    -0.00     0.00    -0.00   0.020  216
   160.24    44.14   196.96    -0.00     0.00    -0.00   0.021  217
   161.22    45.12   195.94    -0.00     0.00    -0.00   0.020  218
   160.24    44.14   195.94    -0.00     0.00    -0.00   0.021  219
   162.20    45.12   197.98    -0.00     0.00    -0.00   0.020  220
   162.20    44.14   196.96    -0.00     0.00    -0.00   0.021  221
   161.22    43.16   194.93    -0.00     0.00    -0.00   0.020  222
   162.20    44.14   197.98    -0.00     0.00    -0.00   0.021  223
   162.20    44.14   194.93    -0.00     0.00    -0.00   0.020  224
   160.24    44.14   195.94    -0.00     0.00    -0.00   0.021  225
   162.20    44.14   195.94    -0.00     0.00    -0.00   0.020  226
   161.22    42.18   196.96    -0.01     0.00    -0.00   0.021  227
   161.22    43.16   196.96    -0.00     0.00    -0.00   0.020  228
   160.24    44.14   195.94    -0.00     0.00    -0.00   0.021  229
   162.20    43.16   195.94    -0.00     0.00    -0.00   0.020  230
   161.22    45.12   195.94    -0.00     0.00    -0.00   0.021  231
   161.22    43.16   194.93    -0.00     0.00    -0.00   0.020  232
   161.22    43.16   195.94    -0.00     0.00    -0.00   0.021  233
   161.22    43.16   196.96    -0.00     0.00    -0.00   0.020  234
   161.22    43.16   194.93    -0.00     0.00    -0.00   0.021  235
   161.22    44.14   195.94    -0.00     0.00    -0.00   0.020  236
   161.22    44.14   194.93    -0.00     0.00    -0.00   0.021  237
   162.20    43.16   195.94    -0.00     0.00     0.00   0.020  238
   161.22    44.14   196.96    -0.00     0.00     0.00   0.021  239
   161.22    43.16   196.96    -0.00     0.00     0.00   0.020  240
   161.22    44.14   196.96    -0.00     0.00    -0.00   0.020  241
   161.22    44.14   196.96    -0.00     0.00    -0.00   0.021  242
   161.22    43.16   195.94    -0.00     0.00    -0.00   0.020  243
   162.20    44.14   195.94    -0.00     0.00    -0.00   0.021  244
   161.22    43.16   194.93    -0.00     0.00    -0.00   0.020  245
   161.22    44.14   194.93    -0.00     0.00    -0.00   0.021  246
   163.18    44.14   195.94    -0.00     0.00     0.00   0.020  247
   162.20    44.14   195.94    -0.00     0.00    -0.00   0.021  248
   161.22    43.16   195.94    -0.00     0.00    -0.00   0.020  249
   161.22    44.14   194.93    -0.00     0.00    -0.00   0.021  250
   160.24    43.16   195.94    -0.00     0.00    -0.00   0.020  251
   162.20    43.16   195.94    -0.00     0.00    -0.00   0.021  252
   163.18    45.12   195.94    -0.00     0.00    -0.00   0.020  253
   162.20    43.16   196.96    -0.00     0.00    -0.00   0.021  254
   160.24    44.14   196.96    -0.00     0.00    -0.00   0.020  255
   161.22    43.16   194.93    -0.00     0.00    -0.00   0.021    0
   160.24    43.16   195.94    -0.00     0.00    -0.00   0.020    1
   161.22    43.16   196.96    -0.00     0.00    -0.00   0.021    2
   160.24    43.16   195.94    -0.00     0.00    -0.00   0.020    3
   162.20    44.14   194.93    -0.00     0.00    -0.00   0.021    4
   161.22    45.12   195.94    -0.00     0.00    -0.00   0.020    5
   160.24    43.16   195.94    -0.00     0.00    -0.00   0.021    6
   161.22    44.14   195.94    -0.00     0.00    -0.00   0.020    7
   160.24    44.14   194.93    -0.00     0.00    -0.00   0.021    8
   160.24    44.14   196.96    -0.00     0.00     0.00   0.020    9
   161.22    45.12   195.94    -0.00     0.00    -0.00   0.020   10
   161.22    44.14   194.93    -0.00     0.00    -0.00   0.021   11
   161.22    44.14   195.94    -0.00     0.00    -0.00   0.020   12
   162.20    44.14   195.94    -0.00     0.00    -0.00   0.021   13
   161.22    43.16   193.91    -0.00     0.00     0.00   0.020   14
   162.20    43.16   197.98    -0.00     0.00    -0.00   0.021   15
   161.22    44.14   196.96    -0.00     0.00    -0.00   0.020   16
   160.24    44.14   194.93    -0.00     0.00    -0.00   0.021   17
   162.20    43.16   196.96    -0.00     0.00    -0.00   0.020   18
   162.20    44.14   195.94    -0.00     0.00     0.00   0.021   19
   160.24    44.14   195.94    -0.00     0.00     0.00   0.020   20
   162.20    43.16   196.96    -0.00     0.00    -0.00   0.021   21
   161.22    43.16   194.93    -0.00     0.00    -0.00   0.020   22
   161.22    44.14   194.93    -0.00     0.00    -0.00   0.021   23
   162.20    44.14   196.96    -0.00     0.00    -0.00   0.020   24
   162.20    43.16   196.96    -0.00     0.00    -0.00   0.021   25
   161.22    43.16   196.96    -0.01     0.00     0.00   0.020   26
   162.20    43.16   196.96    -0.00     0.00    -0.00   0.021   27
   161.22    44.14   194.93    -0.00     0.00    -0.00   0.020   28
   160.24    43.16   195.94    -0.00     0.00    -0.00   0.021   29
   160.24    44.14   196.96    -0.00     0.00    -0.00   0.020   30
   162.20    42.18   194.93    -0.00     0.00    -0.00   0.021   31
   162.20    42.18   196.96    -0.00     0.00     0.00   0.020   32
   161.22    44.14   194.93    -0.00     0.00    -0.00   0.021   33
   160.24    44.14   195.94    -0.00     0.00    -0.00   0.020   34
   161.22    44.14   197.98    -0.00     0.00    -0.00   0.020   35
   162.20    43.16   194.93    -0.00     0.00    -0.00   0.021   36
   162.20    44.14   195.94    -0.00     0.00    -0.00   0.020   37
   162.20    44.14   196.96    -0.00     0.00    -0.00   0.021   38
   161.22    44.14   195.94    -0.00     0.00    -0.00   0.020   39
   161.22    43.16   196.96    -0.00     0.00    -0.00   0.021   40
   161.22    45.12   195.94    -0.01     0.00     0.00   0.020   41
   161.22    43.16   195.94    -0.00     0.00     0.00   0.021   42
   161.22    45.12   196.96    -0.01     0.00    -0.00   0.020   43
   161.22    42.18   195.94    -0.01     0.00    -0.00   0.021   44
   160.24    43.16   195.94    -0.00     0.00    -0.00   0.020   45
   160.24    43.16   196.96    -0.01     0.00     0.00   0.021   46
   160.24    43.16   195.94    -0.01     0.00     0.00   0.020   47
   161.22    43.16   195.94    -0.00     0.00    -0.00   0.021   48
   161.22    44.14   197.98    -0.00     0.00    -0.00   0.020   49
   160.24    43.16   195.94    -0.00     0.00    -0.00   0.021   50
   161.22    42.18   195.94    -0.00     0.00    -0.00   0.020   51
   160.24    44.14   194.93    -0.00     0.00    -0.00   0.021   52
   161.22    44.14   195.94    -0.00     0.00    -0.00   0.020   53
   161.22    44.14   196.96    -0.00     0.00    -0.00   0.021   54
   162.20    43.16   195.94    -0.00     0.00    -0.00   0.020   55
   160.24    43.16   194.93    -0.00     0.00     0.00   0.021   56
   162.20    44.14   197.98    -0.00     0.00     0.00   0.020   57
   161.22    44.14   195.94    -0.00     0.00    -0.00   0.021   58
   161.22    42.18   195.94    -0.00     0.00    -0.00   0.020   59
   160.24    44.14   195.94    -0.00     0.00    -0.00   0.020   60
   161.22    44.14   194.93    -0.00     0.00    -0.00   0.021   61
   161.22    44.14   195.94    -0.00     0.00    -0.00   0.020   62
   161.22    45.12   197.98    -0.00     0.00    -0.00   0.021   63
   161.22    42.18   195.94    -0.00     0.00    -0.00   0.020   64
   162.20    42.18   194.93     0.00     0.00    -0.00   0.021   65
   161.22    44.14   194.93     0.00    -0.00    -0.00   0.020   66
   160.24    43.16   197.98     0.00    -0.00    -0.00   0.021   67
   160.24    44.14   195.94     0.00    -0.00    -0.00   0.020   68
   161.22    44.14   194.93    -0.00     0.00    -0.00   0.021   69
   161.22    44.14   195.94    -0.01     0.00    -0.00   0.020   70
   162.20    44.14   197.98    -0.01     0.00     0.00   0.021   71
   161.22    43.16   195.94    -0.01     0.00     0.00   0.020   72
   161.22    43.16   196.96    -0.01     0.00     0.00   0.021   73
   162.20    43.16   195.94    -0.00     0.00     0.00   0.020   74
   161.22    43.16   194.93    -0.00     0.00    -0.00   0.021   75
   161.22    43.16   196.96    -0.00    -0.00    -0.00   0.020   76
   161.22    43.16   195.94    -0.00    -0.00    -0.00   0.021   77
   161.22    43.16   196.96    -0.00     0.00    -0.00   0.020   78
   162.20    43.16   195.94    -0.00     0.00    -0.00   0.021   79
   160.24    44.14   195.94    -0.00     0.00    -0.00   0.020   80
   161.22    43.16   194.93    -0.00     0.00    -0.00   0.021   81
   161.22    44.14   196.96    -0.00     0.00     0.00   0.020   82
   162.20    44.14   195.94    -0.01     0.00     0.00   0.021   83
   162.20    44.14   196.96    -0.01     0.00     0.00   0.020   84
   162.20    42.18   196.96    -0.01     0.00     0.00   0.020   85
   161.22    43.16   195.94    -0.01     0.00     0.00   0.021   86
   162.20    43.16   196.96    -0.01     0.00     0.00   0.020   87
   161.22    44.14   196.96    -0.00     0.00     0.00   0.021   88
   161.22    43.16   195.94    -0.00     0.00    -0.00   0.020   89
   161.22    42.18   196.96    -0.00     0.00    -0.00   0.021   90
   161.22    44.14   196.96    -0.00     0.00    -0.00   0.020   91
   162.20    42.18   197.98    -0.00    -0.00    -0.00   0.021   92
   161.22    44.14   196.96    -0.00     0.00    -0.00   0.020   93
   161.22    43.16   195.94    -0.00     0.00    -0.00   0.021   94
   161.22    44.14   194.93    -0.00     0.00    -0.00   0.020   95
   162.20    44.14   196.96    -0.00     0.00    -0.00   0.021   96
   161.22    44.14   195.94    -0.01     0.00    -0.00   0.020   97
   161.22    44.14   195.94    -0.00     0.00    -0.00   0.021   98
   161.22    43.16   196.96    -0.00     0.00     0.00   0.020   99
   161.22    43.16   196.96    -0.00     0.00     0.00   0.021  100
   162.20    44.14   196.96    -0.00     0.00    -0.00   0.020  101
   161.22    43.16   196.96    -0.00     0.00    -0.00   0.021  102
   160.24    44.14   196.96    -0.00     0.00    -0.00   0.020  103
   163.18    43.16   195.94    -0.00     0.00    -0.00   0.021  104
   161.22    43.16   195.94    -0.00     0.00    -0.00   0.020  105
   161.22    44.14   196.96    -0.00     0.00    -0.00   0.021  106
   161.22    44.14   195.94    -0.00     0.00    -0.00   0.020  107
   161.22    44.14   195.94    -0.00     0.00    -0.00   0.021  108
   161.22    44.14   195.94    -0.00     0.00     0.00   0.020  109
   161.22    43.16   195.94    -0.00     0.00     0.00   0.020  110
   161.22    43.16   195.94    -0.00     0.00    -0.00   0.021  111
   162.20    44.14   196.96    -0.00     0.00    -0.00   0.020  112
   162.20    43.16   195.94    -0.00     0.00    -0.00   0.021  113
   161.22    43.16   196.96    -0.00     0.00    -0.00   0.020  114
   162.20    44.14   195.94    -0.00     0.00    -0.00   0.021  115
   160.24    44.14   194.93    -0.00     0.00    -0.00   0.020  116
   160.24    42.18   195.94    -0.00     0.00    -0.00   0.021  117
   160.24    44.14   195.94     0.00     0.00    -0.00   0.020  118
   161.22    43.16   195.94     0.00     0.00    -0.00   0.021  119
   162.20    43.16   197.98    -0.00     0.00    -0.00   0.020  120
   160.24    44.14   195.94    -0.00    -0.00    -0.00   0.021  121
   161.22    44.14   195.94    -0.00     0.00    -0.00   0.020  122
   162.20    45.12   194.93    -0.00     0.00    -0.00   0.021  123
   160.24    45.12   196.96    -0.00     0.00    -0.00   0.020  124
   161.22    44.14   194.93    -0.00     0.00     0.00   0.021  125
   161.22    45.12   195.94    -0.00     0.00     0.00   0.020  126
   160.24    44.14   196.96    -0.01     0.00     0.00   0.021  127
   162.20    43.16   194.93    -0.01     0.00     0.00   0.020  128
   162.20    44.14   196.96    -0.01     0.00     0.00   0.021  129
   161.22    43.16   196.96    -0.01     0.00     0.00   0.020  130
   160.24    43.16   196.96    -0.01     0.00     0.00   0.021  131
   160.24    44.14   197.98    -0.01     0.00     0.00   0.020  132
   160.24    43.16   194.93    -0.00     0.00     0.00   0.021  133
   161.22    44.14   195.94    -0.00     0.00    -0.00   0.020  134
   161.22    44.14   196.96    -0.00     0.00    -0.00   0.020  135
   161.22    43.16   196.96    -0.00     0.00    -0.00   0.021  136
   161.22    42.18   196.96    -0.00     0.00    -0.00   0.020  137
   161.22    43.16   195.94    -0.00     0.00    -0.00   0.021  138
   161.22    43.16   195.94    -0.00     0.00    -0.00   0.020  139
   162.20    43.16   196.96    -0.00     0.00     0.00   0.021  140
   162.20    44.14   196.96    -0.01     0.00     0.00   0.020  141
   161.22    43.16   194.93    -0.01     0.00     0.00   0.021  142
   163.18    44.14   197.98    -0.01     0.00     0.00   0.020  143
   162.20    43.16   194.93    -0.01     0.00     0.00   0.021  144
   160.24    42.18   196.96    -0.01     0.00     0.00   0.020  145
   162.20    42.18   196.96    -0.01     0.00     0.00   0.021  146
   161.22    42.18   194.93    -0.00     0.00    -0.00   0.020  147
   162.20    43.16   196.96    -0.00     0.00    -0.00   0.021  148
   161.22    43.16   197.98    -0.00     0.00    -0.00   0.020  149
   161.22    44.14   196.96    -0.00     0.00    -0.00   0.021  150
   160.24    42.18   197.98     0.00     0.00    -0.00   0.020  151
   161.22    44.14   196.96    -0.00     0.00    -0.00   0.021  152
   161.22    43.16   197.98    -0.00     0.00    -0.00   0.020  153
   161.22    43.16   195.94    -0.00     0.00    -0.00   0.021  154
   161.22    44.14   196.96    -0.00     0.00    -0.00   0.020  155
   161.22    43.16   195.94    -0.00     0.00    -0.00   0.021  156
   162.20    44.14   199.00    -0.00     0.00    -0.00   0.020  157
   161.22    44.14   194.93    -0.00     0.00    -0.00   0.021  158
   162.20    44.14   196.96    -0.00     0.00    -0.00   0.020  159
   161.22    43.16   195.94    -0.00     0.00    -0.00   0.020  160
   161.22    43.16   195.94    -0.00     0.00    -0.00   0.021  161
   160.24    45.12   196.96    -0.00     0.00    -0.00   0.020  162
   161.22    43.16   196.96    -0.00     0.00    -0.00   0.021  163
   160.24    44.14   196.96    -0.00     0.00    -0.00   0.020  164
   161.22    43.16   196.96    -0.00     0.00    -0.00   0.021  165
   161.22    42.18   195.94    -0.00     0.00    -0.00   0.020  166
   162.20    43.16   196.96    -0.00     0.00    -0.00   0.021  167
   162.20    43.16   196.96    -0.00     0.00     0.00   0.020  168
   160.24    43.16   196.96    -0.00     0.00    -0.00   0.021  169
   161.22    43.16   197.98    -0.00     0.00    -0.00   0.020  170
   161.22    43.16   196.96    -0.00     0.00     0.00   0.021  171
   162.20    42.18   195.94    -0.00     0.00    -0.00   0.020  172
   161.22    44.14   196.96    -0.00     0.00    -0.00   0.021  173
   162.20    43.16   195.94    -0.00     0.00    -0.00   0.020  174
   161.22    44.14   196.96    -0.00     0.00    -0.00   0.021  175
   161.22    43.16   196.96    -0.01     0.00     0.00   0.020  176
   160.24    43.16   195.94    -0.00     0.00    -0.00   0.021  177
   161.22    44.14   196.96    -0.00     0.00    -0.00   0.020  178
   160.24    42.18   196.96    -0.00     0.00    -0.00   0.021  179
   160.24    43.16   196.96    -0.00     0.00    -0.00   0.020  180
   162.20    44.14   195.94    -0.00     0.00    -0.00   0.021  181
   160.24    43.16   194.93    -0.00     0.00    -0.00   0.020  182
   161.22    43.16   196.96    -0.00     0.00     0.00   0.021  183
   161.22    44.14   194.93    -0.00     0.00    -0.00   0.020  184
   161.22    44.14   196.96    -0.00     0.00    -0.00   0.020  185
   161.22    43.16   195.94    -0.00     0.00     0.00   0.021  186
   160.24    43.16   194.93    -0.00     0.00    -0.00   0.020  187
   161.22    42.18   195.94    -0.00     0.00    -0.00   0.021  188
   162.20    42.18   195.94    -0.00     0.00    -0.00   0.020  189
   161.22    44.14   196.96    -0.00     0.00    -0.00   0.021  190
   161.22    42.18   196.96    -0.00     0.00    -0.00   0.020  191
   162.20    42.18   196.96    -0.00     0.00    -0.00   0.021  192
   161.22    43.16   195.94    -0.00     0.00    -0.00   0.020  193
   162.20    43.16   193.91    -0.00     0.00    -0.00   0.021  194
   161.22    43.16   194.93    -0.00     0.00    -0.00   0.020  195
   161.22    43.16   196.96    -0.00     0.00    -0.00   0.021  196
   161.22    44.14   196.96    -0.00     0.00    -0.00   0.020  197
   161.22    43.16   195.94    -0.00     0.00    -0.00   0.021  198
   160.24    42.18   193.91    -0.00     0.00    -0.00   0.020  199
   162.20    43.16   195.94    -0.00     0.00    -0.00   0.021  200
   160.24    43.16   194.93    -0.00     0.00    -0.00   0.020  201
   161.22    42.18   194.93    -0.00     0.00    -0.00   0.021  202
   160.24    43.16   196.96    -0.00     0.00    -0.00   0.020  203
   161.22    43.16   195.94    -0.00     0.00    -0.00   0.021  204
   162.20    44.14   196.96    -0.00     0.00    -0.00   0.020  205
   161.22    44.14   195.94    -0.00     0.00    -0.00   0.021  206
   160.24    42.18   193.91    -0.00     0.00    -0.00   0.020  207
   163.18    43.16   196.96    -0.00     0.00    -0.00   0.021  208
   161.22    43.16   195.94    -0.00     0.00     0.00   0.020  209
   161.22    43.16   195.94    -0.00     0.00    -0.00   0.020  210
   161.22    43.16   196.96    -0.00     0.00    -0.00   0.021  211
   160.24    43.16   196.96    -0.00     0.00    -0.00   0.020  212
   161.22    43.16   196.96    -0.00     0.00    -0.00   0.021  213
   162.20    44.14   195.94    -0.00     0.00    -0.00   0.020  214
   160.24    43.16   195.94    -0.00     0.00    -0.00   0.021  215
   161.22    43.16   196.96    -0.00     0.00    -0.00   0.020  216
   161.22    43.16   195.94    -0.00     0.00    -0.00   0.021  217
   161.22    42.18   195.94    -0.00     0.00    -0.00   0.020  218
   161.22    43.16   195.94    -0.00     0.00     0.00   0.021  219
   161.22    43.16   195.94    -0.00     0.00    -0.00   0.020  220
   161.22    43.16   196.96    -0.00     0.00    -0.00   0.021  221
   162.20    43.16   195.94    -0.00     0.00    -0.00   0.020  222
   162.20    43.16   196.96    -0.00     0.00     0.00   0.021  223
   161.22    44.14   195.94    -0.00     0.00    -0.00   0.020  224
   161.22    43.16   196.96    -0.00     0.00    -0.00   0.021  225
   160.24    43.16   196.96    -0.00     0.00    -0.00   0.020  226
   162.20    43.16   195.94    -0.00     0.00     0.00   0.021  227
   161.22    43.16   195.94    -0.00     0.00    -0.00   0.020  228
   162.20    42.18   195.94    -0.00     0.00    -0.00   0.021  229
   161.22    44.14   196.96    -0.00     0.00     0.00   0.020  230
   161.22    42.18   195.94    -0.00     0.00    -0.00   0.021  231
   161.22    44.14   196.96    -0.00     0.00    -0.00   0.020  232
   160.24    44.14   197.98    -0.00     0.00    -0.00   0.021  233
   161.22    44.14   195.94    -0.00     0.00    -0.00   0.020  234
   161.22    44.14   195.94    -0.00     0.00    -0.00   0.020  235
   160.24    42.18   194.93    -0.00     0.00    -0.00   0.021  236
   160.24    43.16   195.94    -0.00     0.00     0.00   0.020  237
   162.20    43.16   196.96    -0.00     0.00    -0.00   0.021  238
   162.20    44.14   196.96    -0.00     0.00    -0.00   0.020  239
   161.22    43.16   195.94    -0.00     0.00    -0.00   0.021  240
   161.22    43.16   197.98    -0.00     0.00    -0.00   0.020  241
   160.24    43.16   194.93    -0.00     0.00    -0.00   0.021  242
   160.24    43.16   194.93    -0.00     0.00    -0.00   0.020  243
   161.22    44.14   197.98    -0.00     0.00    -0.00   0.021  244
   161.22    44.14   196.96    -0.00     0.00    -0.00   0.020  245
   162.20    42.18   195.94    -0.00     0.00    -0.00   0.021  246
   163.18    42.18   195.94    -0.00     0.00    -0.00   0.020  247
   161.22    41.20   194.93    -0.00     0.00    -0.00   0.021  248
   162.20    43.16   196.96    -0.00     0.00    -0.00   0.020  249
   162.20    43.16   195.94    -0.00     0.00    -0.00   0.021  250
   161.22    44.14   195.94    -0.00     0.00    -0.00   0.020  251
   162.20    44.14   196.96    -0.00     0.00    -0.00   0.021  252
   161.22    42.18   195.94    -0.00     0.00    -0.00   0.020  253
   161.22    43.16   197.98    -0.00     0.00    -0.00   0.021  254
   162.20    44.14   197.98    -0.00     0.00     0.00   0.020  255
   162.20    43.16   196.96    -0.00     0.00    -0.00   0.021    0
   161.22    45.12   196.96    -0.00     0.00    -0.00   0.020    1
   162.20    44.14   194.93    -0.00     0.00    -0.00   0.021    2
   161.22    43.16   195.94    -0.00     0.00    -0.00   0.020    3
   161.22    43.16   196.96    -0.00     0.00    -0.00   0.020    4
   160.24    43.16   195.94    -0.00     0.00    -0.00   0.021    5
   161.22    43.16   196.96    -0.00     0.00    -0.00   0.020    6
   161.22    43.16   196.96    -0.00     0.00    -0.00   0.021    7
   160.24    44.14   196.96    -0.00     0.00    -0.00   0.020    8
   161.22    45.12   199.00    -0.00     0.00    -0.00   0.021    9
   161.22    44.14   196.96    -0.00     0.00     0.00   0.020   10
   161.22    44.14   197.98    -0.00     0.00    -0.00   0.021   11
   162.20    43.16   197.98    -0.00     0.00     0.00   0.020   12
   160.24    43.16   195.94    -0.00     0.00    -0.00   0.021   13
   161.22    43.16   196.96    -0.00     0.00    -0.00   0.020   14
   162.20    43.16   196.96    -0.00     0.00    -0.00   0.021   15
   161.22    43.16   196.96    -0.00     0.00    -0.00   0.020   16
   161.22    43.16   196.96    -0.00     0.00    -0.00   0.021   17
   160.24    44.14   194.93    -0.00     0.00    -0.00   0.020   18
   160.24    43.16   195.94    -0.00     0.00    -0.00   0.021   19
   161.22    44.14   196.96    -0.00     0.00    -0.00   0.020   20
   161.22    43.16   196.96    -0.00     0.00    -0.00   0.021   21
   161.22    43.16   196.96    -0.00     0.00    -0.00   0.020   22
   161.22    42.18   195.94    -0.00     0.00    -0.00   0.021   23
   161.22    43.16   196.96    -0.00     0.00    -0.00   0.020   24
   163.18    44.14   196.96    -0.00     0.00    -0.00   0.021   25
   161.22    44.14   196.96    -0.00     0.00    -0.00   0.020   26
   161.22    43.16   196.96    -0.00     0.00    -0.00   0.021   27
   161.22    43.16   196.96    -0.00     0.00    -0.00   0.020   28
   161.22    44.14   196.96    -0.00     0.00    -0.00   0.020   29
   162.20    43.16   196.96    -0.00     0.00    -0.00   0.021   30
   161.22    42.18   196.96    -0.00     0.00    -0.00   0.020   31
   159.27    43.16   195.94    -0.00     0.00    -0.00   0.021   32
   160.24    44.14   196.96    -0.00     0.00     0.00   0.020   33
   161.22    42.18   194.93    -0.00     0.00     0.00   0.021   34
   162.20    43.16   195.94    -0.00     0.00    -0.00   0.020   35
   162.20    44.14   197.98    -0.00     0.00    -0.00   0.021   36
   161.22    42.18   196.96    -0.00     0.00    -0.00   0.020   37
   161.22    44.14   195.94    -0.00     0.00    -0.00   0.021   38
   161.22    43.16   197.98    -0.00     0.00    -0.00   0.020   39
   162.20    44.14   196.96    -0.00     0.00    -0.00   0.021   40
   162.20    44.14   196.96    -0.00     0.00    -0.00   0.020   41
   161.22    44.14   194.93    -0.00     0.00    -0.00   0.021   42
   161.22    43.16   196.96    -0.00     0.00    -0.00   0.020   43
   161.22    43.16   196.96    -0.00     0.00    -0.00   0.021   44
   161.22    44.14   196.96    -0.00     0.00    -0.00   0.020   45
   162.20    44.14   196.96    -0.00     0.00    -0.00   0.021   46
   162.20    43.16   195.94    -0.00     0.00    -0.00   0.020   47
   162.20    44.14   195.94    -0.00     0.00    -0.00   0.021   48
   162.20    43.16   195.94    -0.00     0.00    -0.00   0.020   49
   160.24    42.18   195.94    -0.00     0.00    -0.00   0.021   50
   160.24    43.16   195.94    -0.00     0.00     0.00   0.020   51
   162.20    43.16   196.96    -0.00     0.00    -0.00   0.021   52
   161.22    42.18   196.96    -0.00     0.00    -0.00   0.020   53
   162.20    43.16   195.94    -0.00     0.00    -0.00   0.020   54
   162.20    43.16   195.94    -0.00     0.00    -0.00   0.021   55
   162.20    44.14   196.96    -0.00     0.00    -0.00   0.020   56
   162.20    44.14   199.00    -0.00     0.00    -0.00   0.021   57
   163.18    44.14   197.98    -0.00     0.00     0.00   0.020   58
   161.22    42.18   196.96    -0.00     0.00    -0.00   0.021   59
   161.22    44.14   195.94    -0.00     0.00    -0.00   0.020   60
   162.20    43.16   196.96    -0.00     0.00    -0.00   0.021   61
   160.24    43.16   199.00    -0.00     0.00    -0.00   0.020   62
   161.22    44.14   196.96    -0.00     0.00     0.00   0.021   63
   161.22    42.18   195.94    -0.00     0.00     0.00   0.020   64
   160.24    43.16   195.94    -0.01     0.00    -0.00   0.021   65
   162.20    43.16   196.96    -0.00     0.00    -0.00   0.020   66
   162.20    43.16   195.94    -0.00     0.00    -0.00   0.021   67
   162.20    42.18   197.98    -0.00     0.00     0.00   0.020   68
   161.22    42.18   196.96    -0.00     0.00    -0.00   0.021   69
   160.24    44.14   196.96    -0.00     0.00    -0.00   0.020   70
   161.22    43.16   196.96    -0.00     0.00    -0.00   0.021   71
   160.24    43.16   197.98    -0.00     0.00    -0.00   0.020   72
   161.22    43.16   196.96    -0.00     0.00    -0.00   0.021   73
   163.18    44.14   197.98    -0.00     0.00    -0.00   0.020   74
   162.20    43.16   196.96    -0.00     0.00    -0.00   0.021   75
   161.22    44.14   196.96    -0.00     0.00    -0.00   0.020   76
   161.22    43.16   197.98    -0.00     0.00    -0.00   0.021   77
   162.20    43.16   195.94    -0.00     0.00    -0.00   0.020   78
   162.20    42.18   197.98    -0.00     0.00    -0.00   0.020   79
   160.24    42.18   195.94    -0.00     0.00    -0.00   0.021   80
   161.22    42.18   195.94    -0.00     0.00    -0.00   0.020   81
   161.22    44.14   196.96    -0.00     0.00     0.00   0.021   82
   160.24    43.16   194.93    -0.00     0.00    -0.00   0.020   83
   162.20    43.16   195.94    -0.00     0.00    -0.00   0.021   84
   161.22    44.14   196.96    -0.00     0.00     0.00   0.020   85
   161.22    43.16   195.94    -0.00     0.00    -0.00   0.021   86
   161.22    43.16   196.96    -0.00     0.00     0.00   0.020   87
   160.24    43.16   195.94    -0.00     0.00    -0.00   0.021   88
   161.22    42.18   195.94    -0.00     0.00    -0.00   0.020   89
   162.20    42.18   196.96    -0.00     0.00    -0.00   0.021   90
   163.18    44.14   196.96    -0.00     0.00    -0.00   0.020   91
   161.22    42.18   195.94    -0.00     0.00     0.00   0.021   92
   162.20    43.16   196.96    -0.00     0.00    -0.00   0.020   93
   161.22    43.16   194.93    -0.00     0.00    -0.00   0.021   94
   161.22    44.14   196.96    -0.00     0.00    -0.00   0.020   95
   161.22    43.16   195.94    -0.00     0.00    -0.00   0.021   96
   162.20    43.16   196.96    -0.00     0.00    -0.00   0.020   97
   162.20    43.16   196.96    -0.00     0.00    -0.00   0.021   98
   162.20    45.12   196.96    -0.00     0.00    -0.00   0.020   99
   161.22    43.16   196.96    -0.00     0.00    -0.00   0.021  100
   161.22    43.16   195.94    -0.00     0.00    -0.00   0.020  101
   162.20    43.16   197.98    -0.00     0.00    -0.00   0.021  102
   161.22    42.18   195.94    -0.00     0.00    -0.00   0.020  103
   162.20    44.14   196.96    -0.00     0.00    -0.00   0.020  104
   161.22    43.16   195.94    -0.00     0.00    -0.00   0.021  105
   161.22    42.18   195.94    -0.00     0.00    -0.00   0.020  106
   164.15    43.16   195.94    -0.00     0.00     0.00   0.021  107
   162.20    42.18   197.98    -0.00     0.00     0.00   0.020  108
   161.22    44.14   195.94    -0.00     0.00    -0.00   0.021  109
   161.22    43.16   196.96    -0.00     0.00    -0.00   0.020  110
   161.22    42.18   195.94    -0.00     0.00    -0.00   0.021  111
   162.20    43.16   196.96    -0.00     0.00    -0.00   0.020  112
   163.18    43.16   195.94    -0.00     0.00    -0.00   0.021  113
   161.22    43.16   195.94    -0.00     0.00    -0.00   0.020  114
   162.20    42.18   195.94    -0.00     0.00    -0.00   0.021  115
   160.24    44.14   196.96    -0.00     0.00    -0.00   0.020  116
   161.22    44.14   197.98    -0.00     0.00    -0.00   0.021  117
   163.18    44.14   196.96    -0.00     0.00    -0.00   0.020  118
   162.20    43.16   196.96    -0.00     0.00    -0.00   0.021  119
   161.22    43.16   195.94    -0.00     0.00    -0.00   0.020  120
   161.22    43.16   195.94    -0.00     0.00    -0.00   0.021  121
   161.22    43.16   195.94    -0.00     0.00    -0.00   0.020  122
   162.20    42.18   196.96    -0.00     0.00    -0.00   0.021  123
   162.20    42.18   197.98    -0.00     0.00    -0.00   0.020  124
   160.24    42.18   195.94    -0.00     0.00    -0.00   0.021  125
   162.20    43.16   196.96    -0.00     0.00     0.00   0.020  126
   162.20    43.16   197.98    -0.00     0.00    -0.00   0.021  127
   163.18    43.16   196.96    -0.00     0.00    -0.00   0.020  128
   162.20    43.16   196.96    -0.00     0.00    -0.00   0.020  129
   161.22    43.16   197.98    -0.00     0.00     0.00   0.021  130
   161.22    43.16   196.96    -0.00     0.00    -0.00   0.020  131
   161.22    44.14   196.96    -0.00     0.00    -0.00   0.021  132
   159.27    43.16   194.93    -0.00     0.00    -0.00   0.020  133
   161.22    42.18   195.94    -0.00     0.00     0.00   0.021  134
   162.20    43.16   196.96    -0.00     0.00    -0.00   0.020  135
   161.22    43.16   196.96    -0.00     0.00    -0.00   0.021  136
   161.22    42.18   194.93    -0.00     0.00    -0.00   0.020  137
   160.24    44.14   195.94    -0.00     0.00    -0.00   0.021  138
   161.22    43.16   195.94    -0.00     0.00    -0.00   0.020  139
   161.22    43.16   196.96    -0.00     0.00    -0.00   0.021  140
   161.22    41.20   195.94    -0.00     0.00    -0.00   0.020  141
   161.22    43.16   195.94    -0.00     0.00    -0.00   0.021  142
   162.20    43.16   197.98    -0.00     0.00    -0.00   0.020  143
   161.22    43.16   196.96    -0.00     0.00     0.00   0.021  144
   161.22    42.18   196.96    -0.00     0.00    -0.00   0.020  145
   162.20    43.16   197.98    -0.00     0.00    -0.00   0.021  146
   161.22    43.16   197.98    -0.00     0.00    -0.00   0.020  147
   161.22    42.18   197.98    -0.00     0.00    -0.00   0.021  148
   161.22    43.16   195.94    -0.00     0.00    -0.00   0.020  149
   160.24    43.16   196.96    -0.00     0.00    -0.00   0.021  150
   162.20    43.16   195.94    -0.00     0.00    -0.00   0.020  151
   162.20    41.20   197.98    -0.00     0.00    -0.00   0.021  152
   160.24    43.16   195.94    -0.00     0.00    -0.00   0.020  153
   161.22    44.14   195.94    -0.00     0.00    -0.00   0.020  154
   163.18    42.18   196.96    -0.00     0.00    -0.00   0.021  155
   161.22    42.18   196.96    -0.00     0.00    -0.00   0.020  156
   161.22    43.16   196.96    -0.00     0.00    -0.00   0.021  157
   161.22    44.14   197.98    -0.00     0.00    -0.00   0.020  158
   162.20    42.18   196.96    -0.00     0.00    -0.00   0.021  159
   161.22    44.14   196.96    -0.00     0.00    -0.00   0.020  160
   162.20    44.14   195.94    -0.00     0.00    -0.00   0.021  161
   161.22    43.16   196.96    -0.00     0.00    -0.00   0.020  162
   162.20    44.14   197.98    -0.00     0.00    -0.00   0.021  163
   161.22    42.18   194.93    -0.00     0.00    -0.00   0.020  164
   161.22    43.16   195.94    -0.00     0.00    -0.00   0.021  165
   162.20    43.16   195.94    -0.00     0.00    -0.00   0.020  166
   161.22    42.18   195.94    -0.00     0.00    -0.00   0.021  167
   161.22    42.18   196.96    -0.00     0.00    -0.00   0.020  168
   162.20    42.18   193.91    -0.00     0.00    -0.00   0.021  169
   162.20    43.16   195.94    -0.00     0.00    -0.00   0.020  170
   161.22    43.16   196.96    -0.00     0.00    -0.00   0.021  171
   161.22    45.12   196.96    -0.00     0.00    -0.00   0.020  172
   160.24    44.14   196.96    -0.00     0.00    -0.00   0.021  173
   162.20    44.14   196.96    -0.00     0.00    -0.00   0.020  174
   160.24    45.12   196.96    -0.00     0.00    -0.00   0.021  175
   162.20    43.16   195.94    -0.00     0.00    -0.00   0.020  176
   162.20    44.14   196.96    -0.00     0.00    -0.00   0.021  177
   161.22    43.16   196.96    -0.00     0.00    -0.00   0.020  178
   161.22    43.16   195.94    -0.00     0.00    -0.00   0.020  179
   161.22    43.16   196.96    -0.00     0.00     0.00   0.021  180
   161.22    43.16   195.94    -0.00     0.00    -0.00   0.020  181
   162.20    44.14   197.98    -0.00     0.00    -0.00   0.021  182
   161.22    45.12   196.96    -0.00     0.00     0.00   0.020  183
   162.20    43.16   196.96    -0.00     0.00     0.00   0.021  184
   162.20    43.16   196.96    -0.00     0.00    -0.00   0.020  185
   161.22    43.16   196.96    -0.00     0.00    -0.00   0.021  186
   162.20    43.16   195.94    -0.00     0.00    -0.00   0.020  187
   163.18    43.16   196.96    -0.00     0.00    -0.00   0.021  188
   160.24    43.16   197.98    -0.00     0.00    -0.00   0.020  189
   162.20    43.16   199.00    -0.00     0.00    -0.00   0.021  190
   161.22    43.16   196.96    -0.00     0.00     0.00   0.020  191
   162.20    42.18   195.94    -0.00     0.00    -0.00   0.021  192
   162.20    42.18   195.94    -0.00     0.00    -0.00   0.020  193
   160.24    42.18   196.96    -0.00     0.00    -0.00   0.021  194
   161.22    43.16   196.96    -0.00     0.00    -0.00   0.020  195
   161.22    43.16   195.94    -0.00     0.00    -0.00   0.021  196
   160.24    42.18   195.94    -0.00     0.00    -0.00   0.020  197
   161.22    42.18   197.98    -0.00     0.00    -0.00   0.021  198
   161.22    42.18   196.96    -0.00     0.00    -0.00   0.020  199
   161.22    43.16   196.96    -0.00     0.00    -0.00   0.021  200
   162.20    43.16   197.98    -0.00     0.00    -0.00   0.020  201
   161.22    43.16   197.98    -0.00     0.00    -0.00   0.021  202
   162.20    43.16   196.96    -0.00     0.00    -0.00   0.020  203
   162.20    44.14   199.00    -0.00     0.00    -0.00   0.020  204
   161.22    44.14   196.96    -0.00     0.00    -0.00   0.021  205
   162.20    42.18   199.00    -0.00     0.00    -0.00   0.020  206
   162.20    43.16   196.96    -0.00     0.00    -0.00   0.021  207
   162.20    44.14   195.94    -0.00     0.00    -0.00   0.020  208
   162.20    43.16   197.98    -0.00     0.00    -0.00   0.021  209
   161.22    44.14   195.94    -0.00     0.00    -0.00   0.020  210
   161.22    43.16   197.98    -0.00     0.00    -0.00   0.021  211
   161.22    44.14   196.96    -0.00     0.00     0.00   0.020  212
   161.22    42.18   195.94    -0.00     0.00    -0.00   0.021  213
   162.20    43.16   196.96    -0.00     0.00    -0.00   0.020  214
   162.20    43.16   196.96    -0.00     0.00    -0.00   0.021  215
   161.22    44.14   196.96    -0.00     0.00    -0.00   0.020  216
   160.24    43.16   195.94    -0.00     0.00    -0.00   0.021  217
   160.24    44.14   195.94    -0.00     0.00     0.00   0.020  218
   160.24    44.14   196.96    -0.00     0.00    -0.00   0.021  219
   162.20    42.18   197.98    -0.00     0.00    -0.00   0.020  220
   161.22    44.14   195.94    -0.00     0.00    -0.00   0.021  221
   160.24    43.16   196.96    -0.00     0.00    -0.00   0.020  222
   161.22    43.16   197.98    -0.00     0.00    -0.00   0.021  223
   161.22    43.16   196.96    -0.00     0.00    -0.00   0.020  224
   162.20    43.16   199.00    -0.00     0.00    -0.00   0.021  225
   162.20    43.16   197.98    -0.00     0.00     0.00   0.020  226
   162.20    43.16   195.94    -0.00     0.00    -0.00   0.021  227
   161.22    42.18   197.98    -0.00     0.00    -0.00   0.020  228
   160.24    43.16   195.94    -0.00     0.00    -0.00   0.020  229
   162.20    43.16   196.96    -0.00     0.00     0.00   0.021  230
   161.22    43.16   196.96    -0.00     0.00    -0.00   0.020  231
   161.22    43.16   195.94    -0.00     0.00    -0.00   0.021  232
   161.22    42.18   196.96    -0.00     0.00    -0.00   0.020  233
   160.24    43.16   196.96    -0.00     0.00    -0.00   0.021  234
   161.22    43.16   196.96    -0.00     0.00     0.00   0.020  235
   162.20    43.16   196.96    -0.00     0.00     0.00   0.021  236
   161.22    43.16   195.94    -0.00     0.00    -0.00   0.020  237
   160.24    42.18   196.96    -0.00     0.00     0.00   0.021  238
   160.24    44.14   196.96    -0.00     0.00    -0.00   0.020  239
   161.22    42.18   196.96    -0.00     0.00    -0.00   0.021  240
   162.20    43.16   196.96    -0.00     0.00     0.00   0.020  241
   161.22    43.16   197.98    -0.00     0.00    -0.00   0.021  242
   161.22    43.16   195.94    -0.00     0.00    -0.00   0.020  243
   162.20    43.16   196.96    -0.00     0.00    -0.00   0.021  244
   161.22    43.16   195.94    -0.00     0.00     0.00   0.020  245
   160.24    42.18   195.94    -0.00     0.00    -0.00   0.021  246
   161.22    43.16   195.94    -0.00     0.00    -0.00   0.020  247
   161.22    42.18   194.93    -0.00    -0.00    -0.00   0.021  248
   160.24    43.16   195.94    -0.00     0.00    -0.00   0.020  249
   162.20    43.16   196.96    -0.00     0.00    -0.00   0.021  250
   161.22    42.18   195.94    -0.00     0.00    -0.00   0.020  251
   162.20    42.18   196.96    -0.00     0.00    -0.00   0.021  252
   160.24    44.14   195.94    -0.00     0.00    -0.00   0.020  253
   161.22    43.16   196.96    -0.00     0.00    -0.00   0.020  254
   161.22    43.16   195.94    -0.00     0.00    -0.00   0.021  255
   161.22    43.16   196.96    -0.00     0.00    -0.00   0.020    0
   161.22    42.18   197.98    -0.00     0.00     0.00   0.021    1
   162.20    43.16   196.96    -0.00     0.00    -0.00   0.020    2
   161.22    42.18   195.94    -0.00     0.00    -0.00   0.021    3
   163.18    43.16   196.96    -0.00     0.00    -0.00   0.020    4
   161.22    43.16   195.94    -0.00     0.00     0.00   0.021    5
   161.22    43.16   196.96    -0.00     0.00    -0.00   0.020    6
   162.20    43.16   196.96    -0.00     0.00    -0.00   0.021    7
   161.22    42.18   195.94    -0.00     0.00    -0.00   0.020    8
   161.22    43.16   196.96    -0.00     0.00    -0.00   0.021    9
   163.18    43.16   195.94    -0.00     0.00    -0.00   0.020   10
   161.22    43.16   195.94    -0.00     0.00    -0.00   0.021   11
   162.20    42.18   195.94    -0.00     0.00    -0.00   0.020   12
   161.22    43.16   196.96    -0.00     0.00    -0.00   0.021   13
   160.24    43.16   199.00    -0.00     0.00    -0.00   0.020   14
   161.22    44.14   196.96    -0.00     0.00    -0.00   0.021   15
   162.20    43.16   196.96    -0.00     0.00    -0.00   0.020   16
   160.24    43.16   194.93    -0.00     0.00    -0.00   0.021   17
   162.20    42.18   196.96    -0.00     0.00    -0.00   0.020   18
   160.24    43.16   195.94    -0.00     0.00    -0.00   0.021   19
   162.20    43.16   196.96    -0.00     0.00    -0.00   0.020   20
   162.20    44.14   195.94    -0.00     0.00    -0.00   0.021   21
   161.22    43.16   195.94    -0.00     0.00    -0.00   0.020   22
   162.20    42.18   195.94    -0.00     0.00    -0.00   0.020   23
   161.22    42.18   196.96    -0.00     0.00    -0.00   0.021   24
   161.22    42.18   196.96    -0.00     0.00     0.00   0.020   25
   162.20    44.14   195.94    -0.00     0.00    -0.00   0.021   26
   161.22    42.18   195.94    -0.00     0.00    -0.00   0.020   27
   162.20    42.18   197.98    -0.00     0.00     0.00   0.021   28
   162.20    43.16   195.94    -0.00     0.00     0.00   0.020   29
   161.22    43.16   197.98    -0.00     0.00     0.00   0.021   30
   162.20    44.14   197.98    -0.00     0.00    -0.00   0.020   31
   161.22    42.18   196.96    -0.00     0.00    -0.00   0.021   32
   162.20    42.18   196.96    -0.00     0.00    -0.00   0.020   33
   160.24    44.14   196.96    -0.00     0.00    -0.00   0.021   34
   161.22    43.16   197.98    -0.00     0.00    -0.00   0.020   35
   162.20    43.16   197.98    -0.00     0.00    -0.00   0.021   36
   161.22    44.14   197.98    -0.00     0.00     0.00   0.020   37
   161.22    45.12   196.96    -0.00     0.00    -0.00   0.021   38
   162.20    44.14   195.94    -0.00     0.00    -0.00   0.020   39
   162.20    43.16   197.98    -0.00     0.00    -0.00   0.021   40
   162.20    43.16   197.98    -0.00     0.00    -0.00   0.020   41
   162.20    43.16   196.96    -0.00     0.00    -0.00   0.021   42
   161.22    43.16   197.98    -0.00     0.00    -0.00   0.020   43
   161.22    43.16   196.96    -0.00     0.00    -0.00   0.021   44
   161.22    42.18   196.96    -0.00     0.00    -0.00   0.020   45
   162.20    43.16   196.96    -0.00     0.00    -0.00   0.021   46
   160.24    43.16   196.96    -0.00     0.00     0.00   0.020   47
   161.22    42.18   196.96    -0.00     0.00    -0.00   0.020   48
   161.22    43.16   196.96    -0.00     0.00    -0.00   0.021   49
   161.22    42.18   196.96    -0.00     0.00    -0.00   0.020   50
   162.20    42.18   196.96    -0.00     0.00    -0.00   0.021   51
   161.22    42.18   197.98    -0.00     0.00    -0.00   0.020   52
   160.24    44.14   195.94    -0.00     0.00     0.00   0.021   53
   161.22    42.18   195.94    -0.00     0.00    -0.00   0.020   54
   161.22    44.14   196.96    -0.00     0.00    -0.00   0.021   55
   162.20    42.18   197.98    -0.00     0.00     0.00   0.020   56
   162.20    42.18   196.96    -0.00     0.00    -0.00   0.021   57
   162.20    43.16   199.00    -0.00     0.00    -0.00   0.020   58
   160.24    42.18   194.93    -0.00     0.00    -0.00   0.021   59
   163.18    43.16   195.94    -0.00     0.00    -0.00   0.020   60
   161.22    43.16   196.96    -0.00     0.00    -0.00   0.021   61
   161.22    42.18   195.94    -0.00     0.00    -0.00   0.020   62
   162.20    43.16   196.96    -0.00     0.00    -0.00   0.021   63
   160.24    43.16   195.94    -0.00     0.00    -0.00   0.020   64
   161.22    42.18   195.94    -0.00     0.00     0.00   0.021   65
   162.20    43.16   199.00    -0.00     0.00    -0.00   0.020   66
   160.24    42.18   196.96    -0.00     0.00    -0.00   0.021   67
   161.22    43.16   196.96    -0.00     0.00    -0.00   0.020   68
   163.18    43.16   196.96    -0.00     0.00    -0.00   0.021   69
   162.20    43.16   196.96    -0.00     0.00     0.00   0.020   70
   161.22    42.18   196.96    -0.00     0.00    -0.00   0.021   71
   162.20    43.16   197.98    -0.00     0.00    -0.00   0.020   72
   161.22    43.16   197.98    -0.00     0.00    -0.00   0.020   73
   162.20    42.18   196.96    -0.00     0.00    -0.00   0.021   74
   161.22    43.16   196.96    -0.00     0.00    -0.00   0.020   75
   161.22    42.18   195.94    -0.00     0.00    -0.00   0.021   76
   161.22    43.16   195.94    -0.00     0.00    -0.00   0.020   77
   160.24    43.16   195.94    -0.00     0.00    -0.00   0.021   78
   161.22    44.14   196.96    -0.00     0.00    -0.00   0.020   79
   162.20    42.18   197.98    -0.00     0.00     0.00   0.021   80
   161.22    44.14   196.96    -0.00     0.00    -0.00   0.020   81
   160.24    42.18   196.96    -0.00     0.00    -0.00   0.021   82
   162.20    43.16   196.96    -0.00     0.00    -0.00   0.020   83
   162.20    43.16   197.98    -0.00     0.00    -0.00   0.021   84
   162.20    42.18   195.94    -0.00     0.00    -0.00   0.020   85
   161.22    42.18   195.94    -0.00     0.00    -0.00   0.021   86
   162.20    43.16   196.96    -0.00     0.00    -0.00   0.020   87
   161.22    43.16   195.94    -0.00     0.00    -0.00   0.021   88
   162.20    43.16   197.98    -0.00     0.00     0.00   0.020   89
   162.20    42.18   196.96    -0.00     0.00     0.00   0.021   90
   162.20    42.18   196.96    -0.00     0.00    -0.00   0.020   91
   162.20    43.16   196.96    -0.00     0.00    -0.00   0.021   92
   161.22    42.18   195.94    -0.00     0.00    -0.00   0.020   93
   160.24    44.14   197.98    -0.00     0.00    -0.00   0.021   94
   161.22    44.14   196.96    -0.00     0.00     0.00   0.020   95
   162.20    42.18   196.96    -0.00     0.00     0.00   0.021   96
   162.20    43.16   196.96    -0.00     0.00    -0.00   0.020   97
   161.22    42.18   197.98    -0.00     0.00     0.00   0.020   98
   162.20    42.18   196.96    -0.00     0.00    -0.00   0.021   99
   161.22    44.14   196.96    -0.00     0.00    -0.00   0.020  100
   161.22    44.14   195.94    -0.00     0.00    -0.00   0.021  101
   161.22    43.16   195.94    -0.00     0.00    -0.00   0.020  102
   161.22    43.16   199.00    -0.00     0.00    -0.00   0.021  103
   161.22    42.18   194.93    -0.00     0.00    -0.00   0.020  104
   161.22    43.16   196.96    -0.00     0.00     0.00   0.021  105
   162.20    42.18   195.94    -0.00     0.00    -0.00   0.020  106
   162.20    43.16   197.98    -0.00     0.00    -0.00   0.021  107
   162.20    44.14   199.00    -0.00     0.00    -0.00   0.020  108
   161.22    43.16   196.96    -0.00     0.00     0.00   0.021  109
   161.22    42.18   196.96    -0.00     0.00    -0.00   0.020  110
   162.20    43.16   196.96    -0.00     0.00     0.00   0.021  111
   161.22    42.18   197.98    -0.00     0.00     0.00   0.020  112
   161.22    43.16   197.98    -0.00     0.00     0.00   0.021  113
   162.20    43.16   199.00    -0.00     0.00    -0.00   0.020  114
   161.22    42.18   194.93    -0.00     0.00    -0.00   0.021  115
   162.20    43.16   195.94    -0.00     0.00    -0.00   0.020  116
   161.22    43.16   196.96    -0.00     0.00    -0.00   0.021  117
   162.20    43.16   196.96    -0.00     0.00    -0.00   0.020  118
   161.22    43.16   195.94    -0.00     0.00    -0.00   0.021  119
   161.22    44.14   196.96    -0.00     0.00    -0.00   0.020  120
   161.22    43.16   195.94    -0.00     0.00    -0.00   0.021  121
   162.20    43.16   197.98    -0.00     0.00    -0.00   0.020  122
   162.20    43.16   194.93    -0.00     0.00    -0.00   0.020  123
   161.22    42.18   196.96    -0.00     0.00     0.00   0.021  124
   161.22    43.16   197.98    -0.00     0.00    -0.00   0.020  125
   161.22    42.18   197.98    -0.00     0.00    -0.00   0.021  126
   161.22    43.16   196.96    -0.00     0.00     0.00   0.020  127
   161.22    42.18   196.96    -0.00     0.00    -0.00   0.021  128
   162.20    43.16   197.98    -0.00     0.00    -0.00   0.020  129
   161.22    43.16   197.98    -0.00     0.00    -0.00   0.021  130
   162.20    42.18   195.94    -0.00     0.00    -0.00   0.020  131
   161.22    44.14   195.94    -0.00     0.00    -0.00   0.021  132
   161.22    43.16   196.96    -0.00     0.00    -0.00   0.020  133
   161.22    44.14   197.98    -0.00     0.00    -0.00   0.021  134
   161.22    43.16   197.98    -0.00     0.00    -0.00   0.020  135
   162.20    43.16   196.96    -0.00     0.00    -0.00   0.021  136
   161.22    43.16   197.98    -0.00     0.00     0.00   0.020  137
   160.24    41.20   195.94    -0.00     0.00    -0.00   0.021  138
   160.24    43.16   199.00    -0.00     0.00    -0.00   0.020  139
   162.20    43.16   197.98    -0.00     0.00    -0.00   0.021  140
   161.22    43.16   196.96    -0.00     0.00     0.00   0.020  141
   162.20    43.16   196.96    -0.00     0.00    -0.00   0.021  142
   162.20    42.18   196.96    -0.00     0.00    -0.00   0.020  143
   161.22    43.16   195.94    -0.00     0.00    -0.00   0.021  144
   161.22    43.16   196.96    -0.00     0.00     0.00   0.020  145
   162.20    42.18   197.98    -0.00     0.00    -0.00   0.021  146
   161.22    44.14   197.98    -0.00     0.00    -0.00   0.020  147
