   177.83    38.25   178.64    -0.00     0.00    -0.01   0.021    0
   179.79    38.25   179.66    -0.00     0.00    -0.00   0.020    1
   179.79    37.27   178.64    -0.00     0.00    -0.00   0.021    2
   177.83    38.25   178.64    -0.00     0.01    -0.00   0.020    3
   178.81    37.27   177.62    -0.00     0.00    -0.01   0.021    4
   178.81    38.25   178.64    -0.00     0.00    -0.00   0.020    5
   178.81    39.23   177.62    -0.00     0.00    -0.00   0.021    6
   177.83    37.27   177.62    -0.00     0.00    -0.00   0.020    7
   177.83    38.25   179.66    -0.00     0.00    -0.00   0.021    8
   179.79    37.27   179.66    -0.00     0.00    -0.00   0.020    9
   179.79    38.25   179.66    -0.00     0.00    -0.00   0.021   10
   178.81    37.27   178.64    -0.00     0.00    -0.00   0.020   11
   178.81    39.23   178.64    -0.00     0.00    -0.00   0.021   12
   178.81    37.27   179.66    -0.00     0.00    -0.01   0.020   13
   178.81    37.27   179.66    -0.00     0.00    -0.00   0.021   14
   178.81    38.25   178.64    -0.00     0.00    -0.00   0.020   15
   180.76    37.27   179.66    -0.00     0.00    -0.00   0.020   16
   178.81    38.25   177.62    -0.00     0.00    -0.00   0.021   17
   178.81    37.27   178.64    -0.00     0.00    -0.00   0.020   18
   177.83    39.23   179.66    -0.00     0.00    -0.00   0.021   19
   177.83    38.25   179.66    -0.00     0.00    -0.00   0.020   20
   178.81    38.25   179.66    -0.00     0.00    -0.01   0.021   21
   179.79    37.27   179.66    -0.00     0.00    -0.00   0.020   22
   179.79    38.25   178.64    -0.00     0.00    -0.00   0.021   23
   179.79    37.27   179.66    -0.00     0.00    -0.01   0.020   24
   178.81    37.27   178.64    -0.00     0.00    -0.01   0.021   25
   180.76    38.25   179.66    -0.00     0.01    -0.00   0.020   26
   179.79    38.25   178.64    -0.00     0.00    -0.00   0.021   27
   178.81    38.25   178.64    -0.01     0.00    -0.00   0.020   28
   178.81    39.23   179.66    -0.01     0.00    -0.00   0.021   29
   178.81    36.29   178.64    -0.00     0.00    -0.00   0.020   30
   179.79    38.25   179.66    -0.01     0.01    -0.00   0.021   31
   179.79    38.25   179.66    -0.00     0.00    -0.00   0.020   32
   179.79    37.27   178.64    -0.00     0.00    -0.00   0.021   33
   178.81    37.27   178.64    -0.00     0.00    -0.01   0.020   34
   178.81    37.27   179.66    -0.00     0.00    -0.00   0.021   35
   178.81    38.25   179.66    -0.00     0.00    -0.00   0.020   36
   178.81    38.25   178.64    -0.00     0.00    -0.00   0.021   37
   177.83    38.25   178.64    -0.00     0.00    -0.00   0.020   38
   179.79    37.27   177.62    -0.00     0.00    -0.00   0.021   39
   179.79    38.25   179.66    -0.00     0.00    -0.00   0.020   40
   180.76    38.25   179.66    -0.00     0.00    -0.00   0.020   41
   178.81    37.27   178.64    -0.00     0.00    -0.00   0.021   42
   179.79    36.29   178.64    -0.00     0.00    -0.00   0.020   43
   179.79    38.25   180.68    -0.00     0.00    -0.00   0.021   44
   177.83    38.25   178.64    -0.00     0.00    -0.00   0.020   45
   178.81    38.25   179.66    -0.00     0.00    -0.00   0.021   46
   179.79    37.27   178.64    -0.00     0.00    -0.00   0.020   47
   179.79    36.29   179.66    -0.00     0.00    -0.01   0.021   48
   178.81    38.25   179.66    -0.00     0.00    -0.01   0.020   49
   178.81    38.25   179.66    -0.00     0.00    -0.01   0.021   50
   178.81    37.27   178.64    -0.00     0.00    -0.00   0.020   51
   177.83    38.25   179.66    -0.00     0.00    -0.00   0.021   52
   179.79    38.25   178.64    -0.00     0.00    -0.01   0.020   53
   178.81    38.25   178.64    -0.00     0.00    -0.01   0.021   54
   178.81    38.25   179.66    -0.00     0.00    -0.00   0.020   55
   178.81    38.25   179.66    -0.00     0.01    -0.00   0.021   56
   178.81    37.27   178.64    -0.00     0.00    -0.00   0.020   57
   179.79    38.25   179.66    -0.00     0.00    -0.00   0.021   58
   178.81    37.27   179.66    -0.00     0.00    -0.00   0.020   59
   179.79    37.27   178.64    -0.00     0.00    -0.00   0.021   60
   178.81    37.27   179.66    -0.00     0.00    -0.00   0.020   61
   177.83    38.25   178.64    -0.00     0.00    -0.00   0.021   62
   178.81    38.25   179.66    -0.00     0.00    -0.00   0.020   63
   178.81    38.25   178.64    -0.00     0.00    -0.00   0.021   64
   179.79    38.25   177.62    -0.01     0.01    -0.00   0.020   65
   180.76    37.27   178.64    -0.00     0.01    -0.00   0.020   66
   179.79    37.27   179.66    -0.00     0.01    -0.00   0.021   67
   179.79    38.25   178.64    -0.00     0.00    -0.01   0.020   68
   178.81    37.27   178.64    -0.00     0.00    -0.00   0.021   69
   178.81    38.25   178.64    -0.00     0.01    -0.00   0.020   70
   178.81    38.25   178.64    -0.00     0.00    -0.00   0.021   71
   178.81    38.25   178.64    -0.00     0.00    -0.00   0.020   72
   177.83    38.25   178.64    -0.00     0.00    -0.00   0.021   73
   179.79    38.25   178.64    -0.00     0.00    -0.00   0.020   74
   177.83    37.27   178.64    -0.00     0.00    -0.00   0.021   75
   179.79    37.27   179.66    -0.00     0.00    -0.00   0.020   76
   178.81    38.25   177.62    -0.00     0.00    -0.01   0.021   77
   178.81    37.27   180.68    -0.00     0.00    -0.00   0.020   78
   178.81    38.25   180.68    -0.00     0.00    -0.00   0.021   79
   178.81    38.25   177.62    -0.00     0.01    -0.00   0.020   80
   179.79    37.27   177.62    -0.00     0.00    -0.00   0.021   81
   179.79    37.27   178.64    -0.00     0.00    -0.00   0.020   82
   179.79    39.23   179.66    -0.00     0.00    -0.00   0.021   83
   177.83    37.27   179.66    -0.00     0.00    -0.00   0.020   84
   177.83    36.29   178.64    -0.00     0.00    -0.00   0.021   85
   179.79    38.25   179.66    -0.00     0.00    -0.00   0.020   86
   179.79    37.27   178.64    -0.00     0.00    -0.00   0.021   87
   178.81    38.25   178.64    -0.00     0.00    -0.00   0.020   88
   178.81    38.25   179.66    -0.00     0.00    -0.00   0.021   89
   178.81    38.25   178.64    -0.00     0.00    -0.00   0.020   90
   179.79    37.27   180.68    -0.00     0.00    -0.00   0.020   91
   179.79    38.25   178.64    -0.00     0.00    -0.00   0.021   92
   178.81    38.25   178.64    -0.00     0.00    -0.00   0.020   93
   177.83    37.27   179.66    -0.00     0.00    -0.00   0.021   94
   178.81    37.27   178.64    -0.00     0.00    -0.00   0.020   95
   178.81    39.23   180.68    -0.00     0.00    -0.00   0.021   96
   177.83    38.25   179.66    -0.00     0.00    -0.00   0.020   97
   177.83    37.27   178.64    -0.00     0.00    -0.01   0.021   98
   177.83    37.27   178.64    -0.00     0.00    -0.01   0.020   99
   178.81    38.25   178.64    -0.00     0.00    -0.01   0.021  100
   179.79    36.29   179.66    -0.00     0.00    -0.00   0.020  101
   177.83    37.27   178.64    -0.00     0.00    -0.00   0.021  102
   177.83    38.25   180.68    -0.00     0.00    -0.01   0.020  103
   179.79    37.27   178.64    -0.01     0.00    -0.00   0.021  104
   178.81    37.27   178.64    -0.01     0.00    -0.00   0.020  105
   179.79    38.25   179.66    -0.00     0.00    -0.00   0.021  106
   179.79    38.25   178.64    -0.00     0.00    -0.00   0.020  107
   179.79    38.25   181.69    -0.01     0.00    -0.00   0.021  108
   178.81    37.27   177.62    -0.00     0.00    -0.00   0.020  109
   177.83    38.25   177.62    -0.00     0.00    -0.00   0.021  110
   178.81    37.27   180.68    -0.00     0.00    -0.00   0.020  111
   177.83    38.25   178.64    -0.00     0.00    -0.01   0.021  112
   179.79    36.29   179.66    -0.00     0.00    -0.00   0.020  113
   178.81    38.25   179.66    -0.00     0.00    -0.01   0.021  114
   178.81    39.23   178.64    -0.00     0.00    -0.00   0.020  115
   178.81    37.27   178.64    -0.00     0.00    -0.00   0.020  116
   177.83    38.25   178.64    -0.00     0.00    -0.00   0.021  117
   178.81    38.25   179.66    -0.00     0.00    -0.00   0.020  118
   179.79    36.29   178.64    -0.00     0.00    -0.00   0.021  119
   178.81    37.27   177.62    -0.00     0.00    -0.00   0.020  120
   178.81    37.27   179.66    -0.00     0.00    -0.00   0.021  121
   178.81    38.25   180.68    -0.00     0.00    -0.00   0.020  122
   179.79    37.27   179.66    -0.00     0.00    -0.00   0.021  123
   178.81    37.27   177.62    -0.00     0.00    -0.00   0.020  124
   179.79    38.25   177.62    -0.00     0.00    -0.00   0.021  125
   179.79    37.27   179.66    -0.00     0.00    -0.00   0.020  126
   177.83    37.27   177.62    -0.00     0.00    -0.00   0.021  127
   178.81    38.25   179.66    -0.00     0.00    -0.01   0.020  128
   179.79    36.29   178.64    -0.00     0.00    -0.00   0.021  129
   178.81    37.27   178.64    -0.00     0.00    -0.00   0.020  130
   179.79    38.25   179.66    -0.00     0.00    -0.00   0.021  131
   180.76    36.29   180.68    -0.00     0.00    -0.00   0.020  132
   178.81    37.27   179.66    -0.00     0.00    -0.00   0.021  133
   178.81    37.27   179.66    -0.01     0.00    -0.00   0.020  134
   179.79    37.27   178.64    -0.00     0.00    -0.00   0.021  135
   177.83    37.27   178.64    -0.00     0.00    -0.00   0.020  136
   178.81    38.25   180.68    -0.00     0.00    -0.00   0.021  137
   179.79    40.21   179.66    -0.00     0.00    -0.00   0.020  138
   179.79    38.25   179.66    -0.00     0.00    -0.00   0.021  139
   178.81    37.27   178.64    -0.00     0.00    -0.00   0.020  140
   178.81    39.23   178.64    -0.00     0.00    -0.00   0.020  141
   178.81    37.27   177.62    -0.00     0.00    -0.00   0.021  142
   179.79    38.25   178.64    -0.00     0.00    -0.00   0.020  143
   179.79    37.27   178.64    -0.00     0.00    -0.00   0.021  144
   178.81    37.27   178.64    -0.00     0.00    -0.00   0.020  145
   178.81    37.27   179.66    -0.00     0.00    -0.00   0.021  146
   179.79    38.25   178.64    -0.00     0.00    -0.00   0.020  147
   177.83    38.25   179.66    -0.00     0.00    -0.00   0.021  148
   178.81    38.25   179.66    -0.00     0.00    -0.00   0.020  149
   178.81    38.25   179.66    -0.00     0.00    -0.00   0.021  150
   178.81    37.27   178.64    -0.00     0.00    -0.00   0.020  151
   179.79    37.27   180.68    -0.00     0.00    -0.00   0.021  152
   178.81    38.25   179.66    -0.00     0.00    -0.00   0.020  153
   178.81    36.29   178.64    -0.00     0.01    -0.00   0.021  154
   178.81    38.25   178.64    -0.00     0.01    -0.00   0.020  155
   177.83    38.25   179.66    -0.00     0.00    -0.00   0.021  156
   180.76    37.27   179.66    -0.00     0.00    -0.00   0.020  157
   178.81    37.27   178.64    -0.00     0.00    -0.00   0.021  158
   178.81    37.27   179.66    -0.00     0.00    -0.00   0.020  159
   179.79    39.23   180.68    -0.00     0.00    -0.00   0.021  160
   178.81    37.27   179.66    -0.00     0.00    -0.00   0.020  161
   178.81    38.25   179.66    -0.00     0.00    -0.00   0.021  162
   178.81    38.25   179.66    -0.00     0.00    -0.01   0.020  163
   179.79    38.25   179.66    -0.00     0.00    -0.00   0.021  164
   179.79    38.25   179.66    -0.00     0.00    -0.00   0.020  165
   178.81    37.27   179.66    -0.00     0.00    -0.00   0.020  166
   178.81    38.25   179.66    -0.00     0.00    -0.00   0.021  167
   178.81    37.27   179.66    -0.00     0.01    -0.00   0.020  168
   179.79    36.29   179.66    -0.00     0.00    -0.00   0.021  169
   179.79    38.25   179.66    -0.00     0.00    -0.00   0.020  170
   178.81    37.27   179.66    -0.00     0.00    -0.00   0.021  171
   178.81    39.23   179.66    -0.00     0.00    -0.00   0.020  172
   178.81    36.29   179.66    -0.00     0.00    -0.00   0.021  173
   178.81    38.25   179.66    -0.00     0.00    -0.00   0.020  174
   177.83    37.27   179.66    -0.00     0.00    -0.00   0.021  175
   178.81    37.27   178.64    -0.00     0.00    -0.00   0.020  176
   177.83    37.27   178.64    -0.00     0.00    -0.00   0.021  177
   179.79    37.27   178.64    -0.00     0.00    -0.01   0.020  178
   178.81    38.25   179.66    -0.00     0.00    -0.00   0.021  179
   179.79    38.25   179.66    -0.00     0.00    -0.00   0.020  180
   177.83    38.25   177.62    -0.00     0.00    -0.00   0.021  181
   178.81    38.25   178.64    -0.00     0.00    -0.00   0.020  182
   178.81    38.25   178.64    -0.00     0.00    -0.00   0.021  183
   177.83    37.27   180.68    -0.00     0.00    -0.00   0.020  184
   177.83    38.25   179.66    -0.00     0.00    -0.00   0.021  185
   178.81    38.25   178.64    -0.00     0.00    -0.00   0.020  186
   179.79    38.25   180.68    -0.00     0.00    -0.00   0.021  187
   178.81    38.25   176.60    -0.00     0.00    -0.00   0.020  188
   177.83    38.25   177.62    -0.00     0.00    -0.00   0.021  189
   178.81    38.25   178.64    -0.00     0.00    -0.00   0.020  190
   178.81    37.27   179.66    -0.00     0.00    -0.00   0.020  191
   177.83    38.25   178.64    -0.00     0.00    -0.00   0.021  192
   178.81    37.27   178.64    -0.00     0.00    -0.00   0.020  193
   180.76    37.27   178.64    -0.00     0.00    -0.00   0.021  194
   177.83    37.27   178.64    -0.00     0.00    -0.00   0.020  195
   179.79    37.27   179.66    -0.00     0.00    -0.00   0.021  196
   180.76    37.27   178.64    -0.00     0.00    -0.00   0.020  197
   179.79    37.27   179.66    -0.00     0.00    -0.00   0.021  198
   177.83    38.25   178.64    -0.00     0.00    -0.00   0.020  199
   178.81    39.23   178.64    -0.00     0.00    -0.00   0.021  200
   178.81    37.27   179.66    -0.00     0.00    -0.00   0.020  201
   177.83    37.27   177.62    -0.00     0.00    -0.00   0.021  202
   178.81    37.27   177.62    -0.00     0.00    -0.01   0.020  203
   179.79    37.27   178.64    -0.00     0.00    -0.00   0.021  204
   179.79    37.27   179.66    -0.00     0.00    -0.01   0.020  205
   178.81    38.25   178.64    -0.00     0.00    -0.01   0.021  206
   178.81    38.25   179.66    -0.00     0.00    -0.00   0.020  207
   178.81    38.25   178.64    -0.00     0.00    -0.00   0.021  208
   178.81    37.27   180.68    -0.00     0.00    -0.00   0.020  209
   178.81    36.29   180.68    -0.00     0.00    -0.00   0.021  210
   179.79    37.27   178.64    -0.00     0.00    -0.00   0.020  211
   179.79    37.27   179.66    -0.00     0.00    -0.00   0.021  212
   178.81    37.27   179.66    -0.00     0.00    -0.00   0.020  213
   179.79    38.25   179.66    -0.00     0.00    -0.00   0.021  214
   177.83    37.27   179.66    -0.00     0.00    -0.00   0.020  215
   179.79    38.25   178.64    -0.00     0.00    -0.00   0.020  216
   178.81    37.27   177.62    -0.00     0.00    -0.00   0.021  217
   179.79    36.29   178.64    -0.00     0.00    -0.00   0.020  218
   178.81    38.25   178.64    -0.01     0.00    -0.00   0.021  219
   178.81    37.27   178.64    -0.00     0.00    -0.00   0.020  220
   178.81    37.27   179.66    -0.00     0.00    -0.00   0.021  221
   178.81    37.27   178.64    -0.00     0.00    -0.01   0.020  222
   178.81    38.25   179.66    -0.00     0.00    -0.00   0.021  223
   178.81    38.25   179.66    -0.00     0.00    -0.00   0.020  224
   178.81    37.27   180.68    -0.00     0.00    -0.00   0.021  225
   178.81    38.25   178.64    -0.00     0.00    -0.00   0.020  226
   178.81    37.27   178.64    -0.00     0.00    -0.00   0.021  227
   178.81    37.27   178.64    -0.00     0.00    -0.01   0.020  228
   178.81    37.27   179.66    -0.00     0.00    -0.00   0.021  229
   179.79    37.27   179.66    -0.00     0.00    -0.00   0.020  230
   178.81    38.25   179.66    -0.00     0.00    -0.00   0.021  231
   178.81    38.25   179.66    -0.00     0.00    -0.00   0.020  232
   178.81    37.27   177.62    -0.00     0.00    -0.00   0.021  233
   178.81    37.27   178.64    -0.00     0.00    -0.00   0.020  234
   178.81    37.27   179.66    -0.00     0.00    -0.00   0.021  235
   177.83    38.25   177.62    -0.00     0.00    -0.00   0.020  236
   178.81    38.25   178.64    -0.00     0.00    -0.00   0.021  237
   178.81    38.25   180.68    -0.00     0.00    -0.00   0.020  238
   178.81    38.25   177.62    -0.01     0.00    -0.00   0.021  239
   179.79    38.25   179.66    -0.00     0.00    -0.00   0.020  240
   178.81    37.27   179.66    -0.00     0.00    -0.00   0.020  241
   178.81    39.23   179.66    -0.00     0.00    -0.00   0.021  242
   179.79    37.27   180.68    -0.00     0.00    -0.00   0.020  243
   178.81    37.27   179.66    -0.00     0.00    -0.00   0.021  244
   177.83    38.25   178.64    -0.00     0.00    -0.00   0.020  245
   176.85    38.25   178.64    -0.00     0.00    -0.00   0.021  246
   178.81    38.25   178.64    -0.00     0.01    -0.00   0.020  247
   177.83    37.27   178.64    -0.00     0.00    -0.00   0.021  248
   177.83    38.25   179.66    -0.00     0.00    -0.00   0.020  249
   177.83    37.27   179.66    -0.00     0.00    -0.00   0.021  250
   177.83    38.25   179.66    -0.00     0.00    -0.00   0.020  251
   178.81    38.25   180.68    -0.01     0.00    -0.00   0.021  252
   177.83    38.25   178.64    -0.01     0.00    -0.00   0.020  253
   178.81    37.27   179.66    -0.00     0.00    -0.00   0.021  254
   179.79    36.29   177.62    -0.01     0.00    -0.00   0.020  255
   179.79    38.25   179.66    -0.00     0.00    -0.00   0.021    0
   178.81    38.25   178.64    -0.00     0.00    -0.00   0.020    1
   178.81    37.27   178.64    -0.00     0.00    -0.00   0.021    2
   177.83    38.25   178.64    -0.00     0.00    -0.00   0.020    3
   178.81    38.25   178.64    -0.00     0.00    -0.00   0.021    4
   179.79    37.27   178.64    -0.01     0.00    -0.00   0.020    5
   178.81    37.27   180.68    -0.00     0.00    -0.00   0.021    6
   178.81    36.29   179.66    -0.00     0.01    -0.00   0.020    7
   178.81    37.27   180.68    -0.00     0.00    -0.00   0.021    8
   177.83    37.27   179.66    -0.00     0.00    -0.00   0.020    9
   178.81    38.25   178.64    -0.00     0.00    -0.00   0.020   10
   178.81    37.27   180.68    -0.00     0.00    -0.00   0.021   11
   178.81    39.23   179.66    -0.00     0.00    -0.00   0.020   12
   178.81    37.27   178.64    -0.01     0.00    -0.00   0.021   13
   178.81    36.29   178.64    -0.00     0.00    -0.00   0.020   14
   179.79    36.29   179.66    -0.00     0.00    -0.00   0.021   15
   178.81    37.27   180.68    -0.00     0.00    -0.00   0.020   16
   178.81    38.25   178.64    -0.00     0.00    -0.00   0.021   17
   178.81    38.25   178.64    -0.00     0.00    -0.00   0.020   18
   179.79    37.27   178.64    -0.00     0.00    -0.01   0.021   19
   178.81    37.27   180.68    -0.00     0.00    -0.00   0.020   20
   178.81    38.25   178.64    -0.00     0.00    -0.00   0.021   21
   178.81    37.27   179.66    -0.00     0.00    -0.00   0.020   22
   177.83    38.25   178.64    -0.00     0.00    -0.00   0.021   23
   179.79    38.25   179.66    -0.00     0.00    -0.00   0.020   24
   178.81    37.27   179.66    -0.01     0.00    -0.00   0.021   25
   178.81    37.27   178.64    -0.00     0.00    -0.00   0.020   26
   177.83    37.27   178.64    -0.00     0.00    -0.00   0.021   27
   178.81    37.27   179.66    -0.00     0.00    -0.00   0.020   28
   178.81    37.27   179.66    -0.00     0.00    -0.00   0.021   29
   178.81    37.27   179.66    -0.00     0.00    -0.00   0.020   30
   179.79    37.27   179.66    -0.00     0.00    -0.00   0.021   31
   178.81    38.25   179.66    -0.00     0.00    -0.00   0.020   32
   177.83    38.25   177.62    -0.00     0.00    -0.00   0.021   33
   179.79    37.27   179.66    -0.00     0.00    -0.00   0.020   34
   179.79    37.27   179.66    -0.00     0.00    -0.00   0.020   35
   178.81    37.27   178.64    -0.00     0.00    -0.00   0.021   36
   177.83    36.29   178.64    -0.01     0.00    -0.00   0.020   37
   179.79    36.29   178.64    -0.00     0.00    -0.00   0.021   38
   179.79    37.27   179.66    -0.00     0.00    -0.00   0.020   39
   179.79    37.27   179.66    -0.00     0.00    -0.00   0.021   40
   179.79    37.27   178.64    -0.00     0.00    -0.00   0.020   41
   179.79    37.27   180.68    -0.00     0.00    -0.00   0.021   42
   178.81    36.29   180.68    -0.00     0.00    -0.00   0.020   43
   179.79    37.27   179.66    -0.00     0.00    -0.00   0.021   44
   178.81    38.25   180.68    -0.00     0.00    -0.00   0.020   45
   178.81    37.27   178.64    -0.00     0.01    -0.00   0.021   46
   178.81    38.25   177.62    -0.00     0.00    -0.00   0.020   47
   179.79    37.27   177.62    -0.00     0.00    -0.00   0.021   48
   178.81    38.25   180.68    -0.00     0.00    -0.00   0.020   49
   179.79    38.25   179.66    -0.01     0.00    -0.00   0.021   50
   179.79    37.27   178.64    -0.00     0.00    -0.00   0.020   51
   178.81    37.27   178.64    -0.00     0.00    -0.00   0.021   52
   178.81    37.27   178.64    -0.00     0.00    -0.00   0.020   53
   179.79    37.27   178.64    -0.00     0.00    -0.00   0.021   54
   179.79    37.27   180.68    -0.00     0.01    -0.00   0.020   55
   178.81    38.25   179.66    -0.00     0.00    -0.00   0.021   56
   178.81    38.25   179.66    -0.00     0.00    -0.00   0.020   57
   179.79    37.27   178.64    -0.00     0.00    -0.00   0.021   58
   178.81    38.25   179.66    -0.00     0.00    -0.00   0.020   59
   178.81    37.27   179.66    -0.00     0.00    -0.00   0.020   60
   179.79    37.27   179.66    -0.00     0.00    -0.00   0.021   61
   177.83    37.27   178.64    -0.00     0.00    -0.00   0.020   62
   178.81    37.27   179.66    -0.00     0.00    -0.00   0.021   63
   178.81    38.25   179.66    -0.01     0.00    -0.00   0.020   64
   179.79    36.29   179.66    -0.00     0.00    -0.00   0.021   65
   178.81    37.27   178.64    -0.00     0.00    -0.00   0.020   66
   178.81    37.27   180.68    -0.00     0.00    -0.00   0.021   67
   178.81    37.27   178.64    -0.00     0.00    -0.00   0.020   68
   178.81    38.25   179.66    -0.00     0.00    -0.00   0.021   69
   179.79    37.27   179.66    -0.00     0.00    -0.00   0.020   70
   178.81    38.25   180.68    -0.00     0.00    -0.00   0.021   71
   177.83    36.29   178.64    -0.00     0.00    -0.00   0.020   72
   178.81    38.25   178.64    -0.00     0.00    -0.00   0.021   73
   177.83    37.27   179.66    -0.00     0.00    -0.00   0.020   74
   178.81    38.25   179.66    -0.00     0.00    -0.00   0.021   75
   178.81    38.25   181.69    -0.00     0.00    -0.00   0.020   76
   177.83    37.27   178.64    -0.00     0.01    -0.00   0.021   77
   179.79    36.29   178.64    -0.00     0.00    -0.00   0.020   78
   178.81    37.27   180.68    -0.00     0.00    -0.00   0.021   79
   177.83    37.27   178.64    -0.00     0.00    -0.00   0.020   80
   179.79    37.27   178.64    -0.00     0.00    -0.00   0.021   81
   178.81    39.23   179.66    -0.00     0.00    -0.00   0.020   82
   178.81    38.25   179.66    -0.00     0.00    -0.00   0.021   83
   179.79    37.27   178.64    -0.00     0.00    -0.00   0.020   84
   178.81    35.31   179.66    -0.00     0.00    -0.00   0.020   85
   179.79    37.27   178.64    -0.00     0.00    -0.00   0.021   86
   178.81    37.27   178.64    -0.00     0.00    -0.00   0.020   87
   177.83    38.25   180.68    -0.01     0.00    -0.00   0.021   88
   178.81    37.27   179.66    -0.00     0.00    -0.00   0.020   89
   178.81    38.25   177.62    -0.00     0.00    -0.00   0.021   90
   177.83    37.27   178.64    -0.00     0.01    -0.00   0.020   91
   178.81    37.27   178.64    -0.00     0.00    -0.00   0.021   92
   178.81    37.27   179.66    -0.00     0.00    -0.00   0.020   93
   177.83    37.27   179.66    -0.00     0.00    -0.00   0.021   94
   179.79    37.27   179.66    -0.00     0.00    -0.00   0.020   95
   178.81    38.25   179.66    -0.00     0.00    -0.00   0.021   96
   177.83    37.27   178.64    -0.00     0.00    -0.00   0.020   97
   177.83    37.27   179.66    -0.00     0.00    -0.01   0.021   98
   179.79    38.25   178.64    -0.00     0.00    -0.00   0.020   99
   178.81    37.27   178.64    -0.00     0.00    -0.00   0.021  100
   179.79    37.27   180.68    -0.00     0.00    -0.00   0.020  101
   178.81    37.27   179.66    -0.00     0.00    -0.00   0.021  102
   179.79    38.25   179.66    -0.00     0.00    -0.00   0.020  103
   178.81    36.29   179.66    -0.00     0.00    -0.00   0.021  104
   178.81    36.29   178.64    -0.00     0.00    -0.00   0.020  105
   178.81    38.25   178.64    -0.00     0.00    -0.00   0.021  106
   178.81    38.25   179.66    -0.00     0.00    -0.00   0.020  107
   179.79    38.25   180.68    -0.00     0.00    -0.00   0.021  108
   177.83    36.29   179.66    -0.00     0.00    -0.00   0.020  109
   178.81    36.29   179.66    -0.00     0.00    -0.00   0.020  110
   179.79    37.27   178.64    -0.00     0.00    -0.00   0.021  111
   177.83    39.23   179.66    -0.00     0.00    -0.00   0.020  112
   179.79    37.27   179.66    -0.00     0.00    -0.00   0.021  113
   176.85    39.23   177.62    -0.00     0.00    -0.00   0.020  114
   178.81    37.27   178.64    -0.00     0.00    -0.01   0.021  115
   177.83    37.27   179.66    -0.00     0.00    -0.00   0.020  116
   179.79    37.27   179.66    -0.00     0.00    -0.01   0.021  117
   179.79    37.27   180.68    -0.00     0.00    -0.00   0.020  118
   178.81    37.27   177.62    -0.00     0.00    -0.00   0.021  119
   177.83    38.25   178.64    -0.00     0.00    -0.00   0.020  120
   178.81    37.27   179.66    -0.00     0.00    -0.00   0.021  121
   178.81    38.25   178.64    -0.00     0.00    -0.00   0.020  122
   178.81    37.27   179.66    -0.00     0.00    -0.00   0.021  123
   178.81    37.27   178.64    -0.00     0.00    -0.00   0.020  124
   179.79    38.25   179.66    -0.00     0.00    -0.01   0.021  125
   178.81    37.27   180.68    -0.00     0.00    -0.00   0.020  126
   177.83    37.27   179.66    -0.00     0.00    -0.01   0.021  127
   178.81    38.25   178.64    -0.00     0.00    -0.00   0.020  128
   179.79    38.25   178.64    -0.00     0.00    -0.00   0.021  129
   179.79    37.27   180.68    -0.00     0.00    -0.00   0.020  130
   179.79    37.27   178.64    -0.00     0.00    -0.00   0.021  131
   178.81    37.27   179.66    -0.01     0.00    -0.00   0.020  132
   179.79    38.25   179.66    -0.01     0.01    -0.00   0.021  133
   177.83    38.25   179.66    -0.00     0.00    -0.00   0.020  134
   177.83    38.25   178.64    -0.00     0.00    -0.00   0.020  135
   178.81    37.27   178.64    -0.00     0.00    -0.00   0.021  136
   177.83    37.27   179.66    -0.00     0.00    -0.00   0.020  137
   177.83    37.27   179.66    -0.00     0.00    -0.00   0.021  138
   178.81    38.25   177.62    -0.00     0.00    -0.00   0.020  139
   178.81    37.27   179.66    -0.00     0.00    -0.00   0.021  140
   179.79    37.27   179.66    -0.00     0.00    -0.00   0.020  141
   179.79    37.27   179.66    -0.00     0.00    -0.00   0.021  142
   177.83    37.27   179.66    -0.00     0.00    -0.00   0.020  143
   178.81    38.25   180.68    -0.00     0.00    -0.00   0.021  144
   177.83    37.27   177.62    -0.00     0.00    -0.00   0.020  145
   178.81    38.25   179.66    -0.00     0.00    -0.00   0.021  146
   178.81    37.27   178.64    -0.00     0.00    -0.00   0.020  147
   180.76    37.27   179.66    -0.00     0.00    -0.00   0.021  148
   179.79    37.27   178.64    -0.00     0.00    -0.00   0.020  149
   178.81    37.27   179.66    -0.00     0.00    -0.00   0.021  150
   177.83    38.25   179.66    -0.00     0.00    -0.00   0.020  151
   179.79    37.27   179.66    -0.00     0.00    -0.00   0.021  152
   179.79    37.27   178.64    -0.00     0.00    -0.00   0.020  153
   179.79    38.25   179.66    -0.00     0.00    -0.00   0.021  154
   179.79    38.25   179.66    -0.00     0.00    -0.00   0.020  155
   177.83    37.27   180.68    -0.00     0.00    -0.00   0.021  156
   178.81    37.27   179.66    -0.00     0.00    -0.00   0.020  157
   178.81    38.25   178.64    -0.00     0.00    -0.00   0.021  158
   179.79    37.27   180.68    -0.00     0.00    -0.00   0.020  159
   179.79    37.27   179.66    -0.00     0.00    -0.00   0.020  160
   178.81    37.27   179.66    -0.00     0.00    -0.00   0.021  161
   178.81    37.27   178.64    -0.00     0.00    -0.00   0.020  162
   178.81    39.23   178.64    -0.00     0.00    -0.00   0.021  163
   177.83    37.27   180.68    -0.00     0.00    -0.00   0.020  164
   177.83    36.29   178.64    -0.00     0.00    -0.00   0.021  165
   178.81    38.25   179.66    -0.00     0.00    -0.00   0.020  166
   177.83    37.27   179.66    -0.00     0.00    -0.00   0.021  167
   179.79    37.27   179.66    -0.00     0.00    -0.00   0.020  168
   178.81    38.25   180.68    -0.00     0.00    -0.00   0.021  169
   178.81    38.25   179.66    -0.00     0.00    -0.00   0.020  170
   180.76    36.29   180.68    -0.00     0.00    -0.00   0.021  171
   179.79    37.27   179.66    -0.00     0.00    -0.00   0.020  172
   177.83    36.29   178.64    -0.00     0.00    -0.00   0.021  173
   177.83    36.29   179.66    -0.00     0.00    -0.00   0.020  174
   178.81    35.31   180.68    -0.00     0.00    -0.00   0.021  175
   178.81    37.27   179.66    -0.00     0.00    -0.00   0.020  176
   178.81    38.25   179.66    -0.00     0.00    -0.00   0.021  177
   179.79    36.29   179.66    -0.00     0.00    -0.00   0.020  178
   178.81    37.27   178.64    -0.00     0.00    -0.00   0.021  179
   178.81    37.27   179.66    -0.00     0.00    -0.00   0.020  180
   178.81    38.25   179.66    -0.00     0.00    -0.00   0.021  181
   179.79    38.25   180.68    -0.00     0.00    -0.00   0.020  182
   178.81    37.27   178.64    -0.00     0.00    -0.01   0.021  183
   180.76    37.27   178.64    -0.00     0.00    -0.00   0.020  184
   177.83    37.27   179.66    -0.00     0.00    -0.00   0.020  185
   179.79    38.25   180.68    -0.00     0.00    -0.00   0.021  186
   178.81    37.27   178.64    -0.00     0.00    -0.00   0.020  187
   177.83    38.25   178.64    -0.00     0.00    -0.00   0.021  188
   179.79    37.27   180.68    -0.00     0.00    -0.00   0.020  189
   179.79    37.27   178.64    -0.00     0.00    -0.00   0.021  190
   177.83    37.27   179.66    -0.00     0.00    -0.00   0.020  191
   178.81    37.27   179.66    -0.00     0.00    -0.00   0.021  192
   179.79    37.27   180.68    -0.00     0.00    -0.00   0.020  193
   177.83    36.29   178.64    -0.00     0.00    -0.00   0.021  194
   178.81    38.25   178.64    -0.00     0.00    -0.00   0.020  195
   179.79    36.29   179.66    -0.00     0.00    -0.00   0.021  196
   179.79    36.29   179.66    -0.00     0.00    -0.00   0.020  197
   178.81    37.27   179.66    -0.00     0.00    -0.00   0.021  198
   179.79    36.29   178.64    -0.00     0.00    -0.00   0.020  199
   178.81    37.27   179.66    -0.00     0.00    -0.00   0.021  200
   179.79    37.27   179.66    -0.00     0.00    -0.00   0.020  201
   178.81    37.27   179.66    -0.00     0.00    -0.00   0.021  202
   179.79    37.27   181.69    -0.00     0.00    -0.00   0.020  203
   177.83    38.25   178.64    -0.00     0.00    -0.00   0.021  204
   179.79    37.27   181.69    -0.00     0.00    -0.00   0.020  205
   177.83    37.27   178.64    -0.00     0.00    -0.00   0.021  206
   177.83    37.27   179.66    -0.00     0.00    -0.00   0.020  207
   178.81    38.25   180.68    -0.00     0.00    -0.00   0.021  208
   178.81    38.25   180.68    -0.00     0.00    -0.00   0.020  209
   178.81    38.25   179.66    -0.00     0.01    -0.01   0.020  210
   179.79    38.25   180.68    -0.00     0.00    -0.00   0.021  211
   178.81    37.27   178.64    -0.00     0.00    -0.00   0.020  212
   179.79    36.29   179.66    -0.00     0.00    -0.00   0.021  213
   179.79    36.29   178.64    -0.00     0.00    -0.00   0.020  214
   177.83    39.23   180.68    -0.00     0.00    -0.00   0.021  215
   177.83    37.27   179.66    -0.00     0.00    -0.00   0.020  216
   178.81    37.27   178.64    -0.00     0.00    -0.00   0.021  217
   179.79    37.27   177.62    -0.00     0.00    -0.00   0.020  218
   178.81    37.27   178.64    -0.00     0.00    -0.00   0.021  219
   178.81    36.29   178.64    -0.00     0.00    -0.00   0.020  220
   178.81    38.25   179.66    -0.00     0.00    -0.00   0.021  221
   178.81    38.25   179.66    -0.00     0.00    -0.00   0.020  222
   179.79    38.25   178.64    -0.00     0.00    -0.00   0.021  223
   178.81    37.27   179.66    -0.00     0.00    -0.00   0.020  224
   177.83    36.29   179.66    -0.00     0.00    -0.00   0.021  225
   179.79    37.27   179.66    -0.00     0.00    -0.00   0.020  226
   178.81    37.27   180.68    -0.00     0.00    -0.00   0.021  227
   178.81    38.25   179.66    -0.00     0.00    -0.00   0.020  228
   179.79    37.27   180.68    -0.00     0.00    -0.00   0.021  229
   178.81    37.27   179.66    -0.00     0.00    -0.00   0.020  230
   178.81    37.27   179.66    -0.00     0.00    -0.00   0.021  231
   178.81    36.29   179.66    -0.00     0.00    -0.00   0.020  232
   178.81    37.27   178.64    -0.00     0.00    -0.00   0.021  233
   178.81    38.25   179.66    -0.00     0.00    -0.01   0.020  234
   179.79    37.27   179.66    -0.00     0.00    -0.00   0.020  235
   178.81    36.29   179.66    -0.00     0.00    -0.00   0.021  236
   179.79    37.27   179.66    -0.00     0.00    -0.00   0.020  237
   178.81    36.29   178.64    -0.00     0.00    -0.00   0.021  238
   179.79    37.27   180.68    -0.00     0.00    -0.00   0.020  239
   179.79    36.29   179.66    -0.00     0.00    -0.00   0.021  240
   180.76    36.29   179.66    -0.00     0.00    -0.00   0.020  241
   178.81    38.25   179.66    -0.00     0.00    -0.00   0.021  242
   177.83    37.27   179.66    -0.00     0.00    -0.00   0.020  243
   178.81    38.25   179.66    -0.00     0.00    -0.00   0.021  244
   179.79    39.23   179.66    -0.00     0.00    -0.01   0.020  245
   178.81    37.27   180.68    -0.00     0.00    -0.00   0.021  246
   178.81    36.29   180.68    -0.00     0.00    -0.01   0.020  247
   178.81    37.27   181.69    -0.00     0.00    -0.00   0.021  248
   178.81    38.25   179.66    -0.00     0.00    -0.01   0.020  249
   178.81    36.29   179.66    -0.00     0.00    -0.00   0.021  250
   179.79    38.25   180.68    -0.00     0.00    -0.00   0.020  251
   179.79    38.25   179.66    -0.01     0.00    -0.00   0.021  252
   177.83    37.27   179.66    -0.01     0.01    -0.00   0.020  253
   178.81    38.25   180.68    -0.00     0.00    -0.00   0.021  254
   178.81    37.27   179.66    -0.00     0.00    -0.00   0.020  255
   179.79    37.27   180.68    -0.00     0.00    -0.00   0.021    0
   177.83    37.27   178.64    -0.00     0.00    -0.00   0.020    1
   179.79    37.27   179.66    -0.00     0.00    -0.00   0.021    2
   180.76    36.29   179.66    -0.00     0.00    -0.00   0.020    3
   178.81    37.27   179.66    -0.00     0.00    -0.01   0.020    4
   179.79    38.25   180.68    -0.00     0.00    -0.00   0.021    5
   177.83    37.27   178.64    -0.00     0.00    -0.00   0.020    6
   179.79    37.27   180.68    -0.00     0.00    -0.00   0.021    7
   178.81    38.25   179.66    -0.00     0.00    -0.00   0.020    8
   179.79    36.29   180.68    -0.00     0.00    -0.00   0.021    9
   178.81    36.29   178.64    -0.00     0.00    -0.00   0.020   10
   178.81    37.27   180.68    -0.00     0.00    -0.00   0.021   11
   179.79    37.27   179.66    -0.00     0.00    -0.00   0.020   12
   179.79    37.27   180.68    -0.00     0.00    -0.00   0.021   13
   177.83    37.27   178.64    -0.00     0.00    -0.01   0.020   14
   179.79    37.27   180.68    -0.00     0.00    -0.00   0.021   15
   178.81    37.27   179.66    -0.00     0.00    -0.00   0.020   16
   177.83    36.29   179.66    -0.00     0.00    -0.00   0.021   17
   178.81    38.25   179.66    -0.00     0.00    -0.00   0.020   18
   178.81    38.25   179.66    -0.00     0.00    -0.00   0.021   19
   179.79    37.27   179.66    -0.00     0.00    -0.00   0.020   20
   178.81    37.27   179.66    -0.00     0.00    -0.00   0.021   21
   178.81    38.25   179.66    -0.00     0.00    -0.00   0.020   22
   178.81    37.27   179.66    -0.00     0.00    -0.00   0.021   23
   177.83    38.25   180.68    -0.00     0.00    -0.00   0.020   24
   177.83    38.25   179.66    -0.00     0.00    -0.00   0.021   25
   178.81    38.25   179.66    -0.00     0.00    -0.00   0.020   26
   178.81    38.25   180.68    -0.00     0.00    -0.00   0.021   27
   178.81    38.25   179.66    -0.00     0.00    -0.00   0.020   28
   180.76    37.27   178.64    -0.00     0.00    -0.00   0.020   29
   179.79    38.25   179.66    -0.00     0.00    -0.01   0.021   30
   179.79    37.27   180.68    -0.00     0.00    -0.00   0.020   31
   178.81    38.25   179.66    -0.00     0.00    -0.01   0.021   32
   177.83    38.25   179.66    -0.00     0.00    -0.00   0.020   33
   177.83    37.27   179.66    -0.00     0.00    -0.00   0.021   34
   179.79    37.27   179.66    -0.00     0.00    -0.00   0.020   35
   178.81    38.25   177.62    -0.00     0.00    -0.00   0.021   36
   178.81    37.27   178.64    -0.00     0.00    -0.01   0.020   37
   178.81    37.27   180.68    -0.00     0.00    -0.00   0.021   38
   179.79    37.27   178.64    -0.00     0.00    -0.00   0.020   39
   179.79    37.27   178.64    -0.00     0.00    -0.00   0.021   40
   178.81    36.29   179.66    -0.00     0.00    -0.00   0.020   41
   179.79    38.25   178.64    -0.00     0.00    -0.00   0.021   42
   179.79    37.27   181.69    -0.00     0.00    -0.01   0.020   43
   178.81    36.29   178.64    -0.00     0.00    -0.00   0.021   44
   177.83    38.25   181.69    -0.00     0.00    -0.00   0.020   45
   179.79    37.27   179.66    -0.00     0.00    -0.00   0.021   46
   177.83    37.27   179.66    -0.00     0.00    -0.00   0.020   47
   179.79    37.27   179.66    -0.00     0.00    -0.00   0.021   48
   178.81    36.29   178.64    -0.00     0.00    -0.00   0.020   49
   178.81    38.25   179.66    -0.00     0.00    -0.00   0.021   50
   177.83    36.29   178.64    -0.00     0.00    -0.00   0.020   51
   178.81    36.29   179.66    -0.00     0.00    -0.00   0.021   52
   179.79    37.27   180.68    -0.00     0.00    -0.00   0.020   53
   177.83    37.27   179.66    -0.00     0.00    -0.00   0.020   54
   178.81    37.27   178.64    -0.00     0.00    -0.00   0.021   55
   178.81    38.25   180.68    -0.00     0.00    -0.00   0.020   56
   177.83    37.27   179.66    -0.00     0.00    -0.00   0.021   57
   178.81    37.27   178.64    -0.00     0.00    -0.01   0.020   58
   178.81    37.27   179.66    -0.00     0.00    -0.00   0.021   59
   178.81    38.25   179.66    -0.00     0.00    -0.00   0.020   60
   179.79    38.25   179.66    -0.00     0.00    -0.00   0.021   61
   176.85    37.27   180.68    -0.00     0.00    -0.00   0.020   62
   178.81    38.25   180.68    -0.00     0.00    -0.00   0.021   63
   177.83    38.25   180.68    -0.00     0.00    -0.01   0.020   64
   177.83    38.25   179.66    -0.00     0.00    -0.00   0.021   65
   176.85    37.27   179.66    -0.00     0.00    -0.00   0.020   66
   177.83    38.25   178.64    -0.00     0.01    -0.00   0.021   67
   178.81    37.27   179.66    -0.00     0.00    -0.00   0.020   68
   177.83    37.27   178.64    -0.00     0.00    -0.00   0.021   69
   179.79    37.27   179.66    -0.00     0.00    -0.00   0.020   70
   178.81    38.25   178.64    -0.00     0.00    -0.01   0.021   71
   178.81    37.27   179.66    -0.00     0.01    -0.00   0.020   72
   178.81    38.25   179.66    -0.00     0.00    -0.00   0.021   73
   179.79    38.25   179.66    -0.00     0.00    -0.00   0.020   74
   179.79    37.27   179.66    -0.00     0.01    -0.00   0.021   75
   177.83    37.27   179.66    -0.01     0.01    -0.00   0.020   76
   178.81    37.27   179.66    -0.01     0.00    -0.00   0.021   77
   178.81    38.25   179.66    -0.00     0.00    -0.00   0.020   78
   177.83    36.29   178.64    -0.00     0.00    -0.00   0.020   79
   178.81    37.27   179.66    -0.00     0.00    -0.00   0.021   80
   177.83    36.29   180.68    -0.00     0.00    -0.00   0.020   81
   178.81    36.29   179.66    -0.00     0.00    -0.00   0.021   82
   178.81    37.27   181.69    -0.00     0.00    -0.00   0.020   83
   178.81    36.29   179.66    -0.00     0.00    -0.00   0.021   84
   178.81    36.29   179.66    -0.00     0.00    -0.00   0.020   85
   178.81    36.29   178.64    -0.00     0.00    -0.00   0.021   86
   178.81    37.27   180.68    -0.00     0.00    -0.01   0.020   87
   177.83    37.27   179.66    -0.00     0.00    -0.00   0.021   88
   178.81    38.25   179.66    -0.00     0.00    -0.00   0.020   89
   178.81    38.25   178.64    -0.00     0.00    -0.00   0.021   90
   178.81    37.27   180.68    -0.00     0.00    -0.00   0.020   91
   178.81    37.27   180.68    -0.00     0.00    -0.00   0.021   92
   178.81    37.27   178.64    -0.00     0.00    -0.00   0.020   93
   179.79    37.27   180.68    -0.00     0.00    -0.00   0.021   94
   177.83    37.27   179.66    -0.00     0.00    -0.00   0.020   95
   179.79    37.27   180.68    -0.00     0.00    -0.00   0.021   96
   178.81    37.27   180.68    -0.00     0.00    -0.00   0.020   97
   178.81    37.27   179.66    -0.00     0.00    -0.00   0.021   98
   178.81    36.29   177.62    -0.00     0.00    -0.00   0.020   99
   177.83    37.27   179.66    -0.00     0.00    -0.00   0.021  100
   178.81    37.27   180.68    -0.00     0.00    -0.00   0.020  101
   177.83    37.27   178.64    -0.00     0.00    -0.00   0.021  102
   178.81    37.27   180.68    -0.00     0.00    -0.00   0.020  103
   177.83    38.25   177.62    -0.00     0.00    -0.01   0.020  104
   177.83    37.27   178.64    -0.00     0.00    -0.00   0.021  105
   178.81    37.27   179.66    -0.00     0.00    -0.00   0.020  106
   179.79    36.29   179.66    -0.00     0.00    -0.00   0.021  107
   179.79    38.25   179.66    -0.00     0.00    -0.00   0.020  108
   179.79    36.29   179.66    -0.01     0.00    -0.00   0.021  109
   179.79    36.29   178.64    -0.00     0.00    -0.00   0.020  110
   178.81    37.27   179.66    -0.00     0.00    -0.00   0.021  111
   178.81    37.27   179.66    -0.00     0.00    -0.00   0.020  112
   179.79    37.27   180.68    -0.00     0.00    -0.00   0.021  113
   178.81    38.25   178.64    -0.00     0.01    -0.00   0.020  114
   178.81    36.29   180.68    -0.01     0.00    -0.00   0.021  115
   178.81    37.27   179.66    -0.01     0.00    -0.00   0.020  116
   177.83    37.27   178.64    -0.00     0.00    -0.00   0.021  117
   177.83    38.25   177.62    -0.01     0.00    -0.00   0.020  118
   177.83    37.27   179.66    -0.00     0.00    -0.00   0.021  119
   177.83    36.29   178.64    -0.00     0.00    -0.00   0.020  120
   179.79    36.29   178.64    -0.00     0.00    -0.00   0.021  121
   178.81    37.27   179.66    -0.00     0.00    -0.00   0.020  122
   178.81    38.25   179.66    -0.00     0.00    -0.00   0.021  123
   179.79    37.27   180.68    -0.00     0.00    -0.01   0.020  124
   178.81    36.29   179.66    -0.00     0.00    -0.00   0.021  125
   178.81    36.29   177.62    -0.00     0.00    -0.00   0.020  126
   178.81    36.29   179.66    -0.00     0.00    -0.00   0.021  127
   178.81    37.27   180.68    -0.00     0.00    -0.00   0.020  128
   178.81    37.27   179.66    -0.00     0.00    -0.00   0.020  129
   178.81    36.29   178.64    -0.00     0.00    -0.00   0.021  130
   178.81    37.27   179.66    -0.00     0.00    -0.00   0.020  131
   177.83    38.25   181.69    -0.00     0.00    -0.00   0.021  132
   178.81    37.27   180.68    -0.00     0.00    -0.00   0.020  133
   178.81    37.27   179.66    -0.00     0.00    -0.00   0.021  134
   179.79    37.27   178.64    -0.00     0.00    -0.00   0.020  135
   177.83    37.27   178.64    -0.00     0.00    -0.00   0.021  136
   179.79    37.27   179.66    -0.00     0.00    -0.00   0.020  137
   179.79    37.27   178.64    -0.00     0.00    -0.00   0.021  138
   178.81    37.27   179.66    -0.00     0.00    -0.00   0.020  139
   178.81    36.29   179.66    -0.00     0.00    -0.00   0.021  140
   178.81    37.27   179.66    -0.00     0.00    -0.00   0.020  141
   178.81    37.27   180.68    -0.00     0.00    -0.00   0.021  142
   178.81    37.27   180.68    -0.00     0.01    -0.00   0.020  143
   180.76    37.27   179.66    -0.00     0.00    -0.00   0.021  144
   178.81    37.27   178.64    -0.00     0.01    -0.00   0.020  145
   178.81    37.27   179.66    -0.00     0.00    -0.00   0.021  146
   179.79    37.27   180.68    -0.00     0.00    -0.00   0.020  147
   178.81    37.27   178.64    -0.00     0.00    -0.00   0.021  148
   178.81    38.25   179.66    -0.00     0.00    -0.01   0.020  149
   177.83    37.27   179.66    -0.00     0.00    -0.01   0.021  150
   177.83    37.27   179.66    -0.00     0.00    -0.01   0.020  151
   178.81    37.27   179.66    -0.00     0.00    -0.00   0.021  152
   177.83    38.25   179.66    -0.00     0.00    -0.01   0.020  153
   177.83    37.27   178.64    -0.00     0.01    -0.00   0.020  154
   177.83    37.27   179.66    -0.00     0.00    -0.00   0.021  155
   178.81    37.27   180.68    -0.00     0.00    -0.00   0.020  156
   178.81    39.23   179.66    -0.00     0.00    -0.00   0.021  157
   178.81    38.25   180.68    -0.00     0.00    -0.00   0.020  158
   177.83    37.27   178.64    -0.00     0.00    -0.00   0.021  159
   178.81    37.27   180.68    -0.00     0.00    -0.00   0.020  160
   177.83    38.25   179.66    -0.00     0.00    -0.00   0.021  161
   177.83    38.25   179.66    -0.00     0.00    -0.00   0.020  162
   177.83    37.27   179.66    -0.00     0.00    -0.00   0.021  163
   179.79    37.27   179.66    -0.00     0.00    -0.00   0.020  164
   178.81    37.27   180.68    -0.00     0.00    -0.00   0.021  165
   176.85    37.27   180.68    -0.00     0.00    -0.00   0.020  166
   178.81    37.27   180.68    -0.00     0.00    -0.00   0.021  167
   178.81    37.27   179.66    -0.00     0.00    -0.00   0.020  168
   177.83    38.25   179.66    -0.00     0.00    -0.00   0.021  169
   177.83    36.29   179.66    -0.00     0.00    -0.00   0.020  170
   177.83    38.25   180.68    -0.00     0.00    -0.00   0.021  171
   178.81    37.27   180.68    -0.00     0.00    -0.00   0.020  172
   178.81    36.29   179.66    -0.00     0.00    -0.00   0.021  173
   178.81    37.27   179.66    -0.00     0.00    -0.00   0.020  174
   178.81    36.29   180.68    -0.00     0.00    -0.00   0.021  175
   178.81    37.27   179.66    -0.00     0.00    -0.00   0.020  176
   177.83    37.27   180.68    -0.00     0.00    -0.00   0.021  177
   179.79    37.27   179.66    -0.00     0.00    -0.00   0.020  178
   178.81    37.27   179.66    -0.00     0.00    -0.00   0.020  179
   178.81    36.29   179.66    -0.01     0.00    -0.00   0.021  180
   178.81    37.27   179.66    -0.01     0.00    -0.00   0.020  181
   176.85    39.23   179.66    -0.00     0.00    -0.00   0.021  182
   178.81    36.29   178.64    -0.00     0.00    -0.00   0.020  183
   178.81    37.27   179.66    -0.00     0.00    -0.00   0.021  184
   178.81    38.25   179.66    -0.00     0.00    -0.00   0.020  185
   177.83    36.29   179.66    -0.01     0.00    -0.00   0.021  186
   177.83    36.29   179.66    -0.01     0.00    -0.00   0.020  187
   177.83    37.27   178.64    -0.00     0.00    -0.00   0.021  188
   177.83    37.27   178.64    -0.00     0.00    -0.00   0.020  189
   177.83    37.27   180.68    -0.00     0.00    -0.00   0.021  190
   178.81    37.27   179.66    -0.00     0.00    -0.00   0.020  191
   177.83    37.27   180.68    -0.00     0.00    -0.00   0.021  192
   177.83    38.25   179.66    -0.00     0.00    -0.01   0.020  193
   177.83    36.29   178.64    -0.00     0.00    -0.00   0.021  194
   177.83    38.25   179.66    -0.00     0.00    -0.00   0.020  195
   177.83    36.29   180.68    -0.00     0.00    -0.00   0.021  196
   178.81    37.27   179.66    -0.00     0.00    -0.00   0.020  197
   178.81    37.27   180.68    -0.00     0.00    -0.00   0.021  198
   177.83    37.27   179.66    -0.00     0.00    -0.00   0.020  199
   179.79    36.29   179.66    -0.00     0.01    -0.00   0.021  200
   179.79    37.27   180.68    -0.00     0.00    -0.00   0.020  201
   178.81    37.27   179.66    -0.01     0.00    -0.00   0.021  202
   177.83    37.27   179.66    -0.01     0.00    -0.00   0.020  203
   177.83    37.27   179.66    -0.00     0.00    -0.00   0.020  204
   178.81    38.25   179.66    -0.00     0.00    -0.00   0.021  205
   177.83    37.27   179.66    -0.00     0.00    -0.00   0.020  206
   178.81    36.29   179.66    -0.00     0.00    -0.01   0.021  207
   178.81    37.27   180.68    -0.00     0.00    -0.00   0.020  208
   177.83    37.27   179.66    -0.00     0.00    -0.00   0.021  209
   179.79    37.27   180.68    -0.00     0.00    -0.00   0.020  210
   176.85    38.25   180.68    -0.00     0.00    -0.00   0.021  211
   179.79    36.29   179.66    -0.00     0.00    -0.00   0.020  212
   178.81    36.29   179.66    -0.00     0.00    -0.00   0.021  213
   178.81    38.25   178.64    -0.00     0.00    -0.00   0.020  214
   178.81    37.27   179.66    -0.00     0.00    -0.00   0.021  215
   178.81    36.29   179.66    -0.00     0.00    -0.00   0.020  216
   177.83    36.29   179.66    -0.00     0.00    -0.00   0.021  217
   177.83    37.27   180.68    -0.00     0.00    -0.00   0.020  218
   178.81    38.25   181.69    -0.00     0.00    -0.01   0.021  219
   178.81    37.27   180.68    -0.00     0.00    -0.00   0.020  220
   178.81    36.29   179.66    -0.00     0.00    -0.00   0.021  221
   179.79    36.29   179.66    -0.00     0.00    -0.00   0.020  222
   178.81    37.27   179.66    -0.00     0.00    -0.00   0.021  223
   178.81    37.27   179.66    -0.00     0.00    -0.00   0.020  224
   179.79    37.27   180.68    -0.00     0.00    -0.00   0.021  225
   178.81    37.27   180.68    -0.00     0.00    -0.00   0.020  226
   178.81    38.25   178.64    -0.00     0.00    -0.00   0.021  227
   178.81    37.27   180.68    -0.00     0.00    -0.00   0.020  228
   178.81    36.29   178.64    -0.00     0.00    -0.00   0.020  229
   178.81    37.27   180.68    -0.00     0.00    -0.00   0.021  230
   178.81    37.27   180.68    -0.01     0.00    -0.00   0.020  231
   178.81    37.27   179.66    -0.00     0.00    -0.00   0.021  232
   178.81    37.27   179.66    -0.00     0.00    -0.00   0.020  233
   179.79    37.27   178.64    -0.00     0.00    -0.00   0.021  234
   176.85    37.27   179.66    -0.01     0.00    -0.00   0.020  235
   177.83    36.29   179.66    -0.00     0.00    -0.00   0.021  236
   178.81    37.27   179.66    -0.00     0.00    -0.00   0.020  237
   178.81    37.27   180.68    -0.00     0.00    -0.00   0.021  238
   178.81    37.27   179.66    -0.01     0.00    -0.00   0.020  239
   178.81    36.29   178.64    -0.00     0.00    -0.00   0.021  240
   178.81    36.29   179.66    -0.00     0.00    -0.00   0.020  241
   177.83    36.29   179.66    -0.00     0.00    -0.00   0.021  242
   178.81    36.29   180.68    -0.00     0.00    -0.00   0.020  243
   176.85    36.29   178.64    -0.00     0.00    -0.00   0.021  244
   178.81    37.27   179.66    -0.00     0.00    -0.00   0.020  245
   178.81    38.25   181.69    -0.00     0.00    -0.00   0.021  246
   178.81    37.27   179.66    -0.00     0.00    -0.00   0.020  247
   178.81    36.29   179.66    -0.00     0.00    -0.00   0.021  248
   177.83    37.27   178.64    -0.00     0.00    -0.00   0.020  249
   179.79    37.27   178.64    -0.00     0.00    -0.00   0.021  250
   177.83    36.29   178.64    -0.00     0.00    -0.00   0.020  251
   179.79    37.27   179.66    -0.00     0.00    -0.00   0.021  252
   178.81    37.27   180.68    -0.00     0.00    -0.01   0.020  253
   177.83    38.25   178.64    -0.00     0.00    -0.01   0.020  254
   177.83    37.27   180.68    -0.00     0.00    -0.00   0.021  255
   177.83    37.27   180.68    -0.00     0.00    -0.00   0.020    0
   177.83    37.27   180.68    -0.00     0.00    -0.00   0.021    1
   177.83    38.25   178.64    -0.00     0.00    -0.00   0.020    2
   177.83    36.29   179.66    -0.00     0.00    -0.00   0.021    3
   178.81    38.25   180.68    -0.00     0.00    -0.00   0.020    4
   178.81    37.27   179.66    -0.00     0.00    -0.00   0.021    5
   179.79    37.27   180.68    -0.00     0.00    -0.00   0.020    6
   177.83    37.27   179.66    -0.00     0.00    -0.00   0.021    7
   179.79    37.27   179.66    -0.00     0.00    -0.00   0.020    8
   178.81    36.29   177.62    -0.00     0.00    -0.00   0.021    9
   178.81    36.29   180.68    -0.00     0.00    -0.00   0.020   10
   178.81    37.27   179.66    -0.01     0.00    -0.00   0.021   11
   178.81    38.25   180.68    -0.01     0.00    -0.00   0.020   12
   178.81    37.27   179.66    -0.00     0.00    -0.00   0.021   13
   177.83    37.27   179.66    -0.00     0.00    -0.00   0.020   14
   177.83    37.27   179.66    -0.00     0.00    -0.00   0.021   15
   178.81    37.27   179.66    -0.00     0.00    -0.00   0.020   16
   177.83    37.27   178.64    -0.00     0.00    -0.00   0.021   17
   179.79    37.27   179.66    -0.00     0.00    -0.01   0.020   18
   178.81    37.27   179.66    -0.00     0.00    -0.00   0.021   19
   178.81    37.27   180.68    -0.00     0.00    -0.00   0.020   20
   178.81    36.29   179.66    -0.00     0.00    -0.00   0.021   21
   177.83    37.27   179.66    -0.00     0.00    -0.00   0.020   22
   178.81    37.27   179.66    -0.00     0.00    -0.00   0.020   23
   178.81    36.29   179.66    -0.00     0.00    -0.00   0.021   24
   177.83    36.29   179.66    -0.00     0.00    -0.00   0.020   25
   177.83    37.27   178.64    -0.01     0.00    -0.00   0.021   26
   178.81    38.25   179.66    -0.00     0.00    -0.00   0.020   27
   177.83    36.29   180.68    -0.01     0.00    -0.00   0.021   28
   178.81    37.27   180.68    -0.00     0.00    -0.00   0.020   29
   178.81    37.27   180.68    -0.00     0.00    -0.00   0.021   30
   178.81    37.27   179.66    -0.00     0.00    -0.00   0.020   31
   178.81    37.27   178.64    -0.00     0.00    -0.00   0.021   32
   178.81    37.27   178.64    -0.00     0.00    -0.00   0.020   33
   178.81    35.31   180.68    -0.00     0.00    -0.00   0.021   34
   178.81    37.27   178.64    -0.00     0.00    -0.00   0.020   35
   176.85    37.27   179.66    -0.01     0.00    -0.00   0.021   36
   177.83    37.27   179.66    -0.00     0.00    -0.00   0.020   37
   177.83    38.25   180.68    -0.00     0.00    -0.00   0.021   38
   178.81    37.27   180.68    -0.00     0.01    -0.00   0.020   39
   178.81    36.29   179.66    -0.01     0.00    -0.00   0.021   40
   177.83    38.25   180.68    -0.01     0.00    -0.00   0.020   41
   178.81    38.25   180.68    -0.00     0.00    -0.00   0.021   42
   178.81    36.29   179.66    -0.00     0.00    -0.00   0.020   43
   177.83    37.27   178.64    -0.00     0.00    -0.01   0.021   44
   179.79    36.29   179.66    -0.00     0.00    -0.01   0.020   45
   177.83    38.25   180.68    -0.00     0.00    -0.01   0.021   46
   177.83    37.27   179.66    -0.00     0.00    -0.01   0.020   47
   178.81    37.27   179.66    -0.00     0.00    -0.00   0.020   48
   177.83    37.27   179.66    -0.00     0.00    -0.01   0.021   49
   177.83    37.27   179.66    -0.00     0.00    -0.00   0.020   50
   178.81    37.27   180.68    -0.00     0.00    -0.01   0.021   51
   178.81    38.25   178.64    -0.00     0.00    -0.01   0.020   52
   178.81    37.27   179.66    -0.00     0.00    -0.00   0.021   53
   178.81    37.27   180.68    -0.00     0.00    -0.00   0.020   54
   178.81    37.27   179.66    -0.00     0.00    -0.00   0.021   55
   178.81    37.27   179.66    -0.00     0.00    -0.00   0.020   56
   178.81    37.27   180.68    -0.01     0.00    -0.00   0.021   57
   178.81    37.27   180.68    -0.00     0.00    -0.00   0.020   58
   178.81    38.25   179.66    -0.00     0.00    -0.00   0.021   59
   176.85    38.25   177.62    -0.00     0.00    -0.00   0.020   60
   178.81    36.29   179.66    -0.00     0.00    -0.00   0.021   61
   178.81    37.27   179.66    -0.00     0.00    -0.00   0.020   62
   178.81    36.29   180.68    -0.00     0.00    -0.00   0.021   63
   177.83    37.27   180.68    -0.00     0.00    -0.00   0.020   64
   178.81    37.27   179.66    -0.00     0.00    -0.00   0.021   65
   177.83    36.29   178.64    -0.00     0.00    -0.00   0.020   66
   177.83    37.27   180.68    -0.00     0.00    -0.01   0.021   67
   178.81    37.27   179.66    -0.00     0.00    -0.01   0.020   68
   179.79    37.27   180.68    -0.00     0.00    -0.01   0.021   69
   178.81    37.27   179.66    -0.00     0.00    -0.00   0.020   70
   178.81    37.27   180.68    -0.00     0.00    -0.01   0.021   71
