   -17.59    13.73   253.96     0.01     0.00    -0.00   0.021  144
   -17.59    11.77   256.00     0.01     0.00    -0.00   0.020  145
   -19.54    12.75   254.98     0.01     0.00    -0.00   0.021  146
   -18.56    12.75   252.95     0.01     0.00    -0.00   0.020  147
   -17.59    11.77   253.96     0.01     0.00    -0.00   0.021  148
   -17.59    12.75   253.96     0.01     0.00    -0.00   0.020  149
   -18.56    12.75   254.98     0.01     0.00    -0.00   0.021  150
   -16.61    12.75   253.96     0.01     0.00    -0.00   0.020  151
   -18.56    12.75   253.96     0.01     0.00    -0.00   0.021  152
   -18.56    12.75   253.96     0.01     0.00    -0.00   0.020  153
   -17.59    10.79   252.95     0.01     0.00    -0.00   0.020  154
   -18.56    13.73   254.98     0.01     0.00    -0.00   0.021  155
   -18.56    12.75   253.96     0.01     0.00    -0.00   0.020  156
   -18.56    13.73   253.96     0.01     0.00    -0.00   0.021  157
   -17.59    12.75   254.98     0.01     0.00    -0.00   0.020  158
   -18.56    12.75   254.98     0.01     0.00    -0.00   0.021  159
   -17.59    12.75   256.00     0.01     0.00    -0.00   0.020  160
   -18.56    13.73   253.96     0.01     0.00    -0.00   0.021  161
   -18.56    13.73   254.98     0.01     0.00    -0.00   0.020  162
   -19.54    13.73   254.98     0.01     0.00    -0.00   0.021  163
   -19.54    12.75   252.95     0.01     0.00    -0.00   0.020  164
   -19.54    11.77   252.95     0.01     0.00    -0.00   0.021  165
   -18.56    12.75   254.98     0.01     0.00    -0.00   0.020  166
   -18.56    12.75   253.96     0.01     0.00    -0.00   0.021  167
   -18.56    11.77   253.96     0.01     0.00    -0.00   0.020  168
   -18.56    12.75   253.96     0.01     0.00    -0.00   0.021  169
   -17.59    12.75   254.98     0.01     0.00    -0.00   0.020  170
   -18.56    13.73   254.98     0.01     0.00    -0.00   0.021  171
   -18.56    12.75   256.00     0.01     0.00    -0.00   0.020  172
   -18.56    11.77   254.98     0.01     0.00    -0.00   0.021  173
   -18.56    13.73   254.98     0.01     0.00    -0.00   0.020  174
   -18.56    12.75   253.96     0.01     0.00    -0.00   0.021  175
   -18.56    13.73   253.96     0.01     0.00    -0.00   0.020  176
   -17.59    12.75   253.96     0.01     0.00    -0.00   0.021  177
   -17.59    12.75   253.96     0.01     0.00    -0.00   0.020  179
   -17.59    13.73   254.98     0.01     0.00    -0.00   0.021  180
   -19.54    12.75   253.96     0.01     0.00    -0.00   0.020  181
   -18.56    13.73   253.96     0.01     0.00    -0.00   0.021  182
   -18.56    12.75   254.98     0.01     0.00    -0.00   0.020  183
   -19.54    12.75   254.98     0.01     0.00    -0.00   0.021  184
   -19.54    13.73   254.98     0.01     0.00    -0.00   0.020  185
   -18.56    12.75   254.98     0.01     0.00    -0.00   0.021  186
   -18.56    12.75   254.98     0.01     0.00    -0.00   0.020  187
   -18.56    12.75   254.98     0.01     0.00    -0.00   0.021  188
   -17.59    13.73   254.98     0.01     0.00    -0.00   0.020  189
   -18.56    12.75   256.00     0.01     0.00    -0.00   0.021  190
   -18.56    12.75   252.95     0.01     0.00    -0.00   0.020  191
   -16.61    12.75   253.96     0.01     0.00    -0.00   0.021  192
   -18.56    13.73   252.95     0.01     0.00    -0.00   0.020  193
   -17.59    13.73   253.96     0.01     0.00    -0.00   0.021  194
   -17.59    11.77   254.98     0.01     0.00    -0.00   0.020  195
   -17.59    13.73   253.96     0.01     0.00    -0.00   0.021  196
   -19.54    13.73   257.02     0.01     0.00    -0.00   0.020  197
   -18.56    12.75   253.96     0.01     0.00    -0.00   0.021  198
   -18.56    12.75   256.00     0.01     0.00    -0.00   0.020  199
   -19.54    13.73   253.96     0.01     0.00    -0.00   0.021  200
   -18.56    13.73   256.00     0.01     0.00    -0.00   0.020  201
   -17.59    11.77   254.98     0.01     0.00    -0.00   0.021  202
   -18.56    12.75   253.96     0.01     0.00    -0.00   0.020  203
   -17.59    13.73   254.98     0.01     0.00    -0.00   0.020  204
   -17.59    12.75   252.95     0.01     0.00    -0.00   0.021  205
   -17.59    12.75   253.96     0.01     0.00    -0.00   0.020  206
   -18.56    12.75   252.95     0.01     0.00    -0.00   0.021  207
   -16.61    12.75   253.96     0.01     0.00    -0.00   0.020  208
   -17.59    12.75   253.96     0.01     0.00    -0.00   0.021  209
   -16.61    12.75   253.96     0.01     0.00    -0.00   0.020  210
   -16.61    13.73   253.96     0.01     0.00    -0.00   0.021  211
   -18.56    13.73   254.98     0.01     0.00    -0.00   0.020  212
   -17.59    12.75   254.98     0.01     0.00    -0.00   0.021  213
   -18.56    12.75   253.96     0.01     0.00    -0.00   0.020  214
   -17.59    13.73   254.98     0.01     0.00    -0.00   0.021  215
   -16.61    13.73   254.98     0.01     0.00    -0.00   0.020  216
   -17.59    12.75   254.98     0.01     0.00    -0.00   0.021  217
   -18.56    13.73   254.98     0.01     0.00    -0.00   0.020  218
   -16.61    12.75   254.98     0.01     0.00    -0.00   0.021  219
   -19.54    13.73   253.96     0.01     0.00    -0.00   0.020  220
   -17.59    12.75   254.98     0.01     0.00    -0.00   0.021  221
   -17.59    12.75   253.96     0.01     0.00    -0.00   0.020  222
   -19.54    13.73   256.00     0.01     0.00    -0.00   0.021  223
   -17.59    13.73   252.95     0.01     0.00    -0.00   0.020  224
   -18.56    13.73   254.98     0.01     0.00    -0.00   0.021  225
   -17.59    12.75   254.98     0.01     0.00    -0.00   0.020  226
   -17.59    12.75   254.98     0.01     0.00    -0.00   0.021  227
   -18.56    12.75   256.00     0.01     0.00    -0.00   0.020  228
   -19.54    13.73   253.96     0.01     0.00    -0.00   0.020  229
   -17.59    12.75   254.98     0.01     0.00    -0.00   0.021  230
   -17.59    11.77   254.98     0.01     0.00    -0.00   0.020  231
   -20.52    14.71   251.93     0.01     0.00    -0.00   0.021  232
   -18.56    13.73   254.98     0.01     0.00    -0.00   0.020  233
   -18.56    12.75   252.95     0.01     0.00    -0.00   0.021  234
   -18.56    12.75   254.98     0.01     0.00    -0.00   0.020  235
   -18.56    11.77   256.00     0.01     0.00    -0.00   0.021  236
   -18.56    11.77   254.98     0.01     0.00    -0.00   0.020  237
   -19.54    12.75   254.98     0.01     0.00    -0.00   0.021  238
   -18.56    13.73   254.98     0.01     0.00    -0.00   0.020  239
   -19.54    11.77   252.95     0.01     0.00    -0.00   0.021  240
   -18.56    13.73   252.95     0.01     0.00    -0.00   0.020  241
   -17.59    13.73   254.98     0.01     0.00    -0.00   0.021  242
   -18.56    12.75   254.98     0.01     0.00    -0.00   0.020  243
   -18.56    12.75   253.96     0.01     0.00    -0.00   0.021  244
   -18.56    11.77   253.96     0.01     0.00    -0.00   0.020  245
   -19.54    13.73   254.98     0.01     0.00    -0.00   0.021  246
   -19.54    13.73   252.95     0.01     0.00    -0.00   0.020  247
   -21.50    11.77   251.93     0.01     0.00    -0.00   0.021  248
   -19.54    13.73   254.98     0.01     0.00    -0.00   0.020  249
   -18.56    13.73   254.98     0.01     0.00    -0.00   0.021  250
   -17.59    12.75   256.00     0.01     0.00    -0.00   0.020  251
   -18.56    12.75   256.00     0.01     0.00    -0.00   0.021  252
   -17.59    13.73   254.98     0.01     0.00    -0.00   0.020  253
   -19.54    12.75   253.96     0.01     0.00    -0.00   0.020  254
   -19.54    13.73   253.96     0.01     0.00    -0.00   0.021  255
   -19.54    12.75   251.93     0.01     0.00    -0.00   0.020    0
   -21.50    10.79   251.93     0.01     0.00    -0.00   0.021    1
   -18.56    12.75   254.98     0.01     0.00    -0.00   0.020    2
   -19.54    12.75   252.95     0.01     0.00    -0.00   0.021    3
   -19.54    12.75   256.00     0.01     0.00    -0.00   0.020    4
   -16.61    12.75   251.93     0.01     0.00    -0.00   0.021    5
   -18.56    11.77   253.96     0.01     0.00    -0.00   0.020    6
   -18.56    11.77   253.96     0.01     0.00    -0.00   0.021    7
   -20.52    12.75   252.95     0.01     0.00    -0.00   0.020    8
   -21.50    10.79   251.93     0.01     0.00    -0.00   0.021    9
   -18.56    12.75   254.98     0.01     0.00    -0.00   0.020   10
   -18.56    14.71   254.98     0.01     0.00    -0.00   0.021   11
   -17.59    12.75   252.95     0.01     0.00    -0.00   0.020   12
   -18.56    11.77   254.98     0.01     0.00    -0.00   0.021   13
   -18.56    12.75   253.96     0.01     0.00    -0.00   0.020   14
   -17.59    13.73   252.95     0.01     0.00    -0.00   0.021   15
   -17.59    12.75   254.98     0.01     0.00    -0.00   0.020   16
   -20.52    11.77   253.96     0.01     0.00    -0.00   0.021   17
   -18.56     7.85   251.93     0.01     0.00    -0.00   0.020   18
   -17.59    12.75   254.98     0.01     0.00    -0.00   0.021   19
   -17.59    12.75   254.98     0.01     0.00    -0.00   0.020   20
   -18.56    12.75   254.98     0.01     0.00    -0.00   0.021   21
   -18.56    12.75   254.98     0.01     0.00    -0.00   0.020   22
   -18.56    13.73   253.96     0.01     0.00    -0.00   0.020   23
   -17.59    10.79   254.98     0.01     0.00    -0.00   0.021   24
   -19.54    12.75   249.89     0.01     0.00    -0.00   0.020   25
   -20.52    12.75   250.91     0.01     0.00    -0.00   0.021   26
   -21.50    10.79   250.91     0.01     0.00    -0.00   0.020   27
   -18.56    12.75   256.00     0.01     0.00    -0.00   0.021   28
   -17.59    13.73   253.96     0.01     0.00    -0.00   0.020   29
   -18.56    12.75   254.98     0.01     0.00    -0.00   0.021   30
   -18.56    12.75   254.98     0.01     0.00    -0.00   0.020   31
   -17.59    13.73   250.91     0.01     0.00    -0.00   0.020   33
   -18.56    12.75   250.91     0.01     0.00    -0.00   0.021   34
   -21.50    12.75   250.91     0.01     0.00    -0.00   0.020   35
   -21.50    12.75   254.98     0.01     0.00    -0.00   0.021   36
   -18.56    12.75   252.95     0.01     0.00    -0.00   0.020   37
   -17.59    11.77   253.96     0.01     0.00    -0.00   0.021   38
   -18.56    12.75   254.98     0.01     0.00    -0.00   0.021   40
   -17.59     8.83   249.89     0.01     0.00    -0.00   0.020   41
   -16.61    14.71   256.00     0.01     0.00    -0.00   0.021   42
   -17.59    13.73   252.95     0.01     0.00    -0.00   0.020   43
   -18.56    13.73   251.93     0.01     0.00    -0.00   0.021   44
   -17.59    12.75   254.98     0.01     0.00    -0.00   0.020   45
   -17.59    12.75   254.98     0.01     0.00    -0.00   0.020   47
   -18.56    13.73   254.98     0.01     0.00    -0.00   0.020   48
   -19.54     7.85   250.91     0.01     0.00    -0.00   0.021   49
   -19.54    11.77   260.07     0.01     0.00    -0.00   0.020   50
   -20.52    12.75   251.93     0.01     0.00    -0.00   0.021   51
   -22.47     9.81   252.95     0.01     0.00    -0.00   0.020   52
   -18.56    12.75   254.98     0.01     0.00    -0.00   0.020   54
   -17.59    12.75   253.96     0.01     0.00    -0.00   0.021   55
   -18.56    13.73   253.96     0.01     0.00    -0.00   0.020   56
   -19.54    11.77   252.95     0.01     0.00    -0.00   0.021   57
   -17.59     7.85   249.89     0.01     0.00    -0.00   0.020   58
   -17.59    10.79   256.00     0.01     0.00    -0.00   0.021   59
   -18.56    12.75   254.98     0.01     0.00    -0.00   0.021   61
   -18.56    12.75   253.96     0.01     0.00    -0.00   0.020   62
   -17.59    12.75   254.98     0.01     0.00    -0.00   0.021   63
   -18.56    13.73   254.98     0.01     0.00    -0.00   0.020   64
   -18.56    12.75   254.98     0.01     0.00    -0.00   0.021   65
   -18.56    11.77   258.04     0.01     0.00    -0.00   0.020   66
   -17.59     7.85   249.89     0.01     0.00    -0.00   0.020   68
   -17.59    12.75   256.00     0.01     0.00    -0.00   0.021   69
   -18.56    13.73   256.00     0.01     0.00    -0.00   0.020   70
   -17.59    12.75   254.98     0.01     0.00    -0.00   0.021   71
   -18.56    12.75   256.00     0.01     0.00    -0.00   0.020   72
   -18.56    13.73   254.98     0.01     0.00    -0.00   0.020   73
   -18.56    11.77   252.95     0.01     0.00    -0.00   0.021   74
   -18.56    12.75   251.93     0.01     0.00    -0.00   0.020   75
   -17.59    13.73   248.87     0.01     0.00    -0.00   0.021   76
   -15.63    15.69   256.00     0.01     0.00    -0.00   0.020   77
   -17.59    13.73   256.00     0.01     0.00    -0.00   0.021   78
   -17.59    12.75   254.98     0.01     0.00    -0.00   0.020   79
   -16.61    12.75   254.98     0.01     0.00    -0.00   0.021   80
   -19.54    13.73   254.98     0.01     0.00    -0.00   0.021   82
   -18.56    12.75   257.02     0.01     0.00    -0.00   0.020   83
   -17.59    13.73   252.95     0.01     0.00    -0.00   0.021   84
   -19.54     4.90   249.89     0.01     0.00    -0.00   0.020   85
   -17.59    12.75   253.96     0.01     0.00    -0.00   0.021   86
   -18.56    13.73   254.98     0.01     0.00    -0.00   0.020   87
   -17.59    13.73   256.00     0.01     0.00    -0.00   0.021   88
   -18.56    13.73   254.98     0.01     0.00    -0.00   0.020   89
   -17.59    11.77   253.96     0.01     0.00    -0.00   0.021   90
   -19.54     9.81   252.95     0.01     0.00    -0.00   0.020   91
   -18.56    11.77   258.04     0.01     0.00    -0.00   0.020   93
   -18.56    14.71   250.91     0.01     0.00    -0.00   0.021   94
   -17.59    13.73   256.00     0.01     0.00    -0.00   0.020   95
   -16.61    13.73   254.98     0.01     0.00    -0.00   0.021   96
   -17.59    13.73   254.98     0.01     0.00    -0.00   0.020   97
   -18.56    13.73   254.98     0.01     0.00    -0.00   0.020   98
   -17.59    12.75   253.96     0.01     0.00    -0.00   0.020  100
   -13.68    13.73   256.00     0.01     0.00    -0.00   0.021  101
   -23.45    13.73   247.86     0.01     0.00    -0.00   0.020  102
   -17.59    13.73   256.00     0.01     0.00    -0.00   0.021  103
   -18.56    13.73   256.00     0.01     0.00    -0.00   0.020  104
   -17.59    14.71   256.00     0.01     0.00    -0.00   0.021  105
   -18.56    13.73   253.96     0.01     0.00    -0.00   0.021  107
   -19.54    12.75   254.98     0.01     0.00    -0.00   0.020  108
   -18.56    13.73   254.98     0.01     0.00    -0.00   0.020  110
   -17.59    12.75   256.00     0.01     0.00    -0.00   0.021  111
   -22.47    13.73   247.86     0.01     0.00    -0.00   0.020  112
   -18.56    13.73   254.98     0.01     0.00    -0.00   0.020  114
   -18.56    11.77   253.96     0.01     0.00    -0.00   0.021  115
   -17.59    12.75   254.98     0.01     0.00    -0.00   0.020  116
   -19.54    12.75   252.95     0.01     0.00    -0.00   0.021  117
   -19.54    11.77   253.96     0.01     0.00    -0.00   0.020  118
   -27.36     5.89   250.91     0.01     0.00    -0.00   0.021  119
   -18.56    13.73   253.96     0.01     0.00    -0.00   0.021  121
   -20.52    13.73   246.84     0.01     0.00    -0.00   0.020  122
   -18.56    12.75   252.95     0.01     0.00    -0.00   0.020  123
   -17.59    12.75   254.98     0.01     0.00    -0.00   0.021  124
   -18.56    12.75   256.00     0.01     0.00    -0.00   0.020  125
   -18.56    11.77   252.95     0.01     0.00    -0.00   0.021  126
   -17.59    14.71   257.02     0.01     0.00    -0.00   0.021  128
   -17.59    14.71   252.95     0.01     0.00    -0.00   0.020  129
   -21.50    12.75   250.91     0.01     0.00    -0.00   0.021  130
   -19.54    13.73   256.00     0.01     0.00    -0.00   0.020  131
   -16.61    13.73   256.00     0.01     0.00    -0.00   0.021  132
   -19.54    12.75   254.98     0.01     0.00    -0.00   0.020  133
   -18.56    12.75   254.98     0.01     0.00    -0.00   0.020  135
   -17.59    13.73   254.98     0.01     0.00    -0.00   0.021  136
   -18.56    13.73   256.00     0.01     0.00    -0.00   0.020  137
   -18.56    13.73   254.98     0.01     0.00    -0.00   0.021  138
   -17.59    13.73   256.00     0.01     0.00    -0.00   0.020  139
   -17.59    14.71   256.00     0.01     0.00    -0.00   0.021  140
   -17.59    13.73   256.00     0.01     0.00    -0.00   0.021  142
   -17.59    12.75   254.98     0.01     0.00    -0.00   0.020  143
   -18.56    12.75   254.98     0.01     0.00    -0.00   0.021  144
   -18.56    13.73   253.96     0.01     0.00    -0.00   0.020  145
   -18.56    13.73   254.98     0.01     0.00    -0.00   0.021  146
   -18.56    13.73   256.00     0.01     0.00    -0.00   0.020  147
   -18.56    11.77   254.98     0.01     0.00    -0.00   0.021  149
   -17.59    13.73   256.00     0.01     0.00    -0.00   0.020  150
   -19.54    12.75   253.96     0.01     0.00    -0.00   0.021  151
   -19.54    12.75   253.96     0.01     0.00    -0.00   0.020  152
   -19.54    12.75   253.96     0.01     0.00    -0.00   0.021  153
   -17.59    12.75   252.95     0.01     0.00    -0.00   0.020  154
   -19.54    11.77   254.98     0.01     0.00    -0.00   0.020  156
   -17.59    11.77   254.98     0.01     0.00    -0.00   0.021  157
   -17.59    13.73   253.96     0.01     0.00    -0.00   0.020  158
   -18.56    13.73   253.96     0.01     0.00    -0.00   0.021  159
   -19.54    13.73   254.98     0.01     0.00    -0.00   0.020  160
   -18.56    13.73   253.96     0.01     0.00    -0.00   0.021  161
   -18.56    13.73   253.96     0.01     0.00    -0.00   0.021  163
   -18.56    12.75   252.95     0.01     0.00    -0.00   0.020  164
   -17.59    12.75   254.98     0.01     0.00    -0.00   0.021  165
   -18.56    14.71   253.96     0.01     0.00    -0.00   0.020  166
   -18.56    13.73   252.95     0.01     0.00    -0.00   0.021  167
   -17.59    13.73   253.96     0.01     0.00    -0.00   0.020  168
   -18.56    12.75   253.96     0.01     0.00    -0.00   0.020  170
   -17.59    13.73   253.96     0.01     0.00    -0.00   0.021  171
   -17.59    12.75   254.98     0.01     0.00    -0.00   0.020  172
   -18.56    12.75   252.95     0.01     0.00    -0.00   0.020  173
   -18.56    12.75   254.98     0.01     0.00    -0.00   0.021  174
   -18.56    12.75   254.98     0.01     0.00    -0.00   0.020  175
   -18.56    11.77   253.96     0.01     0.00    -0.00   0.020  177
   -18.56    11.77   253.96     0.01     0.00    -0.00   0.021  178
   -17.59    12.75   254.98     0.01     0.00    -0.00   0.020  179
   -18.56    12.75   254.98     0.01     0.00    -0.00   0.021  180
   -18.56    13.73   253.96     0.01     0.00    -0.00   0.020  181
   -17.59    13.73   253.96     0.01     0.00    -0.00   0.021  182
   -18.56    12.75   254.98     0.01     0.00    -0.00   0.021  184
   -18.56    13.73   254.98     0.01     0.00    -0.00   0.020  185
   -18.56    12.75   253.96     0.01     0.00    -0.00   0.021  186
   -18.56    12.75   254.98     0.01     0.00    -0.00   0.020  187
   -19.54    12.75   253.96     0.01     0.00    -0.00   0.021  188
   -18.56    12.75   254.98     0.01     0.00    -0.00   0.020  189
   -18.56    12.75   252.95     0.01     0.00    -0.00   0.020  191
   -18.56    13.73   252.95     0.01     0.00    -0.00   0.021  192
   -19.54    13.73   252.95     0.01     0.00    -0.00   0.020  193
   -18.56    11.77   256.00     0.01     0.00    -0.00   0.021  194
   -18.56    12.75   253.96     0.01     0.00    -0.00   0.020  195
   -18.56    12.75   253.96     0.01     0.00    -0.00   0.021  196
   -18.56    12.75   252.95     0.01     0.00    -0.00   0.020  198
   -18.56    13.73   254.98     0.01     0.00    -0.00   0.021  199
   -17.59    13.73   253.96     0.01     0.00    -0.00   0.020  200
   -18.56    12.75   253.96     0.01     0.00    -0.00   0.021  201
   -18.56    12.75   253.96     0.01     0.00    -0.00   0.020  202
   -18.56    13.73   254.98     0.01     0.00    -0.00   0.021  203
   -17.59    12.75   253.96     0.01     0.00    -0.00   0.021  205
   -16.61    12.75   252.95     0.01     0.00    -0.00   0.020  206
   -16.61    11.77   254.98     0.01     0.00    -0.00   0.021  207
   -17.59    12.75   256.00     0.01     0.00    -0.00   0.020  208
   -18.56    11.77   252.95     0.01     0.00    -0.00   0.021  209
   -17.59    12.75   253.96     0.01     0.00    -0.00   0.020  210
   -19.54    12.75   253.96     0.01     0.00    -0.00   0.020  212
   -18.56    12.75   253.96     0.01     0.00    -0.00   0.021  213
   -18.56    12.75   254.98     0.01     0.00    -0.00   0.020  214
   -19.54    12.75   252.95     0.01     0.00    -0.00   0.021  215
   -18.56    12.75   252.95     0.01     0.00    -0.00   0.020  216
   -19.54    12.75   253.96     0.01     0.00    -0.00   0.021  217
   -18.56    12.75   254.98     0.01     0.00    -0.00   0.021  219
   -17.59    12.75   253.96     0.01     0.00    -0.00   0.020  220
   -18.56    13.73   252.95     0.01     0.00    -0.00   0.021  221
   -20.52    12.75   254.98     0.01     0.00    -0.00   0.020  222
   -18.56    11.77   253.96     0.01     0.00    -0.00   0.020  223
   -19.54    12.75   254.98     0.01     0.00    -0.00   0.021  224
   -18.56    13.73   253.96     0.01     0.00    -0.00   0.021  226
   -17.59    13.73   252.95     0.01     0.00    -0.00   0.020  227
   -16.61    11.77   253.96     0.01     0.00    -0.00   0.021  228
   -17.59    12.75   254.98     0.01     0.00    -0.00   0.020  229
   -18.56    12.75   253.96     0.01     0.00    -0.00   0.021  230
   -18.56    13.73   253.96     0.01     0.00    -0.00   0.020  231
   -17.59    11.77   254.98     0.01     0.00    -0.00   0.020  233
   -18.56    12.75   254.98     0.01     0.00    -0.00   0.021  234
   -19.54    12.75   254.98     0.01     0.00    -0.00   0.020  235
   -17.59    12.75   252.95     0.01     0.00    -0.00   0.021  236
   -17.59    12.75   252.95     0.01     0.00    -0.00   0.020  237
   -16.61    12.75   253.96     0.01     0.00    -0.00   0.021  238
   -18.56    12.75   256.00     0.01     0.00    -0.00   0.021  240
   -19.54    12.75   253.96     0.01     0.00    -0.00   0.020  241
   -17.59    12.75   253.96     0.01     0.00    -0.00   0.021  242
   -18.56    12.75   251.93     0.01     0.00    -0.00   0.020  243
   -18.56    12.75   253.96     0.01     0.00    -0.00   0.021  244
   -18.56    12.75   254.98     0.01     0.00    -0.00   0.020  245
   -18.56    13.73   254.98     0.01     0.00    -0.00   0.020  247
   -18.56    12.75   253.96     0.01     0.00    -0.00   0.020  248
   -16.61    11.77   253.96     0.01     0.00    -0.00   0.021  249
   -17.59    12.75   253.96     0.01     0.00    -0.00   0.020  250
   -19.54    12.75   257.02     0.01     0.00    -0.00   0.021  251
   -17.59    12.75   253.96     0.01     0.00    -0.00   0.020  252
   -19.54    13.73   252.95     0.01     0.00    -0.00   0.020  254
   -18.56    12.75   252.95     0.01     0.00    -0.00   0.021  255
   -19.54    11.77   253.96     0.01     0.00    -0.00   0.020    0
   -17.59    12.75   252.95     0.01     0.00    -0.00   0.021    1
   -17.59    14.71   256.00     0.01     0.00    -0.00   0.020    2
   -17.59    12.75   253.96     0.01     0.00    -0.00   0.021    3
   -17.59    12.75   252.95     0.01     0.00    -0.00   0.021    5
   -17.59    12.75   253.96     0.01     0.00    -0.00   0.020    6
   -18.56    13.73   254.98     0.01     0.00    -0.00   0.021    7
   -17.59    12.75   254.98     0.01     0.00    -0.00   0.020    8
   -19.54    13.73   253.96     0.01     0.00    -0.00   0.021    9
   -18.56    13.73   253.96     0.01     0.00    -0.00   0.020   10
   -17.59    12.75   253.96     0.01     0.00    -0.00   0.020   12
   -19.54    13.73   253.96     0.01     0.00    -0.00   0.021   13
   -17.59    12.75   253.96     0.01     0.00    -0.00   0.020   14
   -18.56    13.73   253.96     0.01     0.00    -0.00   0.021   15
   -18.56    14.71   254.98     0.01     0.00    -0.00   0.020   16
   -18.56    13.73   254.98     0.01     0.00    -0.00   0.020   17
   -18.56    12.75   254.98     0.01     0.00    -0.00   0.020   19
   -18.56    12.75   254.98     0.01     0.00    -0.00   0.021   20
   -17.59    13.73   254.98     0.01     0.00    -0.00   0.020   21
   -19.54    11.77   252.95     0.01     0.00    -0.00   0.021   22
   -18.56    14.71   254.98     0.01     0.00    -0.00   0.020   23
   -18.56    12.75   252.95     0.01     0.00    -0.00   0.021   24
   -18.56    13.73   254.98     0.01     0.00    -0.00   0.021   26
   -18.56    13.73   256.00     0.01     0.00    -0.00   0.020   27
   -17.59    13.73   254.98     0.01     0.00    -0.00   0.021   28
   -17.59    12.75   252.95     0.01     0.00    -0.00   0.020   29
   -17.59    11.77   253.96     0.01     0.00    -0.00   0.021   30
   -20.52    13.73   252.95     0.01     0.00    -0.00   0.020   31
   -21.50    10.79   252.95     0.01     0.00    -0.00   0.020   33
   -18.56    12.75   256.00     0.01     0.00    -0.00   0.021   34
   -17.59    12.75   254.98     0.01     0.00    -0.00   0.020   35
   -18.56    12.75   253.96     0.01     0.00    -0.00   0.021   36
   -18.56    12.75   252.95     0.01     0.00    -0.00   0.020   37
   -18.56    12.75   252.95     0.01     0.00    -0.00   0.021   38
   -20.52    13.73   251.93     0.01     0.00    -0.00   0.021   40
   -20.52    11.77   254.98     0.01     0.00    -0.00   0.020   41
   -21.50    12.75   254.98     0.01     0.00    -0.00   0.020   42
   -18.56    12.75   254.98     0.01     0.00    -0.00   0.021   43
   -17.59    12.75   253.96     0.01     0.00    -0.00   0.020   44
   -18.56    13.73   254.98     0.01     0.00    -0.00   0.021   45
   -19.54    11.77   254.98     0.01     0.00    -0.00   0.021   47
   -18.56    11.77   254.98     0.01     0.00    -0.00   0.020   48
   -21.50    10.79   253.96     0.01     0.00    -0.00   0.021   49
   -21.50    13.73   251.93     0.01     0.00    -0.00   0.020   50
   -18.56    12.75   253.96     0.01     0.00    -0.00   0.021   51
   -17.59    12.75   254.98     0.01     0.00    -0.00   0.020   52
   -18.56    12.75   256.00     0.01     0.00    -0.00   0.020   54
   -18.56    12.75   254.98     0.01     0.00    -0.00   0.021   55
   -19.54    12.75   252.95     0.01     0.00    -0.00   0.020   56
   -18.56    11.77   254.98     0.01     0.00    -0.00   0.021   57
   -18.56    12.75   253.96     0.01     0.00    -0.00   0.020   58
   -17.59    11.77   253.96     0.01     0.00    -0.00   0.021   59
   -17.59    13.73   256.00     0.01     0.00    -0.00   0.021   61
   -17.59    14.71   254.98     0.01     0.00    -0.00   0.020   62
   -18.56    12.75   254.98     0.01     0.00    -0.00   0.021   63
   -18.56    12.75   253.96     0.01     0.00    -0.00   0.020   64
   -18.56    13.73   252.95     0.01     0.00    -0.00   0.021   65
   -19.54    14.71   252.95     0.01     0.00    -0.00   0.020   66
   -18.56    13.73   254.98     0.01     0.00    -0.00   0.021   68
   -18.56    13.73   252.95     0.01     0.00    -0.00   0.020   69
   -17.59    12.75   251.93     0.01     0.00    -0.00   0.021   70
   -18.56    13.73   252.95     0.01     0.00    -0.00   0.020   71
   -18.56    12.75   253.96     0.01     0.00     0.00   0.021   72
   -18.56    12.75   253.96     0.01     0.00    -0.00   0.020   73
   -19.54    11.77   253.96     0.01     0.00    -0.00   0.020   75
   -15.63    13.73   250.91     0.01     0.00    -0.00   0.021   76
   -18.56    12.75   252.95     0.01     0.00    -0.00   0.020   77
   -17.59    12.75   250.91     0.01     0.00    -0.00   0.021   78
   -18.56    14.71   250.91     0.01     0.00    -0.00   0.020   79
   -17.59    11.77   253.96     0.01     0.00    -0.00   0.021   80
   -18.56    12.75   253.96     0.01     0.00    -0.00   0.021   82
   -18.56    12.75   253.96     0.01     0.00    -0.00   0.020   83
   -17.59    12.75   252.95     0.01     0.00    -0.00   0.021   84
   -21.50    11.77   252.95     0.01     0.00    -0.00   0.020   85
   -21.50    11.77   249.89     0.01     0.00    -0.00   0.021   86
   -21.50    14.71   252.95     0.01     0.00    -0.00   0.020   87
   -17.59    13.73   256.00     0.01     0.00    -0.00   0.020   89
   -17.59    11.77   254.98     0.01     0.00    -0.00   0.021   90
   -17.59    11.77   254.98     0.01     0.00    -0.00   0.020   91
   -18.56    13.73   254.98     0.01     0.00    -0.00   0.020   92
   -18.56    11.77   253.96     0.01     0.00    -0.00   0.021   93
   -20.52    10.79   252.95     0.01     0.00    -0.00   0.020   94
   -16.61    13.73   256.00     0.01     0.00    -0.00   0.020   96
   -19.54    13.73   254.98     0.01     0.00    -0.00   0.021   97
   -18.56    13.73   257.02     0.01     0.00    -0.00   0.020   98
   -17.59    12.75   254.98     0.01     0.00    -0.00   0.021   99
   -18.56    12.75   252.95     0.01     0.00    -0.00   0.020  100
   -20.52    11.77   254.98     0.01     0.00    -0.00   0.021  101
   -17.59    13.73   250.91     0.01     0.00    -0.00   0.021  103
   -19.54    11.77   253.96     0.01     0.00    -0.00   0.020  104
   -22.47     8.83   250.91     0.01     0.00    -0.00   0.021  105
   -18.56    13.73   254.98     0.01     0.00    -0.00   0.020  106
   -19.54    12.75   253.96     0.01     0.00    -0.00   0.021  107
   -18.56    13.73   254.98     0.01     0.00    -0.00   0.020  108
   -19.54    11.77   253.96     0.01     0.00    -0.00   0.020  110
   -19.54    13.73   254.98     0.01     0.00    -0.00   0.021  111
   -18.56    12.75   254.98     0.01     0.00    -0.00   0.020  112
   -17.59     5.89   250.91     0.01     0.00    -0.00   0.021  113
   -20.52     5.89   250.91     0.01     0.00    -0.00   0.020  114
   -22.47     8.83   249.89     0.01     0.00    -0.00   0.021  115
   -18.56    12.75   254.98     0.01     0.00    -0.00   0.020  117
   -17.59    13.73   256.00     0.01     0.00    -0.00   0.021  118
   -17.59    12.75   253.96     0.01     0.00    -0.00   0.020  119
   -18.56    12.75   256.00     0.01     0.00    -0.00   0.021  120
   -17.59    14.71   253.96     0.01     0.00    -0.00   0.020  121
   -19.54    14.71   252.95     0.01     0.00    -0.00   0.021  122
   -13.68    14.71   249.89     0.01     0.00    -0.00   0.021  124
   -18.56    14.71   254.98     0.01     0.00    -0.00   0.020  125
   -18.56    13.73   256.00     0.01     0.00    -0.00   0.021  126
   -18.56    13.73   254.98     0.01     0.00    -0.00   0.020  127
   -18.56    12.75   254.98     0.01     0.00    -0.00   0.021  128
   -18.56    13.73   253.96     0.01     0.00    -0.00   0.020  129
   -19.54    12.75   250.91     0.01     0.00    -0.00   0.020  131
   -19.54     9.81   256.00     0.01     0.00    -0.00   0.021  132
   -16.61    13.73   257.02     0.01     0.00    -0.00   0.020  133
   -17.59    13.73   254.98     0.01     0.00    -0.00   0.021  134
   -17.59    13.73   256.00     0.01     0.00    -0.00   0.020  135
   -17.59    13.73   256.00     0.01     0.00    -0.00   0.021  136
   -19.54    13.73   253.96     0.01     0.00    -0.00   0.021  138
   -19.54    13.73   252.95     0.01     0.00    -0.00   0.020  139
   -18.56    12.75   253.96     0.01     0.00    -0.00   0.021  140
   -20.52    10.79   261.09     0.01     0.00    -0.00   0.020  141
   -17.59    13.73   258.04     0.01     0.00    -0.00   0.020  142
   -18.56    13.73   253.96     0.01     0.00    -0.00   0.021  143
   -18.56    12.75   249.89     0.01     0.00    -0.00   0.021  145
   -18.56    12.75   253.96     0.01     0.00    -0.00   0.020  146
   -19.54    12.75   253.96     0.01     0.00    -0.00   0.021  147
   -19.54    12.75   252.95     0.01     0.00    -0.00   0.020  148
   -20.52    11.77   253.96     0.01     0.00    -0.00   0.021  149
   -18.56    10.79   265.16     0.01     0.00    -0.00   0.020  150
   -25.40    16.67   253.96     0.01     0.00    -0.00   0.020  152
   -20.52    13.73   260.07     0.01     0.00    -0.00   0.021  153
   -19.54    14.71   256.00     0.01     0.00    -0.00   0.020  154
   -17.59    13.73   256.00     0.01     0.00    -0.00   0.021  155
   -19.54    12.75   252.95     0.01     0.00    -0.00   0.020  156
   -18.56    12.75   254.98     0.01     0.00    -0.00   0.021  157
   -20.52    11.77   256.00     0.01     0.00    -0.00   0.021  159
   -18.56    12.75   259.05     0.01     0.00    -0.00   0.020  160
   -19.54    10.79   256.00     0.01     0.00    -0.00   0.021  161
   -16.61    13.73   256.00     0.01     0.00    -0.00   0.020  162
   -16.61    15.69   257.02     0.01     0.00    -0.00   0.021  163
   -16.61    13.73   256.00     0.01     0.00    -0.00   0.020  164
   -19.54    12.75   254.98     0.01     0.00    -0.00   0.020  166
   -19.54    13.73   256.00     0.01     0.00    -0.00   0.020  167
   -18.56    11.77   256.00     0.01     0.00    -0.00   0.021  168
   -19.54    12.75   253.96     0.01     0.00    -0.00   0.020  169
   -18.56    11.77   254.98     0.01     0.00    -0.00   0.021  170
   -16.61    13.73   254.98     0.01     0.00    -0.00   0.020  171
   -16.61    13.73   257.02     0.01     0.00    -0.00   0.020  173
   -19.54    13.73   253.96     0.01     0.00    -0.00   0.021  174
   -20.52    13.73   254.98     0.01     0.00    -0.00   0.020  175
   -17.59    12.75   252.95     0.01     0.00    -0.00   0.021  176
   -18.56    13.73   253.96     0.01     0.00    -0.00   0.020  177
   -18.56    12.75   254.98     0.01     0.00    -0.00   0.021  178
   -18.56    13.73   254.98     0.01     0.00    -0.00   0.021  180
   -18.56    13.73   254.98     0.01     0.00    -0.00   0.020  181
   -19.54    14.71   253.96     0.01     0.00    -0.00   0.021  182
   -19.54    13.73   254.98     0.01     0.00    -0.00   0.020  183
   -18.56    13.73   254.98     0.01     0.00    -0.00   0.021  184
   -18.56    13.73   254.98     0.01     0.00    -0.00   0.020  185
   -19.54    14.71   253.96     0.01     0.00    -0.00   0.020  187
   -18.56    13.73   253.96     0.01     0.00    -0.00   0.021  188
   -19.54    13.73   253.96     0.01     0.00    -0.00   0.020  189
   -18.56    13.73   253.96     0.01     0.00    -0.00   0.021  190
   -18.56    12.75   254.98     0.01     0.00    -0.00   0.020  191
   -19.54    13.73   254.98     0.01     0.00    -0.00   0.020  192
   -18.56    12.75   253.96     0.01     0.00    -0.00   0.020  194
   -19.54    12.75   253.96     0.01     0.00    -0.00   0.021  195
   -18.56    12.75   253.96     0.01     0.00    -0.00   0.020  196
   -19.54    13.73   254.98     0.01     0.00    -0.00   0.021  197
   -18.56    13.73   253.96     0.01     0.00    -0.00   0.020  198
   -18.56    12.75   254.98     0.01     0.00    -0.00   0.021  199
   -19.54    12.75   254.98     0.01     0.00    -0.00   0.021  201
   -18.56    12.75   253.96     0.01     0.00    -0.00   0.020  202
   -17.59    12.75   253.96     0.01     0.00    -0.00   0.021  203
   -17.59    12.75   253.96     0.01     0.00    -0.00   0.020  204
   -18.56    12.75   253.96     0.01     0.00    -0.00   0.021  205
   -18.56    13.73   254.98     0.01     0.00    -0.00   0.020  206
   -18.56    13.73   252.95     0.01     0.00    -0.00   0.020  208
   -17.59    12.75   252.95     0.01     0.00    -0.00   0.021  209
   -18.56    12.75   256.00     0.01     0.00    -0.00   0.020  210
   -17.59    12.75   253.96     0.01     0.00    -0.00   0.021  211
   -18.56    13.73   252.95     0.01     0.00    -0.00   0.020  212
   -18.56    13.73   252.95     0.01     0.00    -0.00   0.021  213
   -18.56    12.75   253.96     0.01     0.00    -0.00   0.021  215
   -18.56    12.75   254.98     0.01     0.00    -0.00   0.020  216
   -18.56    13.73   254.98     0.01     0.00    -0.00   0.020  217
   -19.54    13.73   252.95     0.01     0.00    -0.00   0.021  218
   -19.54    12.75   254.98     0.01     0.00    -0.00   0.020  219
   -17.59    12.75   253.96     0.01     0.00    -0.00   0.021  220
   -18.56    13.73   252.95     0.01     0.00    -0.00   0.021  222
   -18.56    12.75   253.96     0.01     0.00    -0.00   0.020  223
   -18.56    11.77   254.98     0.01     0.00    -0.00   0.021  224
   -18.56    12.75   253.96     0.01     0.00    -0.00   0.020  225
   -19.54    12.75   253.96     0.01     0.00    -0.00   0.021  226
   -19.54    12.75   254.98     0.01     0.00    -0.00   0.020  227
   -18.56    12.75   253.96     0.01     0.00    -0.00   0.020  229
   -18.56    11.77   254.98     0.01     0.00    -0.00   0.021  230
   -18.56    13.73   254.98     0.01     0.00    -0.00   0.020  231
   -19.54    13.73   254.98     0.01     0.00    -0.00   0.021  232
   -18.56    12.75   254.98     0.01     0.00    -0.00   0.020  233
   -18.56    13.73   254.98     0.01     0.00    -0.00   0.021  234
   -18.56    12.75   252.95     0.01     0.00    -0.00   0.021  236
   -17.59    12.75   253.96     0.01     0.00    -0.00   0.020  237
   -18.56    14.71   252.95     0.01     0.00    -0.00   0.021  238
   -18.56    12.75   253.96     0.01     0.00    -0.00   0.020  239
   -18.56    12.75   251.93     0.01     0.00    -0.00   0.021  240
   -18.56    13.73   254.98     0.01     0.00    -0.00   0.020  241
   -18.56    12.75   253.96     0.01     0.00    -0.00   0.021  243
   -18.56    13.73   253.96     0.01     0.00    -0.00   0.020  244
   -18.56    13.73   254.98     0.01     0.00    -0.00   0.021  245
   -18.56    12.75   252.95     0.01     0.00    -0.00   0.020  246
   -18.56    13.73   256.00     0.01     0.00    -0.00   0.021  247
   -19.54    12.75   254.98     0.01     0.00    -0.00   0.020  248
   -19.54    12.75   254.98     0.01     0.00    -0.00   0.020  250
   -18.56    12.75   254.98     0.01     0.00    -0.00   0.021  251
   -18.56    13.73   256.00     0.01     0.00    -0.00   0.020  252
   -19.54    11.77   256.00     0.01     0.00    -0.00   0.021  253
   -17.59    10.79   254.98     0.01     0.00    -0.00   0.020  254
   -17.59    12.75   254.98     0.01     0.00    -0.00   0.021  255
   -18.56    12.75   254.98     0.01     0.00    -0.00   0.021    1
   -17.59    11.77   252.95     0.01     0.00    -0.00   0.020    2
   -18.56    13.73   253.96     0.01     0.00    -0.00   0.021    3
   -18.56    12.75   254.98     0.01     0.00    -0.00   0.020    4
   -17.59    12.75   254.98     0.01     0.00    -0.00   0.021    5
   -18.56    12.75   254.98     0.01     0.00    -0.00   0.020    6
   -17.59    12.75   253.96     0.01     0.00    -0.00   0.020    8
   -19.54    12.75   256.00     0.01     0.00    -0.00   0.021    9
   -18.56    12.75   253.96     0.01     0.00    -0.00   0.020   10
   -17.59    13.73   252.95     0.01     0.00    -0.00   0.020   11
   -17.59    13.73   253.96     0.01     0.00    -0.00   0.021   12
   -18.56    12.75   253.96     0.01     0.00    -0.00   0.020   13
   -19.54    14.71   254.98     0.01     0.00    -0.00   0.020   15
   -18.56    11.77   254.98     0.01     0.00    -0.00   0.021   16
   -19.54    12.75   254.98     0.01     0.00    -0.00   0.020   17
   -18.56    13.73   252.95     0.01     0.00    -0.00   0.021   18
   -18.56    12.75   253.96     0.01     0.00    -0.00   0.020   19
   -20.52    12.75   251.93     0.01     0.00    -0.00   0.021   20
   -17.59    13.73   252.95     0.01     0.00    -0.00   0.021   22
   -17.59    12.75   253.96     0.01     0.00    -0.00   0.020   23
   -20.52    12.75   253.96     0.01     0.00    -0.00   0.021   24
   -18.56    12.75   252.95     0.01     0.00    -0.00   0.020   25
   -18.56    13.73   253.96     0.01     0.00    -0.00   0.021   26
   -18.56    14.71   252.95     0.01     0.00    -0.00   0.020   27
   -19.54    12.75   253.96     0.01     0.00    -0.00   0.020   29
   -18.56    12.75   253.96     0.01     0.00    -0.00   0.021   30
   -18.56    13.73   254.98     0.01     0.00    -0.00   0.020   31
   -18.56    13.73   256.00     0.01     0.00    -0.00   0.021   32
   -16.61    11.77   256.00     0.01     0.00    -0.00   0.020   33
   -18.56    11.77   254.98     0.01     0.00    -0.00   0.021   34
   -18.56    11.77   253.96     0.01     0.00    -0.00   0.020   36
   -17.59    13.73   252.95     0.01     0.00    -0.00   0.021   37
   -19.54    13.73   252.95     0.01     0.00    -0.00   0.020   38
   -18.56    11.77   252.95     0.01     0.00    -0.00   0.021   39
   -19.54    11.77   252.95     0.01     0.00    -0.00   0.020   40
   -19.54    13.73   252.95     0.01     0.00    -0.00   0.021   41
   -18.56    11.77   256.00     0.01     0.00    -0.00   0.021   43
   -17.59    12.75   253.96     0.01     0.00    -0.00   0.020   44
   -18.56    11.77   253.96     0.01     0.00    -0.00   0.021   45
   -19.54    12.75   252.95     0.01     0.00    -0.00   0.020   46
   -18.56    10.79   251.93     0.01     0.00    -0.00   0.021   47
   -20.52     9.81   252.95     0.01     0.00    -0.00   0.020   48
   -18.56    12.75   252.95     0.01     0.00    -0.00   0.020   50
   -18.56    12.75   253.96     0.01     0.00    -0.00   0.021   51
   -18.56    12.75   253.96     0.01     0.00    -0.00   0.020   52
   -18.56    12.75   253.96     0.01     0.00    -0.00   0.021   53
   -18.56    13.73   253.96     0.01     0.00    -0.00   0.020   54
   -19.54    12.75   253.96     0.01     0.00    -0.00   0.021   55
   -17.59    13.73   252.95     0.01     0.00    -0.00   0.020   56
   -18.56    13.73   254.98     0.01     0.00    -0.00   0.021   57
   -19.54    13.73   251.93     0.01     0.00    -0.00   0.020   58
   -18.56    13.73   256.00     0.01     0.00    -0.00   0.021   59
   -18.56    13.73   254.98     0.01     0.00    -0.00   0.020   61
   -18.56    13.73   254.98     0.01     0.00    -0.00   0.021   62
   -19.54    12.75   252.95     0.01     0.00    -0.00   0.020   63
   -17.59    12.75   252.95     0.01     0.00    -0.00   0.021   64
   -19.54    12.75   253.96     0.01     0.00    -0.00   0.020   65
   -20.52     9.81   252.95     0.01     0.00    -0.00   0.021   66
   -20.52    10.79   251.93     0.01     0.00    -0.00   0.020   67
   -18.56    13.73   253.96     0.01     0.00    -0.00   0.021   68
   -18.56    11.77   252.95     0.01     0.00    -0.00   0.020   69
   -19.54    12.75   252.95     0.01     0.00    -0.00   0.020   71
   -18.56    12.75   254.98     0.01     0.00    -0.00   0.021   72
   -18.56    11.77   254.98     0.01     0.00    -0.00   0.020   73
   -20.52    13.73   253.96     0.01     0.00    -0.00   0.020   75
   -17.59    12.75   254.98     0.01     0.00    -0.00   0.021   76
   -19.54    12.75   253.96     0.01     0.00    -0.00   0.021   78
   -18.56    13.73   253.96     0.01     0.00    -0.00   0.020   79
   -18.56    12.75   254.98     0.01     0.00    -0.00   0.021   80
   -17.59    12.75   254.98     0.01     0.00    -0.00   0.020   81
   -18.56    13.73   253.96     0.01     0.00    -0.00   0.021   82
   -19.54    13.73   254.98     0.01     0.00    -0.00   0.020   83
   -18.56    11.77   254.98     0.01     0.00    -0.00   0.021   84
   -18.56    13.73   253.96     0.01     0.00    -0.00   0.020   85
   -18.56    13.73   254.98     0.01     0.00    -0.00   0.020   86
   -18.56    13.73   253.96     0.01     0.00    -0.00   0.021   87
   -18.56    12.75   253.96     0.01     0.00    -0.00   0.021   89
   -20.52    14.71   254.98     0.01     0.00    -0.00   0.020   90
   -19.54    12.75   253.96     0.01     0.00    -0.00   0.021   91
   -19.54    11.77   253.96     0.01     0.00    -0.00   0.020   92
   -17.59    13.73   251.93     0.01     0.00    -0.00   0.021   93
   -21.50     9.81   252.95     0.01     0.00    -0.00   0.020   94
   -18.56    12.75   253.96     0.01     0.00    -0.00   0.020   96
   -17.59    12.75   254.98     0.01     0.00    -0.00   0.021   97
   -20.52    12.75   253.96     0.01     0.00    -0.00   0.020   98
   -18.56    12.75   253.96     0.01     0.00    -0.00   0.021   99
   -19.54    13.73   252.95     0.01     0.00    -0.00   0.020  100
   -20.52    12.75   253.96     0.01     0.00    -0.00   0.021  101
   -18.56     8.83   251.93     0.01     0.00    -0.00   0.021  103
   -19.54     8.83   251.93     0.01     0.00    -0.00   0.020  104
   -16.61    13.73   254.98     0.01     0.00    -0.00   0.021  105
   -18.56    14.71   253.96     0.01     0.00    -0.00   0.020  106
   -17.59    12.75   253.96     0.01     0.00    -0.00   0.021  107
   -18.56    13.73   253.96     0.01     0.00    -0.00   0.020  108
   -18.56    11.77   253.96     0.01     0.00    -0.00   0.020  110
   -18.56    15.69   252.95     0.01     0.00    -0.00   0.020  111
   -18.56    12.75   259.05     0.01     0.00    -0.00   0.021  112
   -17.59    14.71   253.96     0.01     0.00    -0.00   0.020  113
   -20.52    13.73   252.95     0.01     0.00    -0.00   0.021  114
   -18.56    12.75   254.98     0.01     0.00    -0.00   0.020  115
   -18.56    13.73   253.96     0.01     0.00    -0.00   0.020  117
   -19.54    14.71   254.98     0.01     0.00    -0.00   0.021  118
   -19.54    11.77   252.95     0.01     0.00    -0.00   0.021  120
   -18.56    10.79   254.98     0.01     0.00    -0.00   0.020  121
   -18.56    11.77   253.96     0.01     0.00    -0.00   0.021  122
   -17.59    12.75   254.98     0.01     0.00    -0.00   0.021  124
   -18.56    13.73   253.96     0.01     0.00    -0.00   0.020  125
   -18.56    12.75   254.98     0.01     0.00    -0.00   0.021  126
   -18.56    11.77   256.00     0.01     0.00    -0.00   0.020  127
   -18.56    13.73   253.96     0.01     0.00    -0.00   0.021  128
   -19.54    13.73   254.98     0.01     0.00    -0.00   0.020  129
   -14.66    14.71   256.00     0.01     0.00    -0.00   0.020  131
   -18.56    11.77   254.98     0.01     0.00    -0.00   0.021  132
   -18.56    11.77   252.95     0.01     0.00    -0.00   0.020  133
   -18.56    13.73   250.91     0.01     0.00    -0.00   0.021  134
   -17.59    13.73   254.98     0.01     0.00    -0.00   0.020  135
   -18.56    12.75   253.96     0.01     0.00    -0.00   0.020  136
   -19.54    12.75   253.96     0.01     0.00    -0.00   0.020  138
   -13.68    13.73   252.95     0.01     0.00    -0.00   0.021  139
   -17.59    16.67   256.00     0.01     0.00    -0.00   0.020  140
   -18.56    12.75   257.02     0.01     0.00    -0.00   0.021  141
   -20.52    12.75   248.87     0.01     0.00    -0.00   0.020  142
   -17.59    12.75   254.98     0.01     0.00    -0.00   0.021  143
   -19.54    13.73   256.00     0.01     0.00    -0.00   0.021  145
   -17.59    13.73   256.00     0.01     0.00    -0.00   0.020  146
   -17.59    13.73   254.98     0.01     0.00    -0.00   0.021  147
   -18.56    12.75   252.95     0.01     0.00    -0.00   0.020  148
   -17.59    11.77   250.91     0.01     0.00    -0.00   0.021  149
   -20.52    10.79   256.00     0.01     0.00    -0.00   0.020  150
   -17.59    13.73   256.00     0.01     0.00    -0.00   0.020  152
   -17.59    13.73   254.98     0.01     0.00    -0.00   0.021  153
   -18.56    14.71   254.98     0.01     0.00    -0.00   0.020  154
   -18.56    13.73   254.98     0.01     0.00    -0.00   0.021  155
   -18.56    12.75   253.96     0.01     0.00    -0.00   0.020  156
   -18.56    11.77   256.00     0.01     0.00    -0.00   0.021  157
   -19.54    11.77   257.02     0.01     0.00    -0.00   0.021  159
   -18.56    12.75   252.95     0.01     0.00    -0.00   0.020  160
   -17.59    13.73   253.96     0.01     0.00    -0.00   0.020  161
   -17.59    12.75   252.95     0.01     0.00    -0.00   0.021  162
   -18.56    12.75   250.91     0.01     0.00    -0.00   0.020  163
   -18.56    13.73   256.00     0.01     0.00    -0.00   0.021  164
   -18.56    13.73   253.96     0.01     0.00    -0.00   0.021  166
   -20.52    13.73   252.95     0.01     0.00    -0.00   0.020  167
   -16.61     5.89   248.87     0.01     0.00    -0.00   0.021  168
   -14.66    17.66   258.04     0.01     0.00    -0.00   0.020  169
   -18.56    11.77   259.05     0.01     0.00    -0.00   0.021  170
   -16.61    15.69   257.02     0.01     0.00    -0.00   0.020  171
   -17.59    13.73   254.98     0.01     0.00    -0.00   0.020  173
   -17.59    13.73   256.00     0.01     0.00    -0.00   0.021  174
   -17.59    13.73   256.00     0.01     0.00    -0.00   0.020  175
   -19.54    12.75   254.98     0.01     0.00    -0.00   0.021  176
   -18.56    11.77   254.98     0.01     0.00    -0.00   0.020  177
   -22.47    16.67   253.96     0.01     0.00    -0.00   0.021  178
   -17.59    12.75   257.02     0.01     0.00    -0.00   0.021  180
   -17.59    14.71   254.98     0.01     0.00    -0.00   0.020  181
   -17.59    13.73   256.00     0.01     0.00    -0.00   0.021  182
   -17.59    13.73   254.98     0.01     0.00    -0.00   0.020  183
   -19.54    12.75   254.98     0.01     0.00    -0.00   0.021  184
   -19.54    12.75   254.98     0.01     0.00    -0.00   0.020  185
   -18.56    11.77   254.98     0.01     0.00    -0.00   0.021  187
   -15.63    11.77   254.98     0.01     0.00    -0.00   0.020  188
   -21.50     2.94   248.87     0.01     0.00    -0.00   0.021  189
   -18.56    13.73   254.98     0.01     0.00     0.00   0.020  190
   -18.56    14.71   254.98     0.01     0.00    -0.00   0.021  191
   -17.59    12.75   256.00     0.01     0.00    -0.00   0.020  192
   -19.54    11.77   252.95     0.01     0.00    -0.00   0.020  194
   -18.56    12.75   254.98     0.01     0.00    -0.00   0.021  195
   -18.56    13.73   253.96     0.01     0.00    -0.00   0.020  196
   -18.56    14.71   251.93     0.01     0.00    -0.00   0.021  197
   -14.66    19.62   256.00     0.01     0.00    -0.00   0.020  198
   -16.61    10.79   258.04     0.01     0.00    -0.00   0.021  199
   -19.54    14.71   258.04     0.01     0.00    -0.00   0.021  201
   -17.59    13.73   254.98     0.01     0.00    -0.00   0.020  202
   -19.54    13.73   254.98     0.01     0.00    -0.00   0.021  203
   -18.56    12.75   257.02     0.01     0.00    -0.00   0.020  204
   -17.59    11.77   253.96     0.01     0.00    -0.00   0.021  205
   -19.54    10.79   254.98     0.01     0.00    -0.00   0.020  206
   -17.59    11.77   254.98     0.01     0.00    -0.00   0.020  208
   -18.56    13.73   254.98     0.01     0.00    -0.00   0.021  209
   -17.59    14.71   254.98     0.01     0.00    -0.00   0.020  210
   -18.56    14.71   256.00     0.01     0.00    -0.00   0.020  211
   -16.61    12.75   257.02     0.01     0.00    -0.00   0.021  212
   -19.54    12.75   252.95     0.01     0.00    -0.00   0.020  213
   -18.56    12.75   253.96     0.01     0.00    -0.00   0.020  215
   -18.56    12.75   254.98     0.01     0.00    -0.00   0.021  216
   -18.56    13.73   253.96     0.01     0.00    -0.00   0.020  217
   -17.59    13.73   254.98     0.01     0.00    -0.00   0.021  218
   -17.59    13.73   254.98     0.01     0.00    -0.00   0.020  219
   -17.59    12.75   252.95     0.01     0.00    -0.00   0.021  220
   -18.56    12.75   256.00     0.01     0.00    -0.00   0.021  222
   -18.56    14.71   256.00     0.01     0.00    -0.00   0.020  223
   -17.59    12.75   256.00     0.01     0.00    -0.00   0.021  224
   -17.59    12.75   253.96     0.01     0.00    -0.00   0.020  225
   -20.52    13.73   254.98     0.01     0.00    -0.00   0.021  226
   -19.54    13.73   254.98     0.01     0.00    -0.00   0.020  227
   -18.56    11.77   254.98     0.01     0.00    -0.00   0.020  229
   -17.59    13.73   254.98     0.01     0.00    -0.00   0.021  230
   -18.56    13.73   254.98     0.01     0.00    -0.00   0.020  231
   -17.59    13.73   254.98     0.01     0.00    -0.00   0.021  232
   -16.61    13.73   256.00     0.01     0.00    -0.00   0.020  233
   -17.59    12.75   254.98     0.01     0.00    -0.00   0.021  234
   -19.54    13.73   253.96     0.01     0.00    -0.00   0.020  236
   -18.56    12.75   253.96     0.01     0.00    -0.00   0.021  237
   -18.56    12.75   253.96     0.01     0.00    -0.00   0.020  238
   -19.54    12.75   253.96     0.01     0.00    -0.00   0.021  239
   -17.59    11.77   253.96     0.01     0.00    -0.00   0.020  240
   -18.56    12.75   254.98     0.01     0.00    -0.00   0.021  241
   -18.56    12.75   254.98     0.01     0.00    -0.00   0.021  243
   -17.59    11.77   254.98     0.01     0.00    -0.00   0.020  244
   -19.54    12.75   254.98     0.01     0.00    -0.00   0.021  245
   -18.56    12.75   252.95     0.01     0.00    -0.00   0.020  246
   -18.56    13.73   253.96     0.01     0.00    -0.00   0.021  247
   -18.56    12.75   254.98     0.01     0.00    -0.00   0.020  248
   -19.54    13.73   254.98     0.01     0.00    -0.00   0.020  250
   -18.56    12.75   253.96     0.01     0.00    -0.00   0.021  251
   -18.56    12.75   252.95     0.01     0.00    -0.00   0.020  252
   -17.59    12.75   254.98     0.01     0.00    -0.00   0.021  253
   -17.59    13.73   254.98     0.01     0.00    -0.00   0.020  254
   -19.54    13.73   252.95     0.01     0.00    -0.00   0.021  255
   -18.56    12.75   254.98     0.01     0.00    -0.00   0.021    1
   -20.52    12.75   254.98     0.01     0.00    -0.00   0.020    2
   -18.56    12.75   254.98     0.01     0.00    -0.00   0.021    3
   -18.56    11.77   253.96     0.01     0.00    -0.00   0.020    4
   -18.56    12.75   253.96     0.01     0.00    -0.00   0.020    5
   -19.54    14.71   254.98     0.01     0.00    -0.00   0.021    6
   -17.59    12.75   253.96     0.01     0.00    -0.00   0.021    8
   -19.54    13.73   253.96     0.01     0.00    -0.00   0.020    9
   -18.56    12.75   253.96     0.01     0.00    -0.00   0.021   10
   -19.54    11.77   253.96     0.01     0.00    -0.00   0.020   11
   -19.54    12.75   254.98     0.01     0.00    -0.00   0.021   12
   -19.54    11.77   253.96     0.01     0.00    -0.00   0.020   13
   -18.56    12.75   253.96     0.01     0.00    -0.00   0.020   15
   -18.56    11.77   252.95     0.01     0.00    -0.00   0.021   16
   -18.56    12.75   253.96     0.01     0.00    -0.00   0.020   17
   -18.56    11.77   254.98     0.01     0.00    -0.00   0.021   18
   -17.59    12.75   252.95     0.01     0.00    -0.00   0.020   19
   -18.56    11.77   254.98     0.01     0.00    -0.00   0.021   20
   -18.56    12.75   252.95     0.01     0.00    -0.00   0.021   22
   -17.59    12.75   253.96     0.01     0.00    -0.00   0.020   23
   -19.54    12.75   254.98     0.01     0.00    -0.00   0.021   24
   -18.56    12.75   253.96     0.01     0.00    -0.00   0.020   25
   -17.59    12.75   252.95     0.01     0.00    -0.00   0.021   26
   -18.56    12.75   253.96     0.01     0.00    -0.00   0.020   27
   -18.56    11.77   252.95     0.01     0.00    -0.00   0.020   29
   -18.56    12.75   254.98     0.01     0.00    -0.00   0.020   30
   -19.54    12.75   253.96     0.01     0.00    -0.00   0.021   31
   -17.59    12.75   251.93     0.01     0.00    -0.00   0.020   32
   -18.56    12.75   256.00     0.01     0.00    -0.00   0.021   33
   -18.56    12.75   253.96     0.01     0.00    -0.00   0.020   34
   -17.59    12.75   254.98     0.01     0.00    -0.00   0.020   36
   -18.56    12.75   254.98     0.01     0.00    -0.00   0.021   37
   -18.56    12.75   254.98     0.01     0.00    -0.00   0.020   38
   -18.56    13.73   252.95     0.01     0.00    -0.00   0.021   39
   -18.56    12.75   253.96     0.01     0.00    -0.00   0.020   40
   -18.56    12.75   252.95     0.01     0.00    -0.00   0.021   41
   -18.56    12.75   252.95     0.01     0.00    -0.00   0.021   43
   -18.56    13.73   254.98     0.01     0.00    -0.00   0.020   44
   -19.54    13.73   252.95     0.01     0.00    -0.00   0.021   45
   -19.54    13.73   252.95     0.01     0.00    -0.00   0.020   46
   -19.54    13.73   253.96     0.01     0.00    -0.00   0.021   47
   -19.54    11.77   254.98     0.01     0.00    -0.00   0.020   48
   -18.56    11.77   253.96     0.01     0.00    -0.00   0.020   50
   -19.54    13.73   254.98     0.01     0.00    -0.00   0.021   51
   -19.54    12.75   253.96     0.01     0.00    -0.00   0.020   52
   -19.54    11.77   254.98     0.01     0.00    -0.00   0.021   53
   -19.54    12.75   253.96     0.01     0.00    -0.00   0.020   54
   -18.56    11.77   252.95     0.01     0.00    -0.00   0.020   55
   -17.59    12.75   254.98     0.01     0.00    -0.00   0.020   57
   -18.56    13.73   254.98     0.01     0.00    -0.00   0.021   58
   -18.56    11.77   252.95     0.01     0.00    -0.00   0.020   59
   -19.54    12.75   254.98     0.01     0.00    -0.00   0.021   60
   -20.52    13.73   254.98     0.01     0.00    -0.00   0.020   61
   -17.59    13.73   253.96     0.01     0.00    -0.00   0.021   62
   -19.54    12.75   251.93     0.01     0.00    -0.00   0.021   64
   -18.56    12.75   252.95     0.01     0.00    -0.00   0.020   65
   -17.59    13.73   253.96     0.01     0.00    -0.00   0.021   66
   -17.59    13.73   254.98     0.01     0.00    -0.00   0.020   67
   -18.56    12.75   254.98     0.01     0.00    -0.00   0.021   68
   -18.56    11.77   253.96     0.01     0.00    -0.00   0.020   69
   -18.56    13.73   254.98     0.01     0.00    -0.00   0.020   71
   -19.54    13.73   253.96     0.01     0.00    -0.00   0.021   72
   -20.52    13.73   252.95     0.01     0.00    -0.00   0.020   73
   -19.54    12.75   253.96     0.01     0.00    -0.00   0.021   74
   -19.54    11.77   254.98     0.01     0.00    -0.00   0.020   75
   -18.56    11.77   252.95     0.01     0.00    -0.00   0.021   76
   -19.54    13.73   254.98     0.01     0.00    -0.00   0.021   78
   -19.54    12.75   253.96     0.01     0.00    -0.00   0.020   79
   -18.56    13.73   254.98     0.01     0.00    -0.00   0.020   80
   -19.54    11.77   253.96     0.01     0.00    -0.00   0.021   81
   -18.56    11.77   253.96     0.01     0.00    -0.00   0.020   82
   -17.59    12.75   256.00     0.01     0.00    -0.00   0.021   83
   -17.59    12.75   253.96     0.01     0.00    -0.00   0.021   85
   -17.59    13.73   253.96     0.01     0.00    -0.00   0.020   86
   -17.59    12.75   254.98     0.01     0.00    -0.00   0.021   87
   -19.54    12.75   254.98     0.01     0.00    -0.00   0.020   88
   -18.56    12.75   256.00     0.01     0.00    -0.00   0.021   89
   -18.56    12.75   254.98     0.01     0.00    -0.00   0.020   90
   -19.54    13.73   253.96     0.01     0.00    -0.00   0.020   92
   -18.56    11.77   252.95     0.01     0.00    -0.00   0.021   93
   -20.52    13.73   254.98     0.01     0.00    -0.00   0.020   94
   -18.56    13.73   253.96     0.01     0.00    -0.00   0.021   95
   -20.52    13.73   254.98     0.01     0.00    -0.00   0.020   96
   -17.59    12.75   253.96     0.01     0.00    -0.00   0.021   97
   -18.56    13.73   254.98     0.01     0.00    -0.00   0.021   99
   -18.56    11.77   253.96     0.01     0.00    -0.00   0.020  100
   -18.56    11.77   254.98     0.01     0.00    -0.00   0.021  101
   -18.56    12.75   252.95     0.01     0.00    -0.00   0.020  102
   -18.56    13.73   253.96     0.01     0.00    -0.00   0.021  103
   -19.54    12.75   253.96     0.01     0.00    -0.00   0.020  104
   -18.56    12.75   252.95     0.01     0.00    -0.00   0.021  106
   -19.54    13.73   254.98     0.01     0.00    -0.00   0.020  107
   -18.56    12.75   253.96     0.01     0.00    -0.00   0.021  108
   -19.54    12.75   254.98     0.01     0.00    -0.00   0.020  109
   -18.56    11.77   253.96     0.01     0.00    -0.00   0.021  110
   -18.56    13.73   252.95     0.01     0.00    -0.00   0.020  111
   -22.47    11.77   253.96     0.01     0.00    -0.00   0.020  113
   -20.52    10.79   251.93     0.01     0.00    -0.00   0.021  114
   -16.61    12.75   254.98     0.01     0.00    -0.00   0.020  115
   -18.56    11.77   257.02     0.01     0.00    -0.00   0.021  116
   -18.56    11.77   254.98     0.01     0.00    -0.00   0.020  117
   -18.56    12.75   254.98     0.01     0.00    -0.00   0.021  118
   -18.56    12.75   253.96     0.01     0.00    -0.00   0.021  120
   -19.54    13.73   253.96     0.01     0.00    -0.00   0.020  121
   -19.54    12.75   252.95     0.01     0.00    -0.00   0.021  122
   -18.56    12.75   252.95     0.01     0.00    -0.00   0.020  123
   -18.56    12.75   253.96     0.01     0.00    -0.00   0.021  124
   -19.54    13.73   253.96     0.01     0.00    -0.00   0.020  125
   -19.54    11.77   254.98     0.01     0.00    -0.00   0.020  127
   -18.56    12.75   253.96     0.01     0.00    -0.00   0.021  128
   -18.56    11.77   252.95     0.01     0.00    -0.00   0.020  129
   -20.52    12.75   252.95     0.01     0.00    -0.00   0.020  130
   -18.56    12.75   254.98     0.01     0.00    -0.00   0.021  131
   -17.59    11.77   254.98     0.01     0.00    -0.00   0.020  132
   -18.56    13.73   253.96     0.01     0.00     0.00   0.020  134
   -21.50    10.79   252.95     0.01     0.00    -0.00   0.021  135
   -20.52    10.79   251.93     0.01     0.00    -0.00   0.020  136
   -18.56    11.77   256.00     0.01     0.00    -0.00   0.021  137
   -18.56    13.73   254.98     0.01     0.00    -0.00   0.020  138
   -17.59    11.77   253.96     0.01     0.00    -0.00   0.021  139
   -19.54    13.73   254.98     0.01     0.00    -0.00   0.021  141
   -18.56    12.75   252.95     0.01     0.00    -0.00   0.020  142
   -18.56    12.75   252.95     0.01     0.00    -0.00   0.021  143
   -18.56    12.75   253.96     0.01     0.00    -0.00   0.020  144
   -19.54    11.77   254.98     0.01     0.00    -0.00   0.021  145
   -20.52    13.73   252.95     0.01     0.00    -0.00   0.020  146
   -19.54     8.83   251.93     0.01     0.00    -0.00   0.020  148
   -18.56    12.75   253.96     0.01     0.00    -0.00   0.021  149
   -19.54    14.71   252.95     0.01     0.00    -0.00   0.020  150
   -18.56    12.75   254.98     0.01     0.00    -0.00   0.021  151
   -19.54    12.75   253.96     0.01     0.00    -0.00   0.020  152
   -18.56    12.75   252.95     0.01     0.00    -0.00   0.021  153
   -17.59    12.75   252.95     0.01     0.00    -0.00   0.020  155
   -18.56    13.73   253.96     0.01     0.00    -0.00   0.021  156
   -19.54    11.77   253.96     0.01     0.00    -0.00   0.020  157
   -18.56    12.75   256.00     0.01     0.00    -0.00   0.021  158
   -19.54    13.73   253.96     0.01     0.00    -0.00   0.020  159
   -18.56    12.75   254.98     0.01     0.00    -0.00   0.021  160
   -20.52    11.77   253.96     0.01     0.00    -0.00   0.021  162
   -18.56    12.75   253.96     0.01     0.00    -0.00   0.020  163
   -19.54    13.73   253.96     0.01     0.00    -0.00   0.021  164
   -16.61    11.77   253.96     0.01     0.00    -0.00   0.020  165
   -19.54    13.73   254.98     0.01     0.00    -0.00   0.021  166
   -18.56    13.73   251.93     0.01     0.00    -0.00   0.020  167
   -21.50    13.73   251.93     0.01     0.00    -0.00   0.020  169
   -19.54    12.75   253.96     0.01     0.00    -0.00   0.021  170
   -18.56    12.75   253.96     0.01     0.00    -0.00   0.020  171
   -17.59    13.73   252.95     0.01     0.00    -0.00   0.021  172
   -18.56    11.77   254.98     0.01     0.00    -0.00   0.020  173
   -20.52    11.77   254.98     0.01     0.00    -0.00   0.021  174
   -19.54    11.77   253.96     0.01     0.00    -0.00   0.021  176
   -18.56    15.69   256.00     0.01     0.00    -0.00   0.020  177
   -19.54    13.73   252.95     0.01     0.00    -0.00   0.021  178
   -19.54    12.75   253.96     0.01     0.00    -0.00   0.020  179
   -18.56    12.75   253.96     0.01     0.00    -0.00   0.020  180
   -18.56    12.75   254.98     0.01     0.00    -0.00   0.021  181
   -19.54    11.77   253.96     0.01     0.00    -0.00   0.021  183
   -19.54    12.75   253.96     0.01     0.00    -0.00   0.020  184
   -19.54    12.75   254.98     0.01     0.00    -0.00   0.021  185
   -18.56    10.79   259.05     0.01     0.00    -0.00   0.020  186
   -16.61    13.73   254.98     0.01     0.00    -0.00   0.021  187
   -17.59    11.77   256.00     0.01     0.00    -0.00   0.020  188
   -19.54    12.75   251.93     0.01     0.00    -0.00   0.020  190
   -17.59    13.73   253.96     0.01     0.00    -0.00   0.021  191
   -18.56    12.75   252.95     0.01     0.00    -0.00   0.020  192
   -18.56    12.75   254.98     0.01     0.00    -0.00   0.021  193
   -17.59    12.75   254.98     0.01     0.00    -0.00   0.020  194
   -19.54    11.77   254.98     0.01     0.00    -0.00   0.021  195
   -19.54    11.77   252.95     0.01     0.00    -0.00   0.021  197
   -18.56    11.77   253.96     0.01     0.00    -0.00   0.020  198
   -19.54    12.75   254.98     0.01     0.00    -0.00   0.021  199
   -18.56    12.75   250.91     0.01     0.00    -0.00   0.020  200
   -19.54    12.75   249.89     0.01     0.00    -0.00   0.021  201
   -18.56    12.75   256.00     0.01     0.00    -0.00   0.020  202
   -19.54    13.73   253.96     0.01     0.00    -0.00   0.020  204
   -18.56    12.75   254.98     0.01     0.00    -0.00   0.020  205
   -19.54    12.75   254.98     0.01     0.00    -0.00   0.021  206
   -14.66    15.69   257.02     0.01     0.00    -0.00   0.020  207
   -16.61    11.77   258.04     0.01     0.00    -0.00   0.021  208
   -18.56    12.75   254.98     0.01     0.00    -0.00   0.020  209
   -18.56    13.73   253.96     0.01     0.00    -0.00   0.020  211
   -18.56    14.71   254.98     0.01     0.00    -0.00   0.021  212
   -18.56    13.73   256.00     0.01     0.00    -0.00   0.020  213
   -18.56    12.75   254.98     0.01     0.00    -0.00   0.021  214
   -18.56    12.75   254.98     0.01     0.00    -0.00   0.020  215
   -20.52    12.75   254.98     0.01     0.00    -0.00   0.021  216
   -17.59    11.77   253.96     0.01     0.00    -0.00   0.021  218
   -18.56    14.71   254.98     0.01     0.00    -0.00   0.020  219
   -18.56    12.75   250.91     0.01     0.00    -0.00   0.021  220
   -22.47    13.73   248.87     0.01     0.00    -0.00   0.020  221
   -23.45    11.77   256.00     0.01     0.00    -0.00   0.021  222
   -19.54    12.75   252.95     0.01     0.00    -0.00   0.020  223
   -17.59    13.73   253.96     0.01     0.00    -0.00   0.020  225
   -17.59    12.75   253.96     0.01     0.00    -0.00   0.021  226
   -18.56    12.75   253.96     0.01     0.00    -0.00   0.020  227
   -17.59     9.81   256.00     0.01     0.00    -0.00   0.021  228
   -17.59     6.87   249.89     0.01     0.00    -0.00   0.020  229
   -16.61    15.69   257.02     0.01     0.00    -0.00   0.020  230
   -18.56    13.73   254.98     0.01     0.00    -0.00   0.020  232
   -17.59    13.73   256.00     0.01     0.00    -0.00   0.021  233
   -18.56    13.73   254.98     0.01     0.00    -0.00   0.020  234
   -17.59    13.73   254.98     0.01     0.00    -0.00   0.021  235
   -17.59    12.75   254.98     0.01     0.00    -0.00   0.020  236
   -20.52    11.77   256.00     0.01     0.00    -0.00   0.021  237
   -18.56    12.75   254.98     0.01     0.00    -0.00   0.021  239
   -22.47    11.77   251.93     0.01     0.00    -0.00   0.020  240
   -26.38     7.85   248.87     0.01     0.00    -0.00   0.021  241
   -20.52     4.90   248.87     0.01     0.00    -0.00   0.020  242
   -19.54    13.73   256.00     0.01     0.00    -0.00   0.021  243
   -18.56    13.73   256.00     0.01     0.00    -0.00   0.020  244
   -18.56    12.75   256.00     0.01     0.00    -0.00   0.020  246
   -19.54    12.75   254.98     0.01     0.00    -0.00   0.021  247
   -18.56    12.75   253.96     0.01     0.00    -0.00   0.020  248
   -15.63    16.67   254.98     0.01     0.00    -0.00   0.021  249
   -19.54    10.79   254.98     0.01     0.00    -0.00   0.020  250
   -20.52    12.75   251.93     0.01     0.00    -0.00   0.021  251
   -18.56    12.75   256.00     0.01     0.00    -0.00   0.021  253
   -17.59    14.71   256.00     0.01     0.00    -0.00   0.020  254
   -17.59    13.73   256.00     0.01     0.00    -0.00   0.020  255
   -18.56    12.75   254.98     0.01     0.00    -0.00   0.021    0
   -20.52    12.75   256.00     0.01     0.00    -0.00   0.020    1
   -19.54    12.75   252.95     0.01     0.00    -0.00   0.021    2
   -22.47    15.69   247.86     0.01     0.00    -0.00   0.021    4
   -24.43    13.73   245.82     0.01     0.00    -0.00   0.020    5
   -16.61     2.94   248.87     0.01     0.00    -0.00   0.021    6
   -22.47     9.81   261.09     0.01     0.00    -0.00   0.020    7
   -17.59    12.75   256.00     0.01     0.00    -0.00   0.021    8
   -17.59    14.71   256.00     0.01     0.00    -0.00   0.020    9
   -18.56    12.75   256.00     0.01     0.00    -0.00   0.020   11
   -18.56    13.73   253.96     0.01     0.00    -0.00   0.021   12
   -26.38    15.69   252.95     0.01     0.00    -0.00   0.020   13
   -20.52    11.77   254.98     0.01     0.00    -0.00   0.021   14
   -22.47    10.79   257.02     0.01     0.00    -0.00   0.020   15
   -20.52    12.75   254.98     0.01     0.00    -0.00   0.021   16
   -18.56    12.75   256.00     0.01     0.00    -0.00   0.021   18
   -18.56    13.73   257.02     0.01     0.00    -0.00   0.020   19
   -18.56    12.75   254.98     0.01     0.00    -0.00   0.021   20
   -18.56    11.77   254.98     0.01     0.00    -0.00   0.020   21
   -17.59    11.77   253.96     0.01     0.00    -0.00   0.021   22
   -19.54    12.75   252.95     0.01     0.00    -0.00   0.020   23
   -19.54    11.77   252.95     0.01     0.00    -0.00   0.021   25
   -17.59     6.87   252.95     0.01     0.00    -0.00   0.020   26
   -20.52    11.77   256.00     0.01     0.00    -0.00   0.021   27
   -17.59    13.73   253.96     0.01     0.00    -0.00   0.020   28
   -17.59    11.77   256.00     0.01     0.00    -0.00   0.021   29
   -17.59    14.71   257.02     0.01     0.00    -0.00   0.020   30
   -17.59    14.71   257.02     0.01     0.00    -0.00   0.020   32
   -18.56    13.73   256.00     0.01     0.00    -0.00   0.021   33
   -18.56    13.73   256.00     0.01     0.00    -0.00   0.020   34
   -19.54    13.73   254.98     0.01     0.00    -0.00   0.021   35
   -18.56    12.75   254.98     0.01     0.00    -0.00   0.020   36
   -20.52    13.73   254.98     0.01     0.00    -0.00   0.021   37
   -17.59    13.73   254.98     0.01     0.00    -0.00   0.021   39
   -17.59    13.73   254.98     0.01     0.00    -0.00   0.020   40
   -16.61    13.73   256.00     0.01     0.00    -0.00   0.021   41
   -18.56    13.73   254.98     0.01     0.00    -0.00   0.020   42
   -17.59    11.77   253.96     0.01     0.00    -0.00   0.021   43
   -18.56    13.73   254.98     0.01     0.00    -0.00   0.020   44
   -18.56    12.75   253.96     0.01     0.00    -0.00   0.020   46
   -19.54    12.75   253.96     0.01     0.00    -0.00   0.021   47
   -19.54    13.73   254.98     0.01     0.00    -0.00   0.020   48
   -20.52    14.71   256.00     0.01     0.00    -0.00   0.021   50
   -18.56    13.73   254.98     0.01     0.00    -0.00   0.020   51
   -18.56    12.75   254.98     0.01     0.00    -0.00   0.020   53
   -19.54    12.75   253.96     0.01     0.00    -0.00   0.021   54
   -19.54    12.75   253.96     0.01     0.00    -0.00   0.020   55
   -18.56    11.77   254.98     0.01     0.00    -0.00   0.020   57
   -18.56    13.73   253.96     0.01     0.00    -0.00   0.021   58
   -18.56    11.77   253.96     0.01     0.00    -0.00   0.021   60
   -19.54    12.75   254.98     0.01     0.00    -0.00   0.020   61
   -19.54    13.73   253.96     0.01     0.00    -0.00   0.021   62
   -18.56    12.75   254.98     0.01     0.00    -0.00   0.021   64
   -18.56    13.73   254.98     0.01     0.00    -0.00   0.020   65
   -19.54    12.75   253.96     0.01     0.00    -0.00   0.020   67
   -19.54    13.73   254.98     0.01     0.00    -0.00   0.021   68
   -17.59    11.77   254.98     0.01     0.00    -0.00   0.020   69
   -19.54    13.73   252.95     0.01     0.00    -0.00   0.020   71
   -20.52    12.75   253.96     0.01     0.00    -0.00   0.021   72
   -18.56    11.77   253.96     0.01     0.00    -0.00   0.020   74
   -19.54    12.75   252.95     0.01     0.00    -0.00   0.021   75
   -18.56    13.73   253.96     0.01     0.00    -0.00   0.020   76
   -19.54    12.75   253.96     0.01     0.00    -0.00   0.020   78
   -18.56    13.73   253.96     0.01     0.00    -0.00   0.021   79
   -18.56    12.75   254.98     0.01     0.00    -0.00   0.020   80
   -18.56    12.75   253.96     0.01     0.00    -0.00   0.021   81
   -18.56    13.73   253.96     0.01     0.00    -0.00   0.020   82
   -20.52    12.75   253.96     0.01     0.00    -0.00   0.021   83
   -19.54    13.73   253.96     0.01     0.00    -0.00   0.021   85
   -17.59    12.75   254.98     0.01     0.00    -0.00   0.020   86
   -19.54    13.73   254.98     0.01     0.00    -0.00   0.021   87
   -18.56    12.75   254.98     0.01     0.00    -0.00   0.020   88
   -18.56    13.73   253.96     0.01     0.00    -0.00   0.021   89
   -17.59    12.75   254.98     0.01     0.00    -0.00   0.020   90
   -18.56    12.75   254.98     0.01     0.00    -0.00   0.020   92
   -18.56    12.75   252.95     0.01     0.00    -0.00   0.021   93
   -19.54    12.75   254.98     0.01     0.00    -0.00   0.020   94
   -18.56    11.77   254.98     0.01     0.00    -0.00   0.021   95
   -18.56    13.73   253.96     0.01     0.00    -0.00   0.020   96
   -17.59    12.75   253.96     0.01     0.00    -0.00   0.021   97
   -19.54    11.77   252.95     0.01     0.00    -0.00   0.020   99
   -18.56    11.77   253.96     0.01     0.00    -0.00   0.021  100
   -17.59    11.77   253.96     0.01     0.00    -0.00   0.020  101
   -19.54    12.75   254.98     0.01     0.00    -0.00   0.021  102
   -19.54    12.75   253.96     0.01     0.00    -0.00   0.020  103
   -20.52    12.75   253.96     0.01     0.00    -0.00   0.021  104
   -19.54    12.75   256.00     0.01     0.00    -0.00   0.021  106
   -17.59    12.75   253.96     0.01     0.00    -0.00   0.020  107
   -19.54    11.77   253.96     0.01     0.00    -0.00   0.021  108
   -19.54    13.73   253.96     0.01     0.00    -0.00   0.020  109
   -17.59    11.77   254.98     0.01     0.00    -0.00   0.021  110
   -18.56    13.73   253.96     0.01     0.00    -0.00   0.020  111
   -19.54    12.75   253.96     0.01     0.00    -0.00   0.020  113
   -19.54    11.77   254.98     0.01     0.00    -0.00   0.021  114
   -18.56    11.77   252.95     0.01     0.00    -0.00   0.020  115
   -19.54    11.77   253.96     0.01     0.00    -0.00   0.021  116
   -19.54    12.75   254.98     0.01     0.00    -0.00   0.020  117
   -18.56    12.75   254.98     0.01     0.00    -0.00   0.021  118
   -17.59    12.75   254.98     0.01     0.00    -0.00   0.021  120
   -19.54    12.75   254.98     0.01     0.00    -0.00   0.020  121
   -19.54    11.77   254.98     0.01     0.00    -0.00   0.021  122
   -18.56    12.75   252.95     0.01     0.00    -0.00   0.020  123
   -18.56    10.79   252.95     0.01     0.00    -0.00   0.020  124
   -18.56    12.75   252.95     0.01     0.00    -0.00   0.021  125
   -19.54    12.75   252.95     0.01     0.00    -0.00   0.021  127
   -19.54    12.75   252.95     0.01     0.00    -0.00   0.020  128
   -19.54    13.73   254.98     0.01     0.00    -0.00   0.021  129
   -18.56    12.75   253.96     0.01     0.00    -0.00   0.020  130
   -17.59    11.77   253.96     0.01     0.00    -0.00   0.021  131
   -18.56    12.75   254.98     0.01     0.00    -0.00   0.020  132
   -18.56    13.73   252.95     0.01     0.00    -0.00   0.020  134
   -19.54    13.73   253.96     0.01     0.00    -0.00   0.021  135
   -18.56    13.73   254.98     0.01     0.00    -0.00   0.020  136
   -19.54    13.73   253.96     0.01     0.00    -0.00   0.021  137
   -20.52    12.75   252.95     0.01     0.00    -0.00   0.020  138
   -18.56    12.75   253.96     0.01     0.00    -0.00   0.021  139
   -19.54    12.75   254.98     0.01     0.00    -0.00   0.021  141
   -18.56    12.75   254.98     0.01     0.00    -0.00   0.020  142
   -18.56    13.73   254.98     0.01     0.00    -0.00   0.021  143
   -19.54    12.75   252.95     0.01     0.00    -0.00   0.020  144
   -19.54    14.71   253.96     0.01     0.00    -0.00   0.021  145
   -17.59    11.77   254.98     0.01     0.00    -0.00   0.020  146
   -18.56    12.75   254.98     0.01     0.00    -0.00   0.020  148
   -18.56    12.75   254.98     0.01     0.00    -0.00   0.020  149
   -18.56    12.75   253.96     0.01     0.00    -0.00   0.021  150
   -18.56    13.73   256.00     0.01     0.00    -0.00   0.020  151
   -17.59    12.75   254.98     0.01     0.00    -0.00   0.021  152
   -18.56    12.75   253.96     0.01     0.00    -0.00   0.020  153
   -17.59    12.75   253.96     0.01     0.00    -0.00   0.020  155
   -19.54    12.75   252.95     0.01     0.00    -0.00   0.021  156
   -19.54    12.75   252.95     0.01     0.00    -0.00   0.020  157
   -18.56    13.73   256.00     0.01     0.00    -0.00   0.021  158
   -19.54    12.75   254.98     0.01     0.00    -0.00   0.020  159
   -18.56    12.75   252.95     0.01     0.00    -0.00   0.021  160
   -17.59    12.75   254.98     0.01     0.00    -0.00   0.021  162
   -18.56    12.75   254.98     0.01     0.00    -0.00   0.020  163
   -18.56    12.75   253.96     0.01     0.00    -0.00   0.021  164
   -18.56    12.75   254.98     0.01     0.00    -0.00   0.020  165
   -18.56    13.73   252.95     0.01     0.00    -0.00   0.021  166
   -18.56    12.75   254.98     0.01     0.00    -0.00   0.020  167
   -18.56    12.75   252.95     0.01     0.00    -0.00   0.020  169
   -18.56    13.73   251.93     0.01     0.00    -0.00   0.021  170
   -19.54    14.71   252.95     0.01     0.00    -0.00   0.020  171
   -19.54    12.75   253.96     0.01     0.00    -0.00   0.021  172
   -19.54    10.79   253.96     0.01     0.00    -0.00   0.020  173
   -18.56    14.71   254.98     0.01     0.00    -0.00   0.020  174
   -18.56    12.75   254.98     0.01     0.00    -0.00   0.020  176
   -18.56    12.75   253.96     0.01     0.00    -0.00   0.021  177
   -19.54    13.73   253.96     0.01     0.00    -0.00   0.020  178
   -20.52    12.75   252.95     0.01     0.00    -0.00   0.021  179
   -18.56    11.77   252.95     0.01     0.00    -0.00   0.020  180
   -20.52    13.73   254.98     0.01     0.00    -0.00   0.021  181
   -18.56    13.73   253.96     0.01     0.00    -0.00   0.021  183
   -18.56    12.75   254.98     0.01     0.00    -0.00   0.020  184
   -17.59    12.75   254.98     0.01     0.00    -0.00   0.021  185
   -18.56    11.77   253.96     0.01     0.00    -0.00   0.020  186
   -19.54    12.75   254.98     0.01     0.00    -0.00   0.021  187
   -18.56    11.77   254.98     0.01     0.00    -0.00   0.020  188
   -17.59    11.77   254.98     0.01     0.00    -0.00   0.020  190
   -18.56    12.75   254.98     0.01     0.00    -0.00   0.021  191
   -19.54    11.77   251.93     0.01     0.00    -0.00   0.020  192
   -19.54    12.75   254.98     0.01     0.00    -0.00   0.021  193
   -18.56    13.73   252.95     0.01     0.00    -0.00   0.020  194
   -18.56    12.75   254.98     0.01     0.00    -0.00   0.021  195
   -18.56    13.73   253.96     0.01     0.00    -0.00   0.021  197
   -19.54    13.73   253.96     0.01     0.00    -0.00   0.020  198
   -18.56    13.73   253.96     0.01     0.00    -0.00   0.020  199
   -18.56    11.77   254.98     0.01     0.00    -0.00   0.021  200
   -20.52    12.75   252.95     0.01     0.00    -0.00   0.020  201
   -20.52    10.79   251.93     0.01     0.00    -0.00   0.021  202
   -18.56    12.75   256.00     0.01     0.00    -0.00   0.021  204
   -19.54    13.73   254.98     0.01     0.00    -0.00   0.020  205
   -19.54    13.73   254.98     0.01     0.00    -0.00   0.021  206
   -18.56    12.75   253.96     0.01     0.00    -0.00   0.020  207
   -19.54    11.77   253.96     0.01     0.00    -0.00   0.021  208
   -19.54    12.75   253.96     0.01     0.00    -0.00   0.020  209
   -19.54    12.75   253.96     0.01     0.00    -0.00   0.020  211
   -19.54    12.75   254.98     0.01     0.00    -0.00   0.021  212
   -18.56    11.77   254.98     0.01     0.00    -0.00   0.020  213
   -19.54    12.75   251.93     0.01     0.00    -0.00   0.021  214
   -19.54    12.75   252.95     0.01     0.00    -0.00   0.020  215
   -21.50    13.73   254.98     0.01     0.00    -0.00   0.021  216
   -18.56    12.75   254.98     0.01     0.00    -0.00   0.021  218
   -19.54    12.75   252.95     0.01     0.00    -0.00   0.020  219
   -18.56    12.75   253.96     0.01     0.00    -0.00   0.021  220
   -17.59    12.75   253.96     0.01     0.00    -0.00   0.020  221
   -17.59    12.75   252.95     0.01     0.00    -0.00   0.021  222
   -18.56    11.77   253.96     0.01     0.00    -0.00   0.020  223
   -19.54    12.75   252.95     0.01     0.00    -0.00   0.021  225
   -19.54    13.73   256.00     0.01     0.00    -0.00   0.020  226
   -18.56    13.73   253.96     0.01     0.00    -0.00   0.021  227
   -18.56    13.73   253.96     0.01     0.00    -0.00   0.020  228
   -18.56    13.73   254.98     0.01     0.00    -0.00   0.021  229
   -17.59    11.77   253.96     0.01     0.00    -0.00   0.020  230
   -18.56    13.73   253.96     0.01     0.00    -0.00   0.020  232
   -18.56    12.75   252.95     0.01     0.00    -0.00   0.021  233
   -19.54     9.81   251.93     0.01     0.00    -0.00   0.020  234
   -18.56    11.77   254.98     0.01     0.00    -0.00   0.021  235
   -16.61    13.73   253.96     0.01     0.00    -0.00   0.020  236
   -19.54    11.77   253.96     0.01     0.00    -0.00   0.021  237
   -18.56    12.75   254.98     0.01     0.00    -0.00   0.021  239
   -17.59    13.73   254.98     0.01     0.00    -0.00   0.020  240
   -18.56    13.73   253.96     0.01     0.00    -0.00   0.021  241
   -18.56    12.75   253.96     0.01     0.00    -0.00   0.020  242
   -18.56    12.75   254.98     0.01     0.00    -0.00   0.021  243
   -18.56    12.75   253.96     0.01     0.00    -0.00   0.020  244
   -19.54    12.75   253.96     0.01     0.00    -0.00   0.020  246
   -21.50    12.75   256.00     0.01     0.00    -0.00   0.021  247
   -21.50     9.81   251.93     0.01     0.00    -0.00   0.020  248
   -22.47     9.81   252.95     0.01     0.00    -0.00   0.020  249
   -21.50    12.75   257.02     0.01     0.00    -0.00   0.021  250
   -17.59    11.77   254.98     0.01     0.00    -0.00   0.020  251
   -18.56    13.73   256.00     0.01     0.00    -0.00   0.020  253
   -19.54    12.75   254.98     0.01     0.00    -0.00   0.021  254
   -19.54    12.75   252.95     0.01     0.00    -0.00   0.020  255
   -19.54    12.75   252.95     0.01     0.00    -0.00   0.021    0
   -18.56    11.77   253.96     0.01     0.00    -0.00   0.020    1
   -18.56    12.75   254.98     0.01     0.00    -0.00   0.021    2
   -20.52    12.75   251.93     0.01     0.00    -0.00   0.021    4
   -18.56    13.73   253.96     0.01     0.00    -0.00   0.020    5
   -19.54    11.77   250.91     0.01     0.00    -0.00   0.021    6
   -19.54    12.75   253.96     0.01     0.00    -0.00   0.020    7
   -17.59    12.75   254.98     0.01     0.00    -0.00   0.021    8
   -19.54    13.73   253.96     0.01     0.00    -0.00   0.020    9
   -19.54    12.75   254.98     0.01     0.00    -0.00   0.020   11
   -18.56    12.75   253.96     0.01     0.00    -0.00   0.021   12
   -20.52    11.77   252.95     0.01     0.00    -0.00   0.020   13
   -19.54    10.79   253.96     0.01     0.00    -0.00   0.021   14
   -18.56    12.75   254.98     0.01     0.00    -0.00   0.020   15
   -18.56    12.75   254.98     0.01     0.00    -0.00   0.021   16
   -19.54    11.77   251.93     0.01     0.00    -0.00   0.020   18
   -18.56    11.77   253.96     0.01     0.00    -0.00   0.021   19
   -18.56    12.75   254.98     0.01     0.00    -0.00   0.020   20
   -19.54    13.73   254.98     0.01     0.00    -0.00   0.021   21
   -18.56    12.75   253.96     0.01     0.00    -0.00   0.020   22
   -18.56    12.75   253.96     0.01     0.00    -0.00   0.021   23
   -19.54    11.77   259.05     0.01     0.00    -0.00   0.021   25
   -18.56    12.75   253.96     0.01     0.00    -0.00   0.020   26
   -21.50    12.75   250.91     0.01     0.00    -0.00   0.021   27
   -17.59    12.75   253.96     0.01     0.00    -0.00   0.020   28
   -18.56    13.73   253.96     0.01     0.00    -0.00   0.021   29
   -17.59    12.75   254.98     0.01     0.00    -0.00   0.020   30
   -18.56    12.75   254.98     0.01     0.00    -0.00   0.020   32
   -19.54    12.75   253.96     0.01     0.00    -0.00   0.021   33
   -18.56    13.73   254.98     0.01     0.00    -0.00   0.020   34
   -18.56    13.73   253.96     0.01     0.00    -0.00   0.021   35
   -18.56    15.69   254.98     0.01     0.00    -0.00   0.020   36
   -18.56    12.75   252.95     0.01     0.00    -0.00   0.021   37
   -20.52    10.79   258.04     0.01     0.00    -0.00   0.021   39
   -19.54    13.73   254.98     0.01     0.00    -0.00   0.020   40
   -18.56    13.73   253.96     0.01     0.00    -0.00   0.021   41
   -18.56    13.73   256.00     0.01     0.00    -0.00   0.020   42
   -19.54    14.71   254.98     0.01     0.00    -0.00   0.020   43
   -18.56    13.73   254.98     0.01     0.00    -0.00   0.021   44
   -19.54    12.75   254.98     0.01     0.00    -0.00   0.021   46
   -19.54    12.75   253.96     0.01     0.00    -0.00   0.020   47
   -18.56    14.71   257.02     0.01     0.00    -0.00   0.021   48
   -17.59    15.69   251.93     0.01     0.00    -0.00   0.020   49
   -21.50    13.73   252.95     0.01     0.00    -0.00   0.021   50
   -21.50    10.79   252.95     0.01     0.00    -0.00   0.020   51
   -18.56    11.77   254.98     0.01     0.00    -0.00   0.020   53
   -19.54    12.75   254.98     0.01     0.00    -0.00   0.021   54
   -17.59    12.75   256.00     0.01     0.00    -0.00   0.020   55
   -18.56    11.77   256.00     0.01     0.00    -0.00   0.021   56
   -19.54    12.75   253.96     0.01     0.00    -0.00   0.020   57
   -19.54    12.75   253.96     0.01     0.00    -0.00   0.021   58
   -22.47     6.87   250.91     0.01     0.00    -0.00   0.021   60
   -17.59    15.69   257.02     0.01     0.00    -0.00   0.020   61
   -18.56    14.71   248.87     0.01     0.00    -0.00   0.021   62
   -18.56    13.73   250.91     0.01     0.00    -0.00   0.020   63
   -22.47    12.75   251.93     0.01     0.00    -0.00   0.021   64
   -19.54    13.73   254.98     0.01     0.00    -0.00   0.020   65
   -17.59    12.75   254.98     0.01     0.00    -0.00   0.020   67
   -19.54    13.73   254.98     0.01     0.00    -0.00   0.020   68
   -19.54    10.79   253.96     0.01     0.00    -0.00   0.021   69
   -19.54    12.75   257.02     0.01     0.00    -0.00   0.020   70
   -17.59    11.77   253.96     0.01     0.00    -0.00   0.021   71
   -18.56    12.75   253.96     0.01     0.00    -0.00   0.020   72
   -25.40     6.87   250.91     0.01     0.00    -0.00   0.020   74
   -18.56    11.77   254.98     0.01     0.00    -0.00   0.021   75
   -17.59    12.75   253.96     0.01     0.00    -0.00   0.020   76
   -17.59    13.73   257.02     0.01     0.00    -0.00   0.021   77
   -18.56    12.75   254.98     0.01     0.00    -0.00   0.020   78
   -18.56    12.75   254.98     0.01     0.00    -0.00   0.021   79
   -25.40    13.73   253.96     0.01     0.00    -0.00   0.021   81
   -20.52    13.73   251.93     0.01     0.00    -0.00   0.020   82
   -19.54    12.75   252.95     0.01     0.00    -0.00   0.021   83
   -18.56    13.73   253.96     0.01     0.00    -0.00   0.020   84
   -18.56    12.75   252.95     0.01     0.00    -0.00   0.021   85
   -20.52    12.75   247.86     0.01     0.00    -0.00   0.020   86
   -19.54    13.73   253.96     0.01     0.00    -0.00   0.020   88
   -19.54    12.75   256.00     0.01     0.00    -0.00   0.021   89
   -19.54    12.75   253.96     0.01     0.00    -0.00   0.020   90
   -18.56    11.77   252.95     0.01     0.00    -0.00   0.021   91
   -18.56    12.75   256.00     0.01     0.00    -0.00   0.020   92
   -12.70    13.73   258.04     0.01     0.00    -0.00   0.020   93
   -20.52    12.75   252.95     0.01     0.00    -0.00   0.020   95
   -19.54    13.73   251.93     0.01     0.00    -0.00   0.021   96
   -18.56    14.71   254.98     0.01     0.00    -0.00   0.020   97
   -17.59    12.75   250.91     0.01     0.00    -0.00   0.021   98
   -16.61    12.75   254.98     0.01     0.00    -0.00   0.020   99
   -17.59    14.71   256.00     0.01     0.00    -0.00   0.021  100
   -18.56    10.79   252.95     0.01     0.00    -0.00   0.021  102
   -19.54    12.75   253.96     0.01     0.00    -0.00   0.020  103
   -19.54    11.77   253.96     0.01     0.00    -0.00   0.021  104
   -17.59    13.73   258.04     0.01     0.00    -0.00   0.020  105
   -18.56    11.77   254.98     0.01     0.00    -0.00   0.021  106
   -24.43    13.73   258.04     0.01     0.00    -0.00   0.020  107
   -22.47     2.94   246.84     0.01     0.00    -0.00   0.020  109
   -18.56    12.75   253.96     0.01     0.00    -0.00   0.021  110
   -17.59    12.75   256.00     0.01     0.00    -0.00   0.020  111
   -17.59    13.73   256.00     0.01     0.00    -0.00   0.021  112
   -18.56    13.73   256.00     0.01     0.00    -0.00   0.020  113
   -20.52    12.75   252.95     0.01     0.00    -0.00   0.021  114
   -18.56    11.77   253.96     0.01     0.00    -0.00   0.021  116
   -18.56    12.75   254.98     0.01     0.00    -0.00   0.020  117
   -22.47    11.77   247.86     0.01     0.00    -0.00   0.020  118
   -17.59    15.69   248.87     0.01     0.00    -0.00   0.021  119
   -22.47    14.71   253.96     0.01     0.00    -0.00   0.020  120
   -23.45    12.75   246.84     0.01     0.00    -0.00   0.021  121
   -17.59    13.73   257.02     0.01     0.00    -0.00   0.021  123
   -18.56    12.75   256.00     0.01     0.00    -0.00   0.020  124
   -18.56    14.71   256.00     0.01     0.00    -0.00   0.021  125
   -19.54    12.75   254.98     0.01     0.00    -0.00   0.020  126
   -19.54    12.75   253.96     0.01     0.00    -0.00   0.021  127
   -18.56    13.73   253.96     0.01     0.00    -0.00   0.020  128
   -21.50    11.77   248.87     0.01     0.00    -0.00   0.020  130
   -23.45     9.81   251.93     0.01     0.00    -0.00   0.021  131
   -20.52     7.85   250.91     0.01     0.00    -0.00   0.020  132
   -16.61    15.69   254.98     0.01     0.00    -0.00   0.021  133
